6809 10
86 10.134711307485395 3.7723605941973006 -1.6222322725311815 -7.626945636654868 -6.643617634264962 -4.786247592732996 -0.08001031073342335 7.601830573835705 2.3708566061275946 -2.603504352060101
2419 -0.07242169015752423 -0.3480855656546408 0.8666132310146651 -0.9732224413828612 1.0675596447584306 -0.19091970211181614 -1.0247491110781715 0.6598927525118576 -1.5486354257546795 0.7661120136226311
30 11.343356094020228 7.168801845707805 5.70080430647234 1.7526799558745638 -3.1791833653222707 -4.189912977822485 -5.429422068450772 -12.277859712926313 -0.40381198396765194 5.905930350046163
11311 -0.06835654100375078 -0.3851381966309264 0.9695946319721196 -1.1244822156129555 1.3325599021494774 -0.3319197165607478 -1.3290990850942865 0.9363104132449291 -2.4034039652304027 1.5175333672305091
11301 2.8234471357172124 -5.477600863144104 -2.1709013686844743 4.309793337263612 1.1920928099627046 -2.8175867622731636 -4.715535237359601 1.7940210219252215 2.2502050132608002 -3.466818272305702
11441 -0.1844622819536011 0.3168966481359852 -0.3297534184035815 0.2687398691105597 -0.36414481780482344 0.33336529093932366 -0.18698259769955697 0.03281652372192856 -0.0486829835207058 0.004494312122829308
11412 -0.10218927478807015 -0.19936089846355318 0.6444507770327865 -0.807614389899121 1.0798910580136671 -0.482574185335631 -0.7159469260338396 0.60556734786998 -1.6144415425707124 1.0838122580928384
11443 -0.17148464980106923 0.18803851564293872 -0.05141674459290292 -0.10563479112785118 0.452553804461127 -0.7166710639552001 0.6478680399323153 -0.1826327987155444 0.35720752539799877 -0.1318458815877295
19 6.642759845392792 -1.8240161860020645 -7.570315722597715 -5.157162922800472 4.626262858401351 8.416262040638369 5.71457237466089 -4.388470444372602 -3.4863441207417196 -1.5662693712899796
8851 -0.1844622819536011 0.3168966481359852 -0.3297534184035815 0.26873986911056047 -0.36414481780482094 0.33336529093930084 -0.18698259769950318 0.03281652372194555 -0.048682983520697394 0.0044943121227400806
11432 -0.17148464980106923 0.18803851564293872 -0.05141674459290292 -0.10563479112785121 0.45255380446112703 -0.7166710639552004 0.647868039932326 -0.18263279871547097 0.3572075253983258 -0.1318458815879735
60 9.999883382894442 5.367481853638423 1.9199938236531207 -5.88079630649325 -8.222153745558455 -6.8503412233763274 -2.6952286417663025 3.7194452718976985 0.5010153611879974 8.634506911257649
20319 3.4700916894887257 -4.355922443671446 -4.6949935082735825 2.7944848728100897 4.89119343328951 -1.1886569578824064 -5.634478835378915 -1.5326083624465767 8.522243752759737 1.198744929335468
32 5.510448427529632 -3.321039390496434 -7.702554716654811 -0.7666369287965688 5.4936505948384315 5.667890491837699 3.1947710062058534 -5.553815197134303 0.2504664234853437 5.546608311153186
12639 0.1479370446820137 -1.3237365912303924 1.8723704357835513 -1.1333923243232977 -0.33084277463800593 1.876751649321268 -0.8628240822437375 -0.5746427852017424 2.8985699029760865 -3.1597258649097277
43 7.228980834490856 -1.0034652100179646 -6.02008736266705 -6.876819319724808 1.6705781250056186 7.015309699350386 6.439318093799969 -0.6385374410002363 -3.9353261097603798 -4.915845667070484
15822 -0.1597218683448091 0.06108073715594003 0.22757017185472378 -0.4887879376234658 1.318978102879706 -1.8658790153969815 1.601509918614276 -0.4435489606771065 0.8653173069897268 -0.32138113734950574
44 11.697943588605193 10.681031253414943 12.779168532740268 14.972610462678166 9.796137914462605 6.736102161008678 2.9475640915825396 -3.7546388294731052 -4.8085441858534885 -17.29074783314692
15962 -0.07411800899675966 -0.35635277717458774 0.9265954473304642 -1.0924290443580569 1.3349466272956327 -0.3883689713781105 -1.2693309202469765 0.9257958187981943 -2.4161406330011848 1.5790237371278324
25988 0.2333953147727863 -1.7161095377588906 2.3106027808836114 -1.3855823380097851 -0.04983328750865775 1.386174538076573 -0.22606350404911982 -0.5275844798734903 2.0173173954221606 -0.8967279628623115
56 5.768474590963389 -2.8645000346737457 -6.552883057162642 -3.232123658176877 4.783373831181983 6.831812997570342 3.8951569798462984 -3.326013374196046 -3.290504693936115 1.9135760178903358
107 11.693415831928935 9.04459185711823 10.027226146136762 11.094600257466505 6.574735677947625 3.6123244817239684 1.7772295573777481 -7.982814728783206 -4.606576630836491 -10.19039012912254
66 11.728175461970965 8.89462801215991 11.81331001590812 15.546343514591772 9.35868385445523 6.695357314290179 3.945443004270332 -6.358576168778103 -7.23454040805644 -15.805234730470925
21680 -0.1597218683448091 0.06108073715594003 0.22757017185472378 -0.4887879376234658 1.318978102879706 -1.8658790153969815 1.601509918614276 -0.4435489606771065 0.8653173069897268 -0.32138113734950563
8843 0.053723871345105215 -0.9456683682527475 1.6288170480171764 -1.3673382849399442 0.6857503244254289 0.9439477012525755 -1.6858664392346987 0.388525994514055 -0.12077278710465077 -1.0319244263185579
8 11.451449169270123 7.864934433238702 6.563852201689451 3.4748535771244424 -1.9603988093167508 -4.600900960752827 -5.794195951927997 -13.181057860858175 -5.300236978370461 5.08405066615168
73 3.838583114297427 -5.343506262891098 -5.3220959420212095 4.9963439132347744 3.5972526121535 -3.02097610837925 -6.327096758549488 0.6009795348615682 4.188723039306419 0.8005454912843252
23684 -0.02572647008013583 -0.5807449676101719 1.2115783071773798 -1.2268818260900196 1.0416139251482293 0.26468353280440393 -1.496663197601771 0.734810005387088 -1.4215956317019018 0.2573018272583296
33 10.81638465291923 6.548159976134848 2.3416670855699704 -1.8345051914547374 -5.125576068314205 -6.980910888040564 -4.362824273855291 -4.824323181345396 -2.190568509689789 10.884657869784503
12976 2.832651202694925 -5.1910182801148625 -2.676017209658405 4.423634225726511 1.6679228188567465 -3.035416040681483 -4.743771417591736 1.420571199444963 3.0786495006138184 -2.2761686792302895
4593 3.3648020872019475 -5.184957128544911 -3.8741125114561115 4.060774016469827 3.303598130192699 -2.3506030121894836 -6.06970450663121 0.28509693994873125 5.336913524492178 0.9299283923738089
67 3.5083321910871628 -5.609427399737494 -3.734204466579279 4.32248916117386 2.80601136155454 -1.8214139942661165 -6.960679369782454 0.6633300009481986 5.659953203780172 -0.23497473606699965
22354 -0.1844622819536011 0.3168966481359852 -0.3297534184035815 0.26873986911056047 -0.36414481780482094 0.33336529093930084 -0.18698259769950334 0.032816523721944504 -0.04868298352070051 0.004494312122751304
21962 0.35953165014528876 -2.053033171369116 2.0248966638092547 -0.48511056102184463 -1.01951042454837 0.1913567400028698 2.5135186996993975 -1.6825406048969314 2.6879736872021547 0.49566540989960484
19183 -0.1844622819536011 0.3168966481359852 -0.3297534184035815 0.26873986911056047 -0.36414481780482094 0.33336529093930084 -0.18698259769950334 0.032816523721944504 -0.04868298352070051 0.004494312122751304
47 6.907685322840943 -2.6582334332126316 -6.378036274714994 -4.564459760203126 2.611425331127687 7.321462031924498 6.761743139325399 -2.415645490240158 -5.737431688477981 -1.3510427387798332
17186 -0.1844622819536011 0.3168966481359852 -0.3297534184035815 0.26873986911056047 -0.36414481780482094 0.33336529093930084 -0.18698259769950334 0.032816523721944504 -0.04868298352070051 0.004494312122751304
15952 0.4968214637975905 -2.5734465019055826 2.4112965070476435 -0.3256314236499692 -2.2091893607554263 1.7696814862682817 1.6568075764680965 -1.4796031630280342 2.2509735363753465 1.4867405951447534
17183 -0.17148464980106923 0.18803851564293872 -0.05141674459290292 -0.10563479112785121 0.45255380446112703 -0.7166710639552004 0.6478680399323259 -0.18263279871547186 0.35720752539832346 -0.13184588158796845
42 9.684900534246404 2.5181731664972276 -2.760956213338167 -8.208267153208228 -5.447901272713219 -2.4218705845897706 0.8171001894109424 8.777978514357402 0.9691329010501119 -4.455912290373099
13617 2.4471809537757263 -5.292359326329955 -1.5283515477670389 4.459333078263108 0.13884570972218657 -3.8782241481471034 -1.7547775812115614 1.9385291381702952 -0.43811130089194256 -3.1377078783550507
12640 -0.1844622819536011 0.3168966481359852 -0.3297534184035815 0.26873986911056047 -0.36414481780482094 0.33336529093930084 -0.18698259769950334 0.032816523721944504 -0.04868298352070051 0.004494312122751304
17178 3.2153186035935324 -4.882577842016032 -3.409273402806696 2.9509940031119677 3.5393562830512435 -0.9861447543977601 -6.39817533550573 -0.11146649036368683 7.642522208961539 -1.159519223174626
12634 -0.15644931140736287 0.07948239288247859 0.16400726065569318 -0.3637078425669851 0.8929839733243216 -1.1416867257955448 0.8256794815346847 -0.169155186198533 0.265426172756416 -0.025422159607658437
39 7.970428794504666 1.202090004262664 -1.3378529505282062 -7.35141309605219 -3.1302591038558396 -1.1422075859157874 -1.1902327918406426 5.1868871340347615 5.494288835752392 -3.316575215198764
14086 -0.1844622819536011 0.3168966481359852 -0.3297534184035815 0.26873986911056047 -0.36414481780482094 0.33336529093930084 -0.18698259769950334 0.032816523721944504 -0.04868298352070051 0.004494312122751304
22355 -0.1844622819536011 0.3168966481359852 -0.3297534184035815 0.26873986911056047 -0.36414481780482094 0.33336529093930084 -0.18698259769950334 0.032816523721944504 -0.04868298352070051 0.004494312122751304
12978 1.4247337199847177 -4.197597198117415 0.6224827061526078 3.362184905143177 -3.2549124105180223 -2.0275694721678286 2.344942990035299 1.1629742397858782 -3.820853629732086 -2.2977701825088115
82 9.634094310208065 2.8334941916250656 -2.6169191168763057 -7.472286386978876 -5.685789579309362 -2.735212726729998 0.8763505932315436 7.223784731001565 2.239777658043034 -2.453044654803217
1311 -0.12769347516662483 -0.05686881514627511 0.38872894107147415 -0.549945652083791 0.8504404925409905 -0.5697109301814653 -0.2154109910401121 0.31692361593258406 -0.8934430556734456 0.6406840257068213
7 6.002085635293963 -3.3172282178032897 -7.8465424092242735 -2.0565630539660233 6.274083644604745 6.346175966962397 2.8090435321338125 -5.020052705844003 -1.9871960348593949 5.603862043837686
2991 -0.1597218683448091 0.06108073715594003 0.22757017185472378 -0.4887879376234658 1.318978102879706 -1.8658790153969815 1.601509918614276 -0.4435489606771065 0.8653173069897268 -0.32138113734950563
8174 -0.1844622819536011 0.3168966481359852 -0.3297534184035815 0.26873986911056047 -0.36414481780482094 0.33336529093930084 -0.18698259769950334 0.032816523721944504 -0.04868298352070051 0.004494312122751304
17 11.16386807243728 6.691088270275453 4.445669354058997 0.4829493575007939 -4.321945178395175 -5.723892108271242 -5.68339128654519 -8.399456778676216 0.5741318429814525 6.291433789412227
2878 8.572237642793587 1.1412406658717085 -3.0131125616059626 -7.089342903247893 -3.716043332692261 -1.6332938671940127 1.5969949167744273 8.444174911953892 -0.01881936322287144 -7.641236948347447
5 3.2308828673779386 -5.796107799833579 -3.353439490566503 5.358588414142767 1.6652319010017418 -3.7902374090454503 -5.245739189496769 1.7954327764936509 2.962346555655247 -2.683662383167648
2567 -0.05598633419935481 -0.513046152120949 1.2482564271012722 -1.503246118979972 2.1741213624917446 -1.431541869728811 -0.434852826937343 0.6981276710454984 -1.9464038199752307 1.3545956424943384
6 10.06642684857142 3.8900601146387426 -0.3789848600414934 -6.986502771684694 -7.554328250166129 -5.737989228036715 -2.0061671633995366 7.726271304976996 2.457223566254883 0.30804735566800595
31 12.577944177508755 11.246244911363785 15.713952456572802 22.7787198442602 19.092407974860276 19.09288361507686 17.69974576928081 49.60728161299208 18.944554148047235 30.03870235889329
11686 10.506234589204743 3.8123317324770634 0.06648177922986766 -6.110297324780674 -7.337906085987692 -5.9741474225377535 -2.717955734945285 4.577260381668323 5.3595669186400485 2.6154956383380776
17756 1.7776635035249955 -4.089037303080513 -1.2568510914229465 4.373712608727192 -1.2517528484190872 -3.801359144806384 1.313742805895641 0.9723335531835254 0.6475116560154603 -2.8639462590747478
52 12.421517126410782 9.686242048074531 12.674523204944581 17.468879969211578 14.168839089149625 10.026137936577332 6.289442265601985 11.252345788742243 -1.9637943516117338 -12.288265008626107
9856 2.383712924074336 -5.364972344562452 -1.0959314079154703 4.302439419701398 -0.329759995203118 -3.337421811856519 -2.2819931397396465 2.333024464872812 -1.7929541269383853 -2.7371241005920295
25 10.317515442301875 3.5504655271019554 -0.2564807186568622 -6.900945333463922 -7.00087074750399 -4.782555250747839 -2.7304671109007677 6.076411908434991 4.034394007526564 1.6176114585333512
11139 3.5595249785458227 -5.003558611275108 -3.88772205350195 2.4237982929815476 3.2052389434898343 0.19367428108492546 -3.8278473112083806 -2.0102984956267007 6.816164753874113 4.850762282396513
29 5.916708714103608 -2.8480392683579048 -6.450262141387282 -3.091295240724499 3.979786703034944 6.1590253239519335 4.4114613115610855 -3.405235730418993 -5.2830821676302895 2.3527411214880494
2642 3.2006534940099445 -5.685853660485218 -3.1021314458445377 4.5795628634278405 2.4339325241827203 -2.9635038596621333 -6.462653153997997 1.7205303296665806 4.353834281361592 -3.6167168161815417
18573 -0.1844622819536011 0.3168966481359852 -0.3297534184035815 0.26873986911056047 -0.36414481780482094 0.33336529093930084 -0.18698259769950334 0.032816523721944504 -0.04868298352070051 0.004494312122751304
55 11.329519598490565 8.024979491394756 7.400680860183155 3.9945349172824307 -1.0282641583333778 -2.660227644628355 -5.000653540924817 -13.849149082309841 -2.733391940263885 3.744942519030872
14 11.733814104337425 8.194766120515006 8.919117610550806 7.578062119210787 2.196538868486606 -0.3288986339589964 -3.826399635309403 -13.643338404123613 -3.823208918765228 -0.44809982035521634
4732 0.12468021390802086 -1.2502642097864478 1.899551311207651 -1.3507360764259173 0.2404987128630272 1.440916105317152 -1.3472636463427838 0.020367621827101938 1.0486192833732952 -1.5911589115306004
4594 4.555080012783713 -4.843096261315243 -5.666241384267257 1.5865117431840174 5.38977315350576 0.4292464513112395 -1.2829524096871205 -2.4574972364577357 -0.0752178609203585 5.018185853366011
3039 -0.1592727280921481 0.05856886709656343 0.23208448657948677 -0.4933449720948085 1.323058991988217 -1.8643717319736608 1.592655774706867 -0.4384253051422551 0.8524901215428378 -0.31345775368494416
17774 0.0605225489091114 -0.9889379449072438 1.7098193147232221 -1.457402429887405 0.8651576675296414 0.8111894642157275 -1.8817461004251999 0.5260416289172476 -0.6267847748217347 -0.5102748925000941
25156 -0.1597218683448091 0.06108073715594003 0.22757017185472378 -0.4887879376234658 1.318978102879706 -1.8658790153969815 1.601509918614276 -0.4435489606771065 0.8653173069897268 -0.32138113734950563
15570 0.8151910014666144 -3.0738149700062567 1.4395337266325783 1.5400290048430336 -2.92953538643717 -0.8200820444043467 3.3175574027625716 -0.2994835840178216 -3.6772991017014127 4.881611391912522
28 7.31749751436344 -1.78055896305196 -5.432301261673675 -6.404684411821049 1.0131075743337203 6.182711477385313 5.7653248691642105 0.6288339836529169 -5.668082332825079 -5.268238967417608
41 11.32744537351547 8.04763130773676 8.245380897671083 3.4494292600862098 0.26893957989259015 -3.4959583320329704 -6.741216192980893 -13.790374032626612 -1.73490442106645 2.0358907154102726
214 0.09309878812763979 -1.1245287029427733 1.8259730855362268 -1.4235189332358233 0.49722216309343764 1.2706342752606927 -1.7311355674715034 0.21135521610846428 0.5255670483532136 -1.6158697561056834
15518 0.2674666542636983 -1.8020878329851304 2.221414364196945 -1.0551714563652943 -0.7406138089721149 1.9105566133856378 -0.1927127137850017 -0.8352990124834132 2.4656278346353964 -0.7216497664596895
15951 -0.058910894836888474 -0.4154008111595764 0.9220576368709976 -0.9601235182405513 0.9858101069858185 -0.2991583224506002 -0.29571054394423596 0.13023359285035196 0.05820691118468152 -0.6363817806217482
62 8.361917798518398 0.6168374907915201 -4.88375925194259 -8.198957803773121 -1.7629414962947998 3.750015748852484 5.426675646024529 4.098348929931771 -1.6833575383156583 -7.564242793353371
21019 -0.1597218683448091 0.06108073715594003 0.22757017185472378 -0.4887879376234658 1.318978102879706 -1.8658790153969815 1.601509918614276 -0.4435489606771065 0.8653173069897268 -0.32138113734950563
2962 -0.16528846140678724 0.11863931712644997 0.10217236404660532 -0.3183441811083097 0.940275445725688 -1.3710490464713176 1.1990991024436757 -0.33636672668732054 0.6596672416248818 -0.24805916121824864
15964 -0.1844622819536011 0.3168966481359852 -0.3297534184035815 0.26873986911056047 -0.36414481780482094 0.33336529093930084 -0.18698259769950334 0.032816523721944504 -0.04868298352070051 0.004494312122751304
15965 -0.17148464980106923 0.18803851564293872 -0.05141674459290292 -0.10563479112785121 0.45255380446112703 -0.7166710639552004 0.6478680399323259 -0.18263279871547186 0.35720752539832346 -0.13184588158796845
13117 2.9154611280492673 -5.371474443020923 -2.7500493552898524 4.726855306610879 1.5413213278706008 -3.259185173696526 -4.581811354009183 1.6658017523975615 2.6244659758666398 -2.693720621899129
8142 -0.16699324727445952 0.1629198150491731 -0.006273597345274435 -0.15120513584128087 0.4933626955462407 -0.7015982297219961 0.5593266008582295 -0.1313962433669534 0.22893567092942435 -0.05261204494234938
15181 1.2278893980777665 -4.179229732564885 1.760095653342209 1.6966653599309272 -2.0976210031064615 -2.25924408921855 3.2725582707997747 0.4777997012499635 -3.7290684997864707 1.6822101593790948
17753 3.114972645480662 -5.205728132101205 -3.351882545973808 4.328234030496776 2.5418063115655145 -2.9027717747182598 -5.689732516971303 1.0110074792875487 4.216955587648399 -0.6045309017589352
15954 1.9112376618787585 -5.13629688612984 0.039455282261630066 4.431705643369652 -2.8668289456210356 -3.355439972112645 1.270928061968033 2.3899535582250744 -4.613218059355115 -2.881582474793872
13253 0.2988877201317763 -1.91911038652125 2.2727631430124404 -0.9734226940620438 -0.9539984879752913 1.9779467488155913 0.0841510242789505 -1.023935577280877 2.674394784065604 -0.4020012167310563
15967 -0.1597218683448091 0.06108073715594003 0.22757017185472378 -0.4887879376234658 1.318978102879706 -1.8658790153969815 1.601509918614276 -0.4435489606771065 0.8653173069897268 -0.32138113734950563
17188 0.01787927385348873 -0.775850044531115 1.4004663700536935 -1.2568817555506495 0.9375349359559684 0.36702441358190363 -1.3762820266314615 0.6213727708183965 -1.1944338505411372 0.5168198245276407
15 8.118515664291374 1.0360861948289166 -4.751524536642332 -6.9741385486439045 -2.8029472032064806 1.2254782907247028 5.4575053944065095 4.905507434522949 0.8118962820188836 -7.454382482254233
17189 -0.18404994172678785 0.3126330496196509 -0.3204646918992762 0.2561144056649932 -0.3360927691267458 0.2967112191670299 -0.15717438909427395 0.024877098981960118 -0.033449645345525705 -0.0009369453684539104
10158 3.2912493800465734 -5.261827841912147 -3.733835599870657 4.383431730086609 3.099478575203642 -2.784083437194155 -6.200606631960529 0.7407731029418237 4.915285347213736 -0.2166383096673953
15182 1.5066572011962718 -3.8326978890064654 -0.49122050311816196 3.6384279703680877 -1.6332040382994772 -3.5480389280565214 1.363869075856024 1.412000379997562 -1.549176318671873 -4.41889727042192
12979 -0.1844622819536011 0.3168966481359852 -0.3297534184035815 0.26873986911056047 -0.36414481780482094 0.33336529093930084 -0.18698259769950334 0.032816523721944504 -0.04868298352070051 0.004494312122751304
12980 -0.18404994172678785 0.3126330496196509 -0.3204646918992762 0.2561144056649932 -0.3360927691267458 0.2967112191670299 -0.15717438909427395 0.024877098981960118 -0.033449645345525705 -0.0009369453684539104
18 7.7244848769318 -1.0629449779226896 -6.413777726823694 -6.089053310673846 1.025182928372445 5.35160346299019 6.804987865634396 0.8417558043298342 -6.094976703871701 -4.914725940867406
8569 -0.027169685550427224 -0.5740821283648385 1.2038349247632887 -1.2241012681371781 1.047870578924819 0.2521748770997959 -1.4923986558978553 0.7410054478790902 -1.4451966977826893 0.2816589742938743
20 5.093770267508497 -4.352009278310973 -6.640854932954399 0.3495691746925799 5.629802804088636 3.729083990021655 -1.3435499751074145 -4.243431145698559 2.0417768864023924 7.269490485834273
2657 3.1168471171981325 -5.314216503174438 -3.266649458175461 4.510252729801264 2.2970827013017874 -3.0017604039142136 -5.402154096588172 0.9971265264507851 3.983048659522273 -0.7402036888726552
383 2.0063153353346963 -5.298447285385073 -0.05429626558869714 4.497791164488928 -2.6426058568251256 -3.3268307978735208 0.6360320538455203 2.5076601849457183 -4.089327309565934 -4.2453093324188895
4 11.234749231357714 6.872650825836199 5.8269770698642605 1.2752273577756321 -4.687073155931414 -6.625729810326903 -6.386279316969886 -10.663793291629379 0.6959078903994312 10.244204262369488
2647 1.200854901898376 -4.000873348016067 1.4461755867554744 2.387762192686423 -3.2339150909712826 -0.9669643713993868 2.70053107526699 0.29183286424400257 -3.2141733936893777 0.778159221139453
10 8.391101675348427 0.8407882389599161 -4.873201962821397 -7.404931773154647 -1.9151852515840202 1.7556268784829914 3.8732970128426114 5.615467770755829 -2.019397711004571 -9.04209490520539
26 6.61807833827428 -2.8392696854980755 -7.05347856867584 -4.121454518011786 4.938181686907183 7.093254198776233 4.449008685618981 -2.8956737507429624 -6.1330954945083676 0.833519971011801
9957 0.8263148196062533 -3.2865864936277362 1.9647567484551318 1.1042213547692492 -3.146505664907672 0.23408658968285448 2.988348064611595 -0.7911594538350147 -1.4556037912440305 3.2951082529008464
97 1.0625621519465895 -3.761585569925087 1.6655355830647043 1.8283046648879 -2.8198425422609907 -1.2317083885907636 3.1534296546475518 -0.0319893915610553 -2.94445216563273 1.8378483566694725
11680 2.5806048645469275 -5.848886427998493 -1.3150035570430516 4.996994452400033 -0.10246276459363289 -5.24132926617458 -0.5444673096176785 2.4926017389282666 -1.8055639612156051 -4.626181555325601
59 10.683716047414247 5.52321742608607 2.4197018457813884 -1.4858043715483706 -5.266357250538486 -6.214335124089399 -4.760071318128925 -4.249167965665121 0.709631179227936 8.618615104546162
4268 -0.1751846268503041 0.22096568151846804 -0.12075707205671678 -0.015333058414699459 0.2670262774518765 -0.4913513239368045 0.48370209591816377 -0.1458205329277 0.2940671254207107 -0.11770898142934601
12 6.178297409182003 -3.0667571629142136 -7.698672410101932 -2.4104644695702233 5.196909571644747 7.13779616319171 4.469371462258752 -5.302720786339923 -2.315963071373893 3.246529210566511
15520 0.36247176550130944 -2.184271311520532 2.4948844388265172 -1.0099796938951702 -1.218123780239071 2.1479623942167874 0.12095182573215962 -1.04416377722211 2.454000101846199 -0.31631324479030765
12981 3.9409757297587173 -5.188239934068231 -4.90962705236553 3.0765222472970537 4.952572153708208 -1.4945636391446753 -5.243214181571729 -0.9399472192939357 5.571428069176141 2.4864959260364827
21679 1.7604456991478041 -4.779077077449492 0.23651043510225123 3.7168217870437896 -2.169663106688864 -2.802282678834757 0.2463132692245192 2.4421791431810886 -4.260395688986973 -3.259522468542792
88 4.609177547040218 -5.203598668786553 -5.306577729552191 1.3908599575896208 4.261257776056604 2.0327187583076527 -2.5718730509645886 -2.558659735096461 0.8218436408692804 4.33120036936933
26808 1.969036686982457 -4.442735998619483 -0.9574318924115081 3.4723750137047555 0.4648010981748468 -2.549569832591216 -3.2623064935949153 2.622344322173378 0.018786961075708396 -6.155218922680228
26821 -0.16699324727445952 0.1629198150491731 -0.006273597345274435 -0.15120513584128087 0.4933626955462407 -0.7015982297219961 0.5593266008582295 -0.1313962433669534 0.22893567092942435 -0.05261204494234938
12982 0.7214892529357319 -3.063307579516203 1.9907445903409942 0.9141830269409984 -3.201700066130445 0.41608612651892185 4.110046481317437 -1.8910033451789545 1.5314471726544843 2.0146420692335716
11293 0.799405403134702 -3.2241091433310163 1.9889890314061014 0.9977349944718074 -3.0563065099340014 0.33808856055795217 2.8667198176055795 -0.8383686082706511 -1.1954227812429141 3.191967826900357
3040 -0.18404994172678785 0.3126330496196509 -0.3204646918992762 0.2561144056649932 -0.3360927691267458 0.2967112191670299 -0.15717438909427395 0.024877098981960118 -0.033449645345525705 -0.0009369453684539104
17750 0.2597771894868903 -1.7340737722995028 2.0065678962436184 -0.7724018722215003 -0.9410090339396396 1.450927570296911 1.072753776127648 -1.5490293914804198 3.9964145473417254 -1.3348003200126033
25984 -0.10074890778981795 -0.20655725332763783 0.6552005731932005 -0.8156276827128468 1.0792943767271321 -0.468461871631277 -0.7308889672456858 0.6081959964816598 -1.611257375627875 1.0684396656183686
12983 -0.18404994172678785 0.3126330496196509 -0.3204646918992762 0.2561144056649932 -0.3360927691267458 0.2967112191670299 -0.15717438909427395 0.024877098981960118 -0.033449645345525705 -0.0009369453684539104
342 -0.02259950322783782 -0.5951811193083946 1.2283556357412444 -1.2329063683211765 1.0280578419656177 0.2917856201643889 -1.5059030379602598 0.7213865466544168 -1.3704599885268622 0.2045280086813149
718 1.684525908246169 -4.613967032782015 0.1602449404098352 3.9319521299616964 -2.6253262741488124 -3.154998083857002 1.4963918845139823 2.2374998625145457 -5.646267686288839 -1.419968354547105
15185 -0.1844622819536011 0.3168966481359852 -0.3297534184035815 0.26873986911056047 -0.36414481780482094 0.33336529093930084 -0.18698259769950334 0.032816523721944504 -0.04868298352070051 0.004494312122751304
11726 0.7111645347835139 -2.971662428109248 1.947396145517893 0.7621909127698377 -2.783265477557118 0.3867768932435618 2.7289571459472675 -0.8789946167309294 -1.1194185375504073 3.6851664907474944
11445 -0.1844622819536011 0.3168966481359852 -0.3297534184035815 0.26873986911056047 -0.36414481780482094 0.33336529093930084 -0.18698259769950334 0.032816523721944504 -0.04868298352070051 0.004494312122751304
15953 0.2903629486797287 -1.8885976172851475 2.266259270906671 -1.0011197687520499 -0.8929146118258942 1.9852728950641665 0.0020584163130650934 -0.9891223900898508 2.6843387133333536 -0.49701403579394904
16 10.037393718106733 4.879525120519412 1.8137471688340876 -2.2217018781472286 -3.85891739238221 -5.33850149493789 -6.675926875073302 -2.8821842664171498 2.222977553698494 6.250612621902414
7700 -0.1597218683448091 0.06108073715594003 0.22757017185472378 -0.4887879376234658 1.318978102879706 -1.8658790153969815 1.601509918614276 -0.4435489606771065 0.8653173069897268 -0.32138113734950563
15186 0.9651235351151777 -3.9274431000328285 2.6551901316695736 0.7711055691195114 -3.0069386587971554 -0.37120634464917024 4.435058955529326 -1.3327816928116691 -0.5656434085142561 3.582779423630948
2670 -0.1844622819536011 0.3168966481359852 -0.3297534184035815 0.26873986911056047 -0.36414481780482094 0.33336529093930084 -0.18698259769950334 0.032816523721944504 -0.04868298352070051 0.004494312122751304
25383 -0.18033887968546905 0.2742606629726445 -0.23686615336053088 0.14248523465488958 -0.08362433102406631 -0.03317542678341324 0.11109948835279337 -0.04657772367789727 0.10365039823103683 -0.04981826278929115
84 7.096962603051271 -2.763569473724799 -7.439712913406767 -4.340850568507151 3.853842724895071 7.464620463054479 6.086503369165573 -4.161453760452953 -4.809057773837523 1.2786809625193412
17782 -0.1844622819536011 0.3168966481359852 -0.3297534184035815 0.26873986911056047 -0.36414481780482094 0.33336529093930084 -0.18698259769950334 0.032816523721944504 -0.04868298352070051 0.004494312122751304
15187 -0.09642780679506129 -0.22814631791989187 0.6874499616744421 -0.8396675611540233 1.0775043328675185 -0.42612493051819617 -0.7757150908811284 0.6160819423167818 -1.60170487479982 1.0223218881953435
3168 1.9717751808574986 -4.156904668675013 -1.6499153697923996 3.987489423693526 0.33979685682812 -4.303661873450419 0.5500559960959986 0.5936912706536449 2.2362031889871457 -3.651697247954115
2 10.981480178803409 6.899596404937352 4.829429610937689 1.8594624319517432 -1.5509902052831008 -4.923882223579326 -6.955710123998473 -12.627721006459225 0.8271872067419177 6.349153206247441
1121 -0.1844622819536011 0.3168966481359852 -0.3297534184035815 0.26873986911056047 -0.36414481780482094 0.33336529093930084 -0.18698259769950334 0.032816523721944504 -0.04868298352070051 0.004494312122751304
96 10.164876679135814 4.7694258971512715 0.9944493920751487 -4.587420583985555 -6.140855868358914 -6.088315241519189 -2.784522816215389 1.01670217375219 2.391697660755174 5.07413826189399
8570 -0.18033887968546905 0.2742606629726445 -0.23686615336053088 0.14248523465488958 -0.08362433102406631 -0.03317542678341324 0.11109948835279337 -0.04657772367789727 0.10365039823103683 -0.04981826278929115
35 9.870144464024143 4.265002782170498 -0.23392351230301475 -6.781217919812968 -8.102557291577897 -6.025266305904998 -1.7864956644891845 7.83505118905703 4.458384892859011 0.5709146655672758
3130 1.6181680800838028 -4.485463222569949 0.31712176952221954 3.644277495212354 -2.4139538073772155 -2.771574953208766 1.140593834576974 2.074188177597108 -4.634429148506297 -2.6552533973870056
3197 -0.06752338916334247 -0.4168441134928486 1.0534543247946915 -1.258260630241371 1.685000554485038 -0.8324325548271425 -0.9116703538934192 0.8291816581600985 -2.2225397388688264 1.495760426013437
15190 0.42210880022559766 -2.226613143394353 1.9333880810769524 0.11286224354984757 -2.510265520930892 1.6107281786153405 2.5627802831363438 -1.9916952552059726 3.3901638653805706 1.1223668645414158
15968 -0.09642780679506129 -0.22814631791989187 0.6874499616744421 -0.8396675611540233 1.0775043328675185 -0.42612493051819617 -0.7757150908811284 0.6160819423167818 -1.60170487479982 1.0223218881953435
11155 -0.1844622819536011 0.3168966481359852 -0.3297534184035815 0.26873986911056047 -0.36414481780482094 0.33336529093930084 -0.18698259769950334 0.032816523721944504 -0.04868298352070051 0.004494312122751304
18422 -0.04804842503435977 -0.5359631450120315 1.2348566608139417 -1.4187637848641739 1.9041487610463386 -1.1729392410773514 -0.25501986301958096 0.4436154154099395 -1.0651005559774764 0.47506935160067
54 6.312783160580307 -3.1612575058621957 -7.409841814986476 -2.93982022369057 4.945108948684078 6.878745371503669 5.961417866423216 -4.5373227153258675 -5.139587212223685 2.269873931326052
3041 -0.18404994172678785 0.3126330496196509 -0.3204646918992762 0.2561144056649932 -0.3360927691267458 0.2967112191670299 -0.15717438909427395 0.024877098981960118 -0.033449645345525705 -0.0009369453684539104
45 7.102665033822995 -2.2662040990391086 -7.777572475656546 -5.067304556223597 4.438196617877015 7.954890938432067 6.446654496251718 -4.18663765744273 -2.8547567008899253 -1.7134095093541242
25386 -0.16699324727445952 0.1629198150491731 -0.006273597345274435 -0.15120513584128087 0.4933626955462407 -0.7015982297219961 0.5593266008582295 -0.1313962433669534 0.22893567092942435 -0.05261204494234938
15818 1.6985060083773902 -4.764797062310494 0.3600021636455145 3.9313272265132033 -2.9021409168302004 -2.828556581372707 1.7720510884725988 1.807513570176093 -4.737819923799412 -1.7948961056993202
21156 0.46351426318171257 -2.0148600072247183 1.3493199712649147 0.28153872912024436 -0.8747583781990846 -0.8066393674707946 1.727977212438846 0.07918247300365586 -2.090834327060024 2.1276729245398744
63 8.002777066730115 -0.6146669373582004 -5.106753803069684 -6.5750078445836 -0.9791150613222595 3.2498845742850273 5.3760177946268435 3.3320136256616064 -1.3282014661631627 -7.545825356805209
16326 -0.17148464980106923 0.18803851564293872 -0.05141674459290292 -0.10563479112785121 0.45255380446112703 -0.7166710639552004 0.6478680399323259 -0.18263279871547186 0.35720752539832346 -0.13184588158796845
8504 -0.1267259239934571 -0.1174266177691425 0.5372518579511247 -0.7855131897434539 1.5313813279011965 -1.6689390089017724 0.9596748384796764 -0.10884807569367033 0.07387788790994 0.10666271532582788
25157 -0.1844622819536011 0.3168966481359852 -0.3297534184035815 0.26873986911056047 -0.36414481780482094 0.33336529093930084 -0.18698259769950334 0.032816523721944504 -0.04868298352070051 0.004494312122751304
9858 1.9796037303533498 -5.096565831185327 -0.1567367821065428 4.095160909049125 -1.644762223118064 -3.398170540409885 -0.3599980323428519 2.9246831097025856 -5.031030158120254 -2.7194071590172624
9880 0.28291153664850516 -1.8488289817949344 2.150128058223726 -0.8724460277009252 -0.954535115573951 1.5834710866242832 0.9307595996463195 -1.4602533964683873 3.914191873326233 -1.6067205328177179
10160 0.07702184081942552 -1.0821211783763056 1.892584502643665 -1.6530491662646862 0.9706424104525395 1.0042608228192718 -2.2615968388810375 0.7334206499665099 -1.0017800615223513 -0.4974797336697898
3177 0.6871049006410005 -2.82612028822305 1.777724510393863 0.7246009755282733 -1.936447814714914 -0.7525946067023156 3.620521459887835 -1.2946284465135736 0.93209010359858 0.8392943449387884
11291 -0.13330772832488696 -0.02547043940406816 0.33230000701193885 -0.49298272119200404 0.7994293786845977 -0.5885519729729681 -0.10473419219749378 0.25287792174693646 -0.7331032375873235 0.5416417298997984
9860 0.6859694010261924 -3.2958685603072464 3.076633118676209 -0.6002509976771028 -1.5672957529881568 0.6150535198336923 2.498936537748819 -1.339908970779413 0.7690276401990017 2.6785854258595676
14249 -0.15911444299667316 0.06013056015291627 0.22724505053624963 -0.48439869449486417 1.2941152648033902 -1.8162932171233421 1.5421142980892162 -0.4208155409149973 0.8142076706535369 -0.29478360632409645
40 10.638977733030531 4.896646609304944 0.549211963139939 -5.700597546479345 -7.644235132421217 -6.850262235425975 -2.223049344679057 3.621294319479205 2.7738724956585847 3.847047983480422
9862 0.2225208942954397 -1.6343777896645666 2.146058855488001 -1.1706927857970908 -0.4361993228133501 1.80759291120261 -0.5869589342230085 -0.5612706235413264 2.149927685036823 -1.1767603297544682
1 11.605911514209442 9.132222452221493 9.757459813001613 8.89855486161514 3.6259492987153936 2.2091376650896932 -0.6044640666859652 -13.15874621443356 -3.324845055167166 -3.6991643011520416
673 2.976865241225326 -4.917123300546048 -3.4180548081714393 4.288972159161103 2.8723248382740345 -3.379120181415114 -6.093862107814234 1.8729841755845946 2.530434072412036 -1.5445142869131796
25158 -0.1844622819536011 0.3168966481359852 -0.3297534184035815 0.26873986911056047 -0.36414481780482094 0.33336529093930084 -0.18698259769950334 0.032816523721944504 -0.04868298352070051 0.004494312122751304
25155 0.008610822127659618 -0.7506575450146035 1.4587625410949443 -1.4021671002344933 1.0104131036822557 0.5962160354257193 -1.8207493479596433 0.7709871906549837 -1.2844556221535957 -0.13603195706376348
9931 -0.16700410734489546 0.13851133927782744 0.05792086462376637 -0.25661753249042546 0.7970830792743024 -1.177107886243572 1.03375186335881 -0.2895610912675515 0.5668650307583297 -0.21162167572486434
14251 0.4245202541509038 -2.330268722523091 2.3346131221614126 -0.4610369658192462 -1.8081152372344176 1.7102080627725258 1.2350955098029783 -1.3179455350413656 2.0935030094473617 1.1316503906774567
6843 -0.16722867747122602 0.13976727430751576 0.05566370726138482 -0.25433901525475383 0.7950426347200467 -1.1778615279552325 1.0381789353125148 -0.2921229190349773 0.5732786234817736 -0.21558336755714466
11156 -0.10218927478807015 -0.19936089846355318 0.6444507770327865 -0.807614389899121 1.0798910580136694 -0.4825741853356353 -0.7159469260338723 0.6055673478699525 -1.61444154257056 1.0838122580927105
9932 -0.09642780679506129 -0.22814631791989187 0.6874499616744421 -0.8396675611540233 1.0775043328675185 -0.42612493051819617 -0.7757150908811284 0.6160819423167818 -1.60170487479982 1.0223218881953435
15511 0.6848235899615085 -2.9654373919276056 2.1151774885021486 0.5188325525919654 -2.7128225806773116 0.8333698490235275 2.481689578040244 -1.0523604023142938 -0.09781684155282619 2.5807560659175213
12986 -0.10341441141081656 -0.15545915258135035 0.5350166403102204 -0.6358898113190384 0.6092351389161234 0.23448719825909806 -1.4148382439192666 0.8341140567341938 -2.100020240454385 1.3103998500558873
15194 -0.1844622819536011 0.3168966481359852 -0.3297534184035815 0.26873986911056047 -0.36414481780482094 0.33336529093930084 -0.18698259769950334 0.032816523721944504 -0.04868298352070051 0.004494312122751304
12394 -0.10002872429069183 -0.21015543075968027 0.6605754712734073 -0.8196343291197096 1.0789960360838633 -0.4614057147790968 -0.738359987851593 0.6095103207875138 -1.609665292156532 1.0607533693811972
8853 -0.04435042436621383 -0.505077444365671 1.1487579013123512 -1.2580370958417173 1.322615214040519 -0.09671448815468107 -1.578133105291126 0.9801212234401449 -2.35033451618569 1.261323492658103
11859 -0.17827717855140307 0.25294267039097396 -0.19042252083900532 0.07935791742705384 0.0566359123663108 -0.21644578564476952 0.26014053137894155 -0.08627484737781843 0.1798170891069064 -0.0769745502453128
25388 -0.18033887968546905 0.2742606629726445 -0.23686615336053088 0.14248523465488958 -0.08362433102406631 -0.03317542678341324 0.11109948835279337 -0.04657772367789727 0.10365039823103683 -0.04981826278929115
7625 3.4975004948262116 -5.267702368497545 -4.048423790214286 3.9401415168796503 3.3746720514395268 -2.049155467414112 -5.880011757111088 -0.170434425928452 5.852928047000621 1.6415081136203185
25159 -0.14453623464141113 0.03732631208034597 0.21944213889286726 -0.37905685940842954 0.697407150971812 -0.6262340585559785 0.11661940548774839 0.12478653337563977 -0.41242360141507434 0.3435571382857497
12998 0.9292979171275291 -3.6590504572587177 2.2835210548502944 0.9519889692139467 -2.9981352712694345 0.33972907807317676 2.5580322454927304 -0.36633163140017233 -2.546626586202307 3.896083218096017
25160 -0.10218927478807015 -0.19936089846355318 0.6444507770327865 -0.807614389899121 1.0798910580136694 -0.4825741853356353 -0.7159469260338723 0.6055673478699525 -1.61444154257056 1.0838122580927105
15195 1.7627679161582828 -4.883700627259674 0.45183104324319145 3.7148603905556516 -2.0882540679283474 -3.571220284917329 0.898571760677459 2.5612524473074103 -5.71207929821966 -3.5811279871197654
25389 -0.1597218683448091 0.06108073715594003 0.22757017185472378 -0.4887879376234658 1.318978102879706 -1.8658790153969815 1.601509918614276 -0.4435489606771065 0.8653173069897268 -0.32138113734950563
15825 0.1963370865174898 -1.5362468094418822 2.099581826414284 -1.2360764757579565 -0.2599656161601294 1.738722485968658 -0.8142114200991811 -0.39595205199733635 1.9429050095108509 -1.4390147880185085
26036 -0.17148464980106923 0.18803851564293872 -0.05141674459290292 -0.10563479112785121 0.45255380446112703 -0.7166710639552004 0.6478680399323259 -0.18263279871547186 0.35720752539832346 -0.13184588158796845
11860 0.008610822127659618 -0.7506575450146035 1.4587625410949443 -1.4021671002344933 1.0104131036822557 0.5962160354257193 -1.8207493479596433 0.7709871906549837 -1.2844556221535957 -0.13603195706376348
11682 2.6810612549118917 -5.495067371336849 -1.9046683203528747 4.680182693278667 0.14957020541202487 -3.0874595663586737 -2.898085377111813 1.5646845871202928 1.4148893441598853 -3.3701749360547693
2926 0.18402088857700352 -1.4497074148024094 1.880174935465495 -0.9680750082271227 -0.45085256904209947 1.512764962528739 -0.1713318322795987 -0.6552165516254269 2.3651241054881567 -1.1627453359433606
11690 0.3497375510609111 -2.1398808796167326 2.482267605021562 -0.9920438583312463 -1.2398133941705074 2.2735490666619196 0.1566264121558587 -1.2278731696271583 3.297256164855323 -0.9139995800181618
11861 -0.1844622819536011 0.3168966481359852 -0.3297534184035815 0.26873986911056047 -0.36414481780482094 0.33336529093930084 -0.18698259769950334 0.032816523721944504 -0.04868298352070051 0.004494312122751304
339 -0.004196784563208907 -0.5585467483487915 0.8124136193889766 -0.42764435130003314 -0.3924279490490138 1.1845248835526883 -0.6039940730379533 -0.09531074731464094 0.8439355012101797 -0.7170882912640366
17749 -0.14453623464141113 0.03732631208034597 0.21944213889286726 -0.37905685940842954 0.697407150971812 -0.6262340585559785 0.11661940548774839 0.12478653337563977 -0.41242360141507434 0.3435571382857497
14074 3.506527232136189 -2.007952811590972 -4.083907718632026 -2.241179961194525 6.376769433299527 1.82674728611983 0.7485625247229347 -2.024732343865258 -2.599626465537646 2.6162448414795363
2538 1.4108091049758276 -4.270956500276087 0.8847824874082552 3.140513414652562 -3.0715900911143494 -2.1475329720304352 2.3027364373551635 1.4582316036567153 -5.104034901722548 -0.5136226038108798
17763 1.6908763315004744 -4.346437206909959 -0.00408711519630464 3.033329102260016 -0.6045770823449717 -2.7688790145440003 -0.7959646532566099 1.7892902330366065 -0.8821464459428623 -4.810781451099169
17752 6.106110315686969 -4.042722689397166 -6.944528210210418 -2.226777377129546 6.350198617989093 6.2340169356570545 2.12531623218306 -4.605972802647242 -2.308680901004199 5.114842093925924
17787 0.18118049542204337 -1.5695750327531939 2.4554451012409317 -1.9074641487173245 0.8474181642735169 1.2101750830318945 -1.764970365831469 0.3063430417317389 0.23430525701201452 -1.0331261170338053
17764 -0.06468375671805406 -0.3887494541782423 0.8910841072146326 -0.9490012864291851 1.0108367220921777 -0.3491929452690325 -0.278652377128566 0.15501536281835956 -0.0361973531384667 -0.5389531924795675
12988 -0.14453623464141113 0.03732631208034597 0.21944213889286726 -0.37905685940842954 0.697407150971812 -0.6262340585559785 0.11661940548774839 0.12478653337563977 -0.41242360141507434 0.3435571382857497
11761 -0.10122903012256865 -0.20415846837294294 0.6516173078063959 -0.8129565851082714 1.0794932704893112 -0.47316597619939604 -0.7259082868417482 0.6073197802777576 -1.6123187646087698 1.0735638631098157
21020 1.8982861459269031 -4.7094863054132015 -0.5710843972261795 4.072936955223708 -1.3622688962788019 -3.4724470034440547 -0.6110642035594691 2.8658887294419917 -3.754899396909656 -4.511438731441823
15972 0.09355203061215361 -1.1149710374041475 1.7387870306483717 -1.343797221014839 0.8418403169322458 0.21148709164676033 -0.5934408402105443 0.16821202797819176 -0.26487135374255505 0.6256320961704451
11691 3.2612456265519154 -5.166696340433489 -3.6659713415151787 4.126403025394177 3.0832212274360615 -2.472352087067362 -6.054693554986703 0.44867962189424077 5.287008897547762 0.6253236209986416
11862 -0.10218927478807015 -0.19936089846355318 0.6444507770327865 -0.807614389899121 1.0798910580136694 -0.4825741853356353 -0.7159469260338723 0.6055673478699525 -1.61444154257056 1.0838122580927105
23679 2.3936312553194696 -5.3282164123381195 -1.350326652584787 4.518514088870187 0.1368220518186136 -3.841885113983629 -3.0161883814189414 3.176922246610143 -2.644003039764538 -4.475703871708992
6844 -0.18033887968546905 0.2742606629726445 -0.23686615336053088 0.14248523465488958 -0.08362433102406631 -0.03317542678341324 0.11109948835279337 -0.04657772367789727 0.10365039823103683 -0.04981826278929115
11863 -0.1844622819536011 0.3168966481359852 -0.3297534184035815 0.26873986911056047 -0.36414481780482094 0.33336529093930084 -0.18698259769950334 0.032816523721944504 -0.04868298352070051 0.004494312122751304
10394 -0.025004862344990143 -0.5840763872328387 1.2154499983844258 -1.2282721050664405 1.0384855982599348 0.270937860656708 -1.4987954684537308 0.7317122841410871 -1.4097950986615089 0.2451232537405578
25993 1.8047097761653808 -4.92675652763613 0.3124151055136038 3.8365098144501983 -2.185796717440426 -3.1908904286072075 0.3999291347887847 2.748309532047122 -5.730111751982651 -2.335214084029272
11296 0.04799591576471716 -0.9210214859477763 1.60676438921175 -1.3684137571789112 0.7215541445196051 0.9032771903835811 -1.7126821257545808 0.41812541594311153 -0.215942607889144 -0.9848445699821848
7619 2.4044505471615625 -3.5663673069378308 -2.5902456267678327 2.041460901754628 3.5594726996011463 -1.6576282855887112 -5.272161149863784 0.924901371087846 1.5125227994087256 0.30151148390305355
8139 -0.027169685550427224 -0.5740821283648385 1.2038349247632887 -1.2241012681371781 1.047870578924819 0.2521748770997959 -1.4923986558978553 0.7410054478790902 -1.4451966977826893 0.2816589742938743
7628 0.5959734881882822 -2.6005840186328397 1.9303965439737643 0.21798497624915963 -1.1872970480034695 -0.867707388911219 2.910944720213316 -0.764491121066691 -0.469899502421367 1.763007097115356
11689 1.3851021890227888 -4.246455454477804 0.9928011999364943 2.7966258259721197 -2.331037194330265 -2.667794913698695 2.423942439241701 1.3308490480844528 -4.979186587755586 -0.08379982022344717
4821 0.4292185455537806 -2.3675286403746827 2.3976433573426665 -0.517825598089503 -1.8499549850469916 1.868115150621137 1.2354983412134415 -1.4265327202662497 2.5326794810808146 0.8925619697913805
8839 0.1868116770065291 -1.3399275065448482 1.4986290471536616 -0.7015789302451707 0.3885229922501855 -1.0255937286294015 1.6088235281601904 -0.46299877742283196 -0.25975170649132356 1.8854851644715531
61 6.898322268055867 -1.8492381395088564 -6.365293157786474 -5.9141257534358385 3.4298704645259663 7.883544193038661 5.442006798519562 -2.1205852447519216 -4.651334534634203 -5.547790043953481
11376 -0.025773805688132003 -0.5927148772376716 1.2040918843293085 -1.2088014694045308 1.2359731352866852 -0.29013993859134013 -0.770303119371994 0.3788542669904998 -0.6711810074352249 -0.005790246689494745
11372 0.1959042963062841 -1.53462480976878 2.0988136110576936 -1.237157197906071 -0.2570526623311508 1.7375841318325616 -0.8179676595351506 -0.3932195136247092 1.9394831471054645 -1.4433495724526262
696 -0.10218927478807015 -0.19936089846355318 0.6444507770327865 -0.807614389899121 1.0798910580136694 -0.4825741853356353 -0.7159469260338723 0.6055673478699525 -1.61444154257056 1.0838122580927105
87 6.338487389344277 -3.648604491556007 -7.708666627244201 -2.7002313005216854 7.259872639404495 5.8605361090433625 2.183980207863924 -4.587593917605864 -2.2754711150266687 3.7860750871270454
24834 0.4569227911782625 -2.5780815025231836 2.972036071090658 -1.1682771806170698 -1.3009484819375856 2.4003816060899164 -0.2922469977783886 -0.7868218329415416 1.9164011684197835 -0.030329108765620654
4251 -0.1844622819536011 0.3168966481359852 -0.3297534184035815 0.26873986911056047 -0.36414481780482094 0.33336529093930084 -0.18698259769950334 0.032816523721944504 -0.04868298352070051 0.004494312122751304
456 0.6802481503560465 -2.8006071110229818 1.5548697050121887 1.2712206241173363 -3.1080488210941004 -0.25857894521017777 4.644583509913239 -1.7635494666967308 0.7259276798625593 3.0677652397151878
21170 -0.16699324727445952 0.1629198150491731 -0.006273597345274435 -0.15120513584128087 0.4933626955462407 -0.7015982297219961 0.5593266008582295 -0.1313962433669534 0.22893567092942435 -0.05261204494234938
6702 0.2820694629358075 -1.45145639105729 1.0596279940965134 0.08243079500736808 -0.24440264936189002 -1.4800437073352735 2.4836421348313515 -0.606182987151815 -0.1608485613631208 1.0138967599911612
727 -0.1844622819536011 0.3168966481359852 -0.3297534184035815 0.26873986911056047 -0.36414481780482094 0.33336529093930084 -0.18698259769950334 0.032816523721944504 -0.04868298352070051 0.004494312122751304
10157 0.13404104593275568 -1.2876511321413877 1.925798462876207 -1.3358602871536223 0.17509197945936486 1.479994409102846 -1.2777707871862007 -0.033960258778409226 1.165966986028073 -1.5721870695942193
1113 -0.09867283309318005 -0.19576207546411103 0.5761390545774341 -0.6601982972842232 0.7540361890754327 -0.2509439153972404 -0.4120750388670444 0.2717654233332943 -0.5473078126388279 0.11243059948756375
1077 -0.060307435194111456 -0.4914570875286948 1.2160070386200303 -1.479206240538795 2.175911406351357 -1.473878810841888 -0.39002670330190303 0.6902417252103764 -1.955956320803286 1.4007134199173628
11692 0.12257402670245551 -1.241852152256587 1.8936457020822264 -1.3540831290121838 0.2552152278788511 1.4321234869653714 -1.362899539653015 0.03259139496334189 1.0222160502759698 -1.595427575966286
10209 -0.09642780679506129 -0.22814631791989187 0.6874499616744421 -0.8396675611540233 1.0775043328675185 -0.42612493051819617 -0.7757150908811284 0.6160819423167818 -1.60170487479982 1.0223218881953435
7650 0.0026567675022616407 -0.7117808061017309 1.3638648279878407 -1.2815661324959033 0.9185664008752955 0.5106870949950326 -1.5805325177788174 0.6129663030443828 -0.9574413321130906 -0.2217220644407225
1704 -0.09642780679506129 -0.22814631791989187 0.6874499616744421 -0.8396675611540233 1.0775043328675185 -0.42612493051819617 -0.7757150908811284 0.6160819423167818 -1.60170487479982 1.0223218881953435
8857 -0.160012723501995 0.06515430027166921 0.2182164210867241 -0.47528462555217826 1.2859534865863675 -1.8193077839699825 1.5598225859040342 -0.4310628519847005 0.839862041547315 -0.31063037365321977
14252 0.9295149254457683 -3.4856195601821867 1.7597223649068752 1.4840235701472708 -3.128569792920497 -0.16333052133153686 2.9534505602436325 -0.45828986498162033 -2.3728753611308986 2.822764955614381
6845 -0.18404994172678785 0.3126330496196509 -0.3204646918992762 0.2561144056649932 -0.3360927691267458 0.2967112191670299 -0.15717438909427395 0.024877098981960118 -0.033449645345525705 -0.0009369453684539104
11864 -0.16699324727445952 0.1629198150491731 -0.006273597345274435 -0.15120513584128087 0.4933626955462407 -0.7015982297219961 0.5593266008582295 -0.1313962433669534 0.22893567092942435 -0.05261204494234938
8858 -0.18033887968546905 0.2742606629726445 -0.23686615336053088 0.14248523465488958 -0.08362433102406631 -0.03317542678341324 0.11109948835279337 -0.04657772367789727 0.10365039823103683 -0.04981826278929115
9929 0.04799591576471716 -0.9210214859477763 1.60676438921175 -1.3684137571789112 0.7215541445196051 0.9032771903835811 -1.7126821257545808 0.41812541594311153 -0.215942607889144 -0.9848445699821848
20329 -0.1844622819536011 0.3168966481359852 -0.3297534184035815 0.26873986911056047 -0.36414481780482094 0.33336529093930084 -0.18698259769950334 0.032816523721944504 -0.04868298352070051 0.004494312122751304
10203 0.20088138373515058 -1.5532778060094563 2.1076480876584824 -1.2247288932027653 -0.29055163136440737 1.7506752043976916 -0.7747709060214981 -0.4246437049099295 1.9788345647674244 -1.3934995514602875
11727 -0.14453623464141113 0.03732631208034597 0.21944213889286726 -0.37905685940842954 0.697407150971812 -0.6262340585559785 0.11661940548774839 0.12478653337563977 -0.41242360141507434 0.3435571382857497
20316 1.5573734158745431 -4.4261756551303 0.47373859588329986 3.523644434076536 -2.5950714175356597 -2.614097307666775 1.472142431298095 1.8806763405293316 -4.884855303020497 -2.0817425655901975
11381 -0.18033887968546905 0.2742606629726445 -0.23686615336053088 0.14248523465488958 -0.08362433102406631 -0.03317542678341324 0.11109948835279337 -0.04657772367789727 0.10365039823103683 -0.04981826278929115
1742 -0.17106122458217204 0.17832969635512738 -0.027869807013666092 -0.1415876928703704 0.5475467642326314 -0.8578920416595185 0.7817841819704602 -0.22521478032754183 0.44640050717244834 -0.1720215563413883
1096 1.408522210653564 -4.466456537337934 1.1812295406880615 3.2548485019459146 -3.8266614637786254 -1.834907438249678 3.5480620838469417 0.5761561740437138 -4.994157929990277 1.9247097356643044
4657 -0.04435042436621383 -0.505077444365671 1.1487579013123512 -1.2580370958417173 1.322615214040519 -0.09671448815468107 -1.578133105291126 0.9801212234401449 -2.35033451618569 1.261323492658103
4796 -0.1597218683448091 0.06108073715594003 0.22757017185472378 -0.4887879376234658 1.318978102879706 -1.8658790153969815 1.601509918614276 -0.4435489606771065 0.8653173069897268 -0.32138113734950563
4797 -0.1844622819536011 0.3168966481359852 -0.3297534184035815 0.26873986911056047 -0.36414481780482094 0.33336529093930084 -0.18698259769950334 0.032816523721944504 -0.04868298352070051 0.004494312122751304
11812 0.2225208942954397 -1.6343777896645666 2.146058855488001 -1.1706927857970908 -0.4361993228133501 1.80759291120261 -0.5869589342230085 -0.5612706235413264 2.149927685036823 -1.1767603297544682
21684 2.3404343349442156 -2.9105948578795764 -3.4620042797338026 2.4317433989575767 2.316815747138885 -0.26445322906783975 -3.9738643088298056 -1.346443014038014 5.782062329862298 3.6993780648828585
20332 0.04799591576471716 -0.9210214859477763 1.60676438921175 -1.3684137571789112 0.7215541445196051 0.9032771903835811 -1.7126821257545808 0.41812541594311153 -0.215942607889144 -0.9848445699821848
10230 -0.16699324727445952 0.1629198150491731 -0.006273597345274435 -0.15120513584128087 0.4933626955462407 -0.7015982297219961 0.5593266008582295 -0.1313962433669534 0.22893567092942435 -0.05261204494234938
8859 -0.16183899443929456 0.10962483359499706 0.10983548395853915 -0.30902342891086965 0.8440133040221844 -1.1597741268753887 0.9319292084236004 -0.23063905261675582 0.4193523981190964 -0.1205027635824028
8512 0.745157874609322 -3.0920406462921854 1.949531619954233 1.0135811105901633 -3.5164080875762695 1.0309773775400415 3.359143067712695 -1.6374340192464185 1.4071710122721575 1.4654222628236167
8502 -0.021396823669261655 -0.6007334853461725 1.2348084544196534 -1.235223499948544 1.0228439638184597 0.3022094999182288 -1.5094568227135245 0.7162236779110825 -1.3507924334595416 0.18423038615169474
8113 -0.15949729821847858 0.05982480212625167 0.22982732921710539 -0.49106645485913714 1.321018547433962 -1.8651253736853206 1.5970828466605704 -0.4409871329096807 0.8589037142662832 -0.3174194455172251
9899 -0.1844622819536011 0.3168966481359852 -0.3297534184035815 0.26873986911056047 -0.36414481780482094 0.33336529093930084 -0.18698259769950334 0.032816523721944504 -0.04868298352070051 0.004494312122751304
8510 0.1515813756962395 -1.4025827232031156 2.1784150875467594 -1.6374102045438896 0.5037301238204486 1.5302365313014636 -1.9093342479504587 0.3473870778310318 0.2322517301108244 -1.0983189127375252
11292 0.8947876974175909 -3.4263541898356835 1.8335039196331464 1.368499161989352 -3.184782103655138 -0.07646443220774038 2.9759932831560425 -0.5514624046457042 -2.114969601438024 3.031610464152199
1098 0.04799591576471716 -0.9210214859477763 1.60676438921175 -1.3684137571789112 0.7215541445196051 0.9032771903835811 -1.7126821257545808 0.41812541594311153 -0.215942607889144 -0.9848445699821848
11429 -0.1844622819536011 0.3168966481359852 -0.3297534184035815 0.26873986911056047 -0.36414481780482094 0.33336529093930084 -0.18698259769950334 0.032816523721944504 -0.04868298352070051 0.004494312122751304
21682 0.21763601628013407 -1.7122495229953676 2.509886934966493 -1.731171895140636 0.27660979288246573 1.740376696608152 -1.2507690422076565 -0.2951232734022711 2.266334615373892 -2.736228786147599
11448 0.2633135604793675 -1.7872226377162594 2.2182458111197754 -1.0686649030091433 -0.710854997514716 1.9141257615580203 -0.23270654843504826 -0.8183387418006047 2.470472312996608 -0.7679380629262265
11342 0.04799591576471716 -0.9210214859477763 1.60676438921175 -1.3684137571789112 0.7215541445196051 0.9032771903835811 -1.7126821257545808 0.41812541594311153 -0.215942607889144 -0.9848445699821848
11356 -0.10218927478807015 -0.19936089846355318 0.6444507770327865 -0.807614389899121 1.0798910580136694 -0.4825741853356353 -0.7159469260338723 0.6055673478699525 -1.61444154257056 1.0838122580927105
11450 -0.1597218683448091 0.06108073715594003 0.22757017185472378 -0.4887879376234658 1.318978102879706 -1.8658790153969815 1.601509918614276 -0.4435489606771065 0.8653173069897268 -0.32138113734950563
14244 0.258102125823937 -1.750751045881572 2.1340760235951604 -1.0171951684956437 -0.6702126972375728 1.74689189865329 -0.19379421482492376 -0.7642830485517557 1.997463656307603 -0.3747932757784442
11300 0.2904179620192109 -1.8842375963130982 2.238924789097093 -0.9806024091229703 -0.9050703986051051 1.8908323734856194 0.02830584612315342 -0.9290268241515603 2.438855717376071 -0.46584602282882326
1255 3.6024166621080913 -5.641687101967808 -3.9877287684673117 4.473428558210595 3.0528873138339634 -2.403761832922125 -5.997563415140835 0.15015921116118633 5.583726287561366 1.2238876368940848
14254 0.04799591576471716 -0.9210214859477763 1.60676438921175 -1.3684137571789112 0.7215541445196051 0.9032771903835811 -1.7126821257545808 0.41812541594311153 -0.215942607889144 -0.9848445699821848
11451 -0.18033887968546905 0.2742606629726445 -0.23686615336053088 0.14248523465488958 -0.08362433102406631 -0.03317542678341324 0.11109948835279337 -0.04657772367789727 0.10365039823103683 -0.04981826278929115
21685 0.08911518961523958 -1.1206817816817265 1.8443292223763308 -1.5244416674311951 0.8986969721242042 0.5893011669547643 -1.111653820945224 0.27033871294874456 -0.02189810121220827 -0.5502432678359608
19639 0.16410803489715986 -1.426460283085835 2.0871189298364405 -1.3937885778378212 0.04474502578040925 1.7405914029488507 -1.3666154060178175 -0.16303197736178346 1.657655862711136 -2.0796276328347414
11433 -0.1844622819536011 0.3168966481359852 -0.3297534184035815 0.26873986911056047 -0.36414481780482094 0.33336529093930084 -0.18698259769950334 0.032816523721944504 -0.04868298352070051 0.004494312122751304
11360 -0.16699324727445952 0.1629198150491731 -0.006273597345274435 -0.15120513584128087 0.4933626955462407 -0.7015982297219961 0.5593266008582295 -0.1313962433669534 0.22893567092942435 -0.05261204494234938
8528 0.8080052697182704 -3.142968723132976 1.6045740969471711 1.4908283695466422 -3.1156903121444106 -0.8476095005443259 3.8199056047341724 -0.6009799269462941 -3.6555236471597947 6.599952559360821
15946 3.7351363213148643 -5.257594611757361 -4.635093690061306 3.8431981493487877 4.0866348595114514 -1.990411083043682 -6.357599335325791 -0.2850411907876615 5.7376641646673 1.5424837010950652
11453 -0.18033887968546905 0.2742606629726445 -0.23686615336053088 0.14248523465488958 -0.08362433102406631 -0.03317542678341324 0.11109948835279337 -0.04657772367789727 0.10365039823103683 -0.04981826278929115
21686 -0.18033887968546905 0.2742606629726445 -0.23686615336053088 0.14248523465488958 -0.08362433102406631 -0.03317542678341324 0.11109948835279337 -0.04657772367789727 0.10365039823103683 -0.04981826278929115
21687 -0.160012723501995 0.06515430027166921 0.2182164210867241 -0.47528462555217826 1.2859534865863675 -1.8193077839699825 1.5598225859040342 -0.4310628519847005 0.839862041547315 -0.31063037365321977
99 1.952116798862653 -5.001730354557868 -0.32001299824150886 4.310021016740187 -1.4530057373655143 -4.431274239379038 1.7140079579747096 1.8005534785446466 -1.8768306911082808 -5.002859312483828
11428 -0.17148464980106923 0.18803851564293872 -0.05141674459290292 -0.10563479112785121 0.45255380446112703 -0.7166710639552004 0.6478680399323259 -0.18263279871547186 0.35720752539832346 -0.13184588158796845
21688 1.1255104903233177 -4.026111584468834 2.0847935885377518 1.4949632497377916 -2.8285764661294204 -0.2662999420766922 1.7036030097404222 0.5256866028946521 -3.6200640365070673 1.3305484577507054
21689 0.41787968565596184 -1.9745641737092108 1.2420096078980876 0.7691215696403069 -2.154469989538121 -0.36251351401905535 3.7803361261131974 -1.683346101083605 1.029533770193088 2.854120338092835
19141 -0.06726743732235924 -0.4013805471088129 0.9827223123184872 -1.1310407344523705 1.418210253234498 -0.6490955992655971 -0.6521465035126532 0.5606499432621019 -1.358218698565394 0.6982212949829254
20322 0.5678564982821624 -2.1281173214047726 0.8036903244838646 1.3497022442125206 -1.7195834279957007 -1.313645685103081 3.1048531573030718 -0.5911109989482206 -0.47362496337878385 0.9300347413134973
3239 0.01760124723323939 -0.7978577446599293 1.5384754910405407 -1.4740532422406278 1.030267064349946 0.6910999044102621 -1.9586266868163782 0.824183290743609 -1.3496249918372376 -0.19467501602338508
11316 1.0108531761613684 -3.740007175655893 1.9045438287184988 1.5220605360064048 -3.1978557009259263 -0.08213524063087095 2.69222395833807 -0.279424177611639 -2.7617001992459893 2.418493389053121
11320 -0.10002872429069183 -0.21015543075968027 0.6605754712734073 -0.8196343291197096 1.0789960360838633 -0.4614057147790968 -0.738359987851593 0.6095103207875138 -1.609665292156532 1.0607533693811972
15529 0.1061341705204316 -1.2168225156032588 2.050229526469661 -1.7111567023220462 0.846262760122613 1.2580793981871095 -2.354910738799301 0.6092821682879799 -0.5259528216367053 -0.9970736541875814
15975 0.2372215034675711 -1.693820600051759 2.1395820838915163 -1.0407165918107424 -0.687426552860101 1.7344511582791702 0.38159771884820953 -1.3112328863014333 4.341428462990618 -2.9637346171137158
25393 0.6583836732809657 -2.6834762847205997 1.7818775033469163 0.30513102612931725 -1.4384723217289905 0.21108832497459049 0.3174020964177039 0.37216775288625054 -2.3005519516316593 0.2866785289007363
22194 -0.18033887968546905 0.2742606629726445 -0.23686615336053088 0.14248523465488958 -0.08362433102406631 -0.03317542678341324 0.11109948835279337 -0.04657772367789727 0.10365039823103683 -0.04981826278929115
13044 1.0647049089792529 -3.7217014247248486 1.5370230294405158 2.017101036462435 -3.171897212947841 -0.8111091462676021 2.7682201790607723 0.1004717385596154 -3.1807456180915095 1.842868589825577
15961 1.0673358072783636 -3.175342178550062 0.737614686124478 1.5870209596759848 0.36317190447676323 -3.376783152931201 0.1004252966092241 2.094867660151551 -4.1643679188650795 -2.6213184261573255
15196 1.5294037614625136 -4.597241323460482 1.1534664357677695 2.767316118813012 -2.2406472695176802 -2.1375986451390077 1.1519685320818709 1.6322769377175061 -3.5047148189446666 -3.6335027121903893
15976 0.326458526012841 -2.0838312644772183 2.544355882976439 -1.2140256268966059 -0.6788759699673065 1.786942592141541 0.29423615970998623 -1.2210075012246706 3.3654244270247826 -1.062600413155253
11422 0.18142570796032156 -1.4861207902286246 2.089869470199678 -1.3023667643567836 -0.13402387532967092 1.7650918061436969 -1.0078066423098806 -0.2899886881900819 1.881670078425032 -1.7818224510487937
19168 -0.16699324727445952 0.1629198150491731 -0.006273597345274435 -0.15120513584128087 0.4933626955462407 -0.7015982297219961 0.5593266008582295 -0.1313962433669534 0.22893567092942435 -0.05261204494234938
15531 2.166752455594419 -5.056535396720269 -1.026287030281075 4.6721597331979865 -0.9940254802959542 -3.741738800045835 -1.0269836172284217 2.882736300293617 -3.426684170733091 -4.73556036754031
12989 -0.1844622819536011 0.3168966481359852 -0.3297534184035815 0.26873986911056047 -0.36414481780482094 0.33336529093930084 -0.18698259769950334 0.032816523721944504 -0.04868298352070051 0.004494312122751304
12990 -0.1844622819536011 0.3168966481359852 -0.3297534184035815 0.26873986911056047 -0.36414481780482094 0.33336529093930084 -0.18698259769950334 0.032816523721944504 -0.04868298352070051 0.004494312122751304
12991 -0.17827717855140307 0.25294267039097396 -0.19042252083900532 0.07935791742705384 0.0566359123663108 -0.21644578564476952 0.26014053137894155 -0.08627484737781843 0.1798170891069064 -0.0769745502453128
19145 -0.03405750187513223 -0.5120298893738314 1.029902642242473 -0.9692488254569108 0.6227286383736711 0.4530241102102829 -0.9796056767557267 0.2842399148440562 -0.06587300469904715 -0.8887534051971513
10574 -0.16722867747122602 0.13976727430751576 0.05566370726138482 -0.25433901525475383 0.7950426347200467 -1.1778615279552325 1.0381789353125148 -0.2921229190349773 0.5732786234817736 -0.21558336755714466
19146 0.1965534816230927 -1.5370578092784328 2.099965934092579 -1.2355361146838997 -0.2614220930746189 1.7392916630367081 -0.8123333003811961 -0.3973183211836503 1.9446159407135444 -1.436847395801451
19181 0.030909226037804417 -0.8809980667443036 1.7099336817362556 -1.6758595228820627 1.2904952880705793 0.6403866265648103 -2.3570751753570756 1.1159974315512327 -2.1805589769073683 0.4566081101135423
12992 -0.18033887968546905 0.2742606629726445 -0.23686615336053088 0.14248523465488958 -0.08362433102406631 -0.03317542678341324 0.11109948835279337 -0.04657772367789727 0.10365039823103683 -0.04981826278929115
10589 -0.1844622819536011 0.3168966481359852 -0.3297534184035815 0.26873986911056047 -0.36414481780482094 0.33336529093930084 -0.18698259769950334 0.032816523721944504 -0.04868298352070051 0.004494312122751304
10573 -0.16722867747122602 0.13976727430751576 0.05566370726138482 -0.25433901525475383 0.7950426347200467 -1.1778615279552325 1.0381789353125148 -0.2921229190349773 0.5732786234817736 -0.21558336755714466
10592 -0.1597218683448091 0.06108073715594003 0.22757017185472378 -0.4887879376234658 1.318978102879706 -1.8658790153969815 1.601509918614276 -0.4435489606771065 0.8653173069897268 -0.32138113734950563
12993 -0.1844622819536011 0.3168966481359852 -0.3297534184035815 0.26873986911056047 -0.36414481780482094 0.33336529093930084 -0.18698259769950334 0.032816523721944504 -0.04868298352070051 0.004494312122751304
12994 -0.17827717855140307 0.25294267039097396 -0.19042252083900532 0.07935791742705384 0.0566359123663108 -0.21644578564476952 0.26014053137894155 -0.08627484737781843 0.1798170891069064 -0.0769745502453128
10571 0.053723871345105215 -0.9456683682527475 1.6288170480171764 -1.3673382849399442 0.6857503244254289 0.9439477012525755 -1.6858664392346987 0.388525994514055 -0.12077278710465077 -1.0319244263185579
21021 0.29536287140893713 -2.0121401304356956 2.691054071562052 -1.560932235766578 -0.2870748785900684 1.9692225359280866 -0.585140257669539 -0.7679693468914274 3.0939885507422873 -2.2298061705051313
22345 -0.17148464980106923 0.18803851564293872 -0.05141674459290292 -0.10563479112785121 0.45255380446112703 -0.7166710639552004 0.6478680399323259 -0.18263279871547186 0.35720752539832346 -0.13184588158796845
15197 -0.05526437900359078 -0.4613501709761851 1.0723039469886022 -1.1978181745667495 1.4132379091800167 -0.5314929850626022 -0.7766635136111005 0.5825553483596632 -1.3316839740430177 0.5701163576967448
7878 0.13066090534788674 -1.263274423293244 1.7709708640466078 -1.1731665137587457 0.6608266809877003 -0.26331870570505655 0.9241570414897972 -0.6731680108670742 1.646384174581954 0.025841708721711838
12641 -0.17827717855140307 0.25294267039097396 -0.19042252083900532 0.07935791742705384 0.0566359123663108 -0.21644578564476952 0.26014053137894155 -0.08627484737781843 0.1798170891069064 -0.0769745502453128
14085 0.2017077344582578 -1.5903527907326098 2.216075015396393 -1.3933544077534885 0.08922851540132369 1.2811157658833168 -0.43973069281582594 -0.496561130433453 2.1350326679032188 -1.5047381144415062
17761 1.262846244370187 -3.96646558423733 0.8534254811295511 3.1248127484418653 -3.6955570583472115 -1.4980986692247253 3.3446373664140423 0.07262947227540414 -1.9798022146914678 -0.5726798192890472
11868 0.4253640798821395 -2.32438427698228 2.3083576753642103 -0.47605516849380014 -1.788602411055234 1.6747075035220387 1.207447743329477 -1.2829128893986568 2.010565039017238 1.1743473417949646
11696 0.3988616787631951 -2.247490605016943 2.3159368054660074 -0.5681497122207153 -1.6393396619477358 1.7490949272807959 1.0101107830021432 -1.2556209283294775 2.172724556861474 0.8184457299117238
4610 0.13766498769138072 -1.3370969218030055 2.105977680008642 -1.5877290415810648 0.3937899268845354 1.66801169256021 -1.9742715561462538 0.1908868660535132 0.8337938208197454 -2.055793400842754
19167 -0.1393819818062461 -0.015968669373830357 0.33555122019668115 -0.5368751524780185 1.0480577594477558 -1.0844099557093705 0.48922201305311924 0.02554372412583722 -0.2220068742254012 0.2756664196456952
12642 -0.18404994172678785 0.3126330496196509 -0.3204646918992762 0.2561144056649932 -0.3360927691267458 0.2967112191670299 -0.15717438909427395 0.024877098981960118 -0.033449645345525705 -0.0009369453684539104
14075 1.1973448194379812 -4.140411172204834 1.6977812236499685 2.247311969459676 -3.594520681789004 -0.8460903865023506 2.9702830643364253 0.1884368542238086 -3.8460684207175513 2.2023564790612333
12643 -0.17827717855140307 0.25294267039097396 -0.19042252083900532 0.07935791742705384 0.0566359123663108 -0.21644578564476952 0.26014053137894155 -0.08627484737781843 0.1798170891069064 -0.0769745502453128
3167 0.18158902149316083 -1.552506782871547 2.4023691742220503 -1.8043538048298384 0.4912992636842445 1.8242430668089555 -2.220626773196579 0.40215059057493246 0.29858854141677027 -1.4185812559529816
7102 1.312686406069855 -4.159370585067312 1.1000580286075947 2.8106439919154886 -3.1993283062871467 -1.6815915175262262 2.6040289985947354 0.8362636399066379 -4.306160429177177 0.765092900866355
10560 0.1663837187628468 -1.2885860725887535 1.4198570975749991 -0.3652227313971367 -1.1359878859801957 1.392331581593562 1.1204086230212433 -1.415410036338578 3.9710592618183873 -1.71259321559704
15977 -0.09642780679506129 -0.22814631791989187 0.6874499616744421 -0.8396675611540233 1.0775043328675185 -0.42612493051819617 -0.7757150908811284 0.6160819423167818 -1.60170487479982 1.0223218881953435
462 0.32845966462621934 -2.0731780560931106 2.4984262588592574 -1.103947422126669 -1.065270258481238 2.382039935155268 -0.13136760532993333 -1.1229976134701785 3.4517179985110635 -1.4621167841363993
726 -0.003356630290619205 -0.6840189759128414 1.3316007345957925 -1.2699804743590637 0.9446357916110866 0.45856769622583093 -1.5627635940124938 0.6387806467610581 -1.0557791074497034 -0.12023395179261813
4271 -0.18033887968546905 0.2742606629726445 -0.23686615336053088 0.14248523465488958 -0.08362433102406631 -0.03317542678341324 0.11109948835279337 -0.04657772367789727 0.10365039823103683 -0.04981826278929115
12644 -0.1844622819536011 0.3168966481359852 -0.3297534184035815 0.26873986911056047 -0.36414481780482094 0.33336529093930084 -0.18698259769950334 0.032816523721944504 -0.04868298352070051 0.004494312122751304
584 0.12819052591729646 -1.2642843056695503 1.9093939930833592 -1.3451576554488063 0.21597118783665412 1.4555704692367866 -1.3212038241590651 -5.33339996465461e-06 1.092624671868836 -1.5840444708044572
17773 1.7150445977471072 -4.49476559343303 0.08027809591071397 3.476335703264664 -1.8607770211450712 -2.298572696212383 0.8038689505417017 0.9209702675944869 0.5195317565595996 -5.128597205933535
454 0.006674442122048823 -0.7577253640572071 1.5169531247173318 -1.52003815440748 1.277899533100423 0.3964147138757539 -2.062840816926627 1.036452148839322 -2.152491523890162 0.6794418651868159
728 -0.1517318184348112 0.11547755907817676 0.046271605372128995 -0.14015450486491388 0.15881988029729108 0.08006946225832705 -0.4511205791371978 0.2714215745265301 -0.6831695724825253 0.4240363073093093
21690 -0.14612293337901167 0.022733146898047858 0.26344924796119407 -0.4607795977563506 0.9708449604955388 -1.0962071539082077 0.6378048299032666 -0.06745806043897642 0.022217714336917594 0.10916828471509378
17789 0.16493376182803782 -1.4381377898877798 2.1115582255386283 -1.437470383809393 0.21234052123171954 1.5518613382401942 -1.3922984803659113 -0.013656045338859451 1.1070500332626176 -1.3660654835694708
11359 0.8267283885579306 -3.321906480626217 2.0098347753348507 1.086507669760286 -3.2520881642589896 0.3146073225817444 3.129837150829574 -0.9499493364470194 -1.2272943494087611 3.496496093127559
17790 -0.06835654100375078 -0.3851381966309264 0.9695946319721194 -1.1244822156129586 1.3325599021494807 -0.3319197165606713 -1.329099085094232 0.9363104132450233 -2.4034039652304435 1.517533367230466
16337 0.3206032380265155 -1.8551758263962197 1.9061297630955303 -0.44287071382239407 -1.4596811735951565 1.8476322978357227 -0.0944759862843435 -0.5183580713638914 0.38458863209781946 1.8299563148454783
7630 0.0987067370932687 -1.0915165231420376 1.5321916342836566 -0.9374437122680425 0.02387517369498192 0.7680200444825819 0.3460307519761011 -0.6832256143978073 2.544522755108537 -1.82147374073237
9935 -0.1844622819536011 0.3168966481359852 -0.3297534184035815 0.26873986911056047 -0.36414481780482094 0.33336529093930084 -0.18698259769950334 0.032816523721944504 -0.04868298352070051 0.004494312122751304
25165 -0.1597218683448091 0.06108073715594003 0.22757017185472378 -0.4887879376234658 1.318978102879706 -1.8658790153969815 1.601509918614276 -0.4435489606771065 0.8653173069897268 -0.32138113734950563
15199 0.4287525344235507 -2.463074099883352 2.7046205699926347 -1.0710096887996958 -0.6570992421450956 0.6301068515891747 1.7363674190307776 -1.457515110719367 2.4073234158862613 1.1132215272306913
17793 -0.06372161307119309 -0.3931913470084646 0.8962463621573602 -0.9508549917310791 1.006665619574451 -0.34085384146596004 -0.28149540493117736 0.15088506782369157 -0.020463309084608597 -0.5551912905032647
15978 -0.1844622819536011 0.3168966481359852 -0.3297534184035815 0.26873986911056047 -0.36414481780482094 0.33336529093930084 -0.18698259769950334 0.032816523721944504 -0.04868298352070051 0.004494312122751304
23685 -0.08313820620943238 -0.3320041779649886 0.8448957782834287 -0.9973910106701608 1.4803152127914592 -1.2513961910101152 0.5699635056183728 -0.08080531996116139 0.28929751623176114 -0.41076810863002977
15958 0.5781658262415578 -2.507530882622487 1.753224938539735 0.42552544149756594 -2.2143800699021763 0.8870388824393849 0.8214787942585614 0.13812750426877904 -2.9103598199034626 3.7396926663772736
8175 -0.18404994172678785 0.3126330496196509 -0.3204646918992762 0.2561144056649932 -0.3360927691267458 0.2967112191670299 -0.15717438909427395 0.024877098981960118 -0.033449645345525705 -0.0009369453684539104
21151 1.1667244094156128 -4.116285354979484 1.921288611449874 1.9084958267903305 -3.2573106612123865 -0.5945519755833806 2.573481984361215 0.24350638230896093 -3.6884814358736384 2.34500928046885
11869 -0.1844622819536011 0.3168966481359852 -0.3297534184035815 0.26873986911056047 -0.36414481780482094 0.33336529093930084 -0.18698259769950334 0.032816523721944504 -0.04868298352070051 0.004494312122751304
10595 0.4524530557218962 -2.4342068244908233 2.382373944278248 -0.3904220134379215 -1.9951502765158442 1.7788756154867107 1.4764383732286694 -1.4896389153662488 2.3019640925226277 1.4144378048725137
4272 -0.18404994172678785 0.3126330496196509 -0.3204646918992762 0.2561144056649932 -0.3360927691267458 0.2967112191670299 -0.15717438909427395 0.024877098981960118 -0.033449645345525705 -0.0009369453684539104
15826 0.3131009853928299 -1.7098240312962594 1.2639577589155884 0.5683373828535233 -2.7665603686960694 1.7039625112887706 2.3853779828655712 -1.832134738551405 3.083595808390186 1.3952668388322302
4213 0.9925572376678837 -3.5905381667909206 1.6598794655982414 1.7132270498472975 -3.161957193326192 -0.446798808503201 2.889839201953746 -0.22118821813774978 -2.726024201505676 2.4511181708521916
4273 -0.18404994172678785 0.3126330496196509 -0.3204646918992762 0.2561144056649932 -0.3360927691267458 0.2967112191670299 -0.15717438909427395 0.024877098981960118 -0.033449645345525705 -0.0009369453684539104
4242 -0.1844622819536011 0.3168966481359852 -0.3297534184035815 0.26873986911056047 -0.36414481780482094 0.33336529093930084 -0.18698259769950334 0.032816523721944504 -0.04868298352070051 0.004494312122751304
8860 -0.16183899443929456 0.10962483359499706 0.10983548395853915 -0.30902342891086965 0.8440133040221844 -1.1597741268753887 0.9319292084236004 -0.23063905261675582 0.4193523981190964 -0.1205027635824028
2569 -0.07242169015752423 -0.3480855656546368 0.8666132310146732 -0.9732224413827819 1.067559644758555 -0.19091970211220408 -1.0247491110780245 0.6598927525119039 -1.5486354257550672 0.7661120136229794
2570 -0.1844622819536011 0.3168966481359852 -0.3297534184035815 0.26873986911056047 -0.36414481780482094 0.33336529093930084 -0.18698259769950334 0.032816523721944504 -0.04868298352070051 0.004494312122751304
11456 -0.1597218683448091 0.06108073715594003 0.22757017185472378 -0.4887879376234658 1.318978102879706 -1.8658790153969815 1.601509918614276 -0.4435489606771065 0.8653173069897268 -0.32138113734950563
15200 -0.17827717855140307 0.25294267039097396 -0.19042252083900532 0.07935791742705384 0.0566359123663108 -0.21644578564476952 0.26014053137894155 -0.08627484737781843 0.1798170891069064 -0.0769745502453128
11457 -0.1844622819536011 0.3168966481359852 -0.3297534184035815 0.26873986911056047 -0.36414481780482094 0.33336529093930084 -0.18698259769950334 0.032816523721944504 -0.04868298352070051 0.004494312122751304
7621 0.5660240622001947 -2.6173045699825463 1.9755682370859495 0.579967592996134 -3.493010072629256 2.5263345520871003 2.0997622476790916 -1.9153935246752556 3.5377388699179773 0.2448411997967718
15530 1.1758922336692557 -3.9360523103445484 1.4101313901505725 2.432170129779691 -3.3092154442462975 -1.160436107723991 2.916413100520423 0.29935604643134656 -3.7935281992234344 1.7082867682054628
10580 -0.16699324727445952 0.1629198150491731 -0.006273597345274435 -0.15120513584128087 0.4933626955462407 -0.7015982297219961 0.5593266008582295 -0.1313962433669534 0.22893567092942435 -0.05261204494234938
15979 -0.02061124985358173 -0.6075873501655714 1.2395201805763398 -1.2463080634136485 1.1620021384805013 0.08053707324280385 -1.4921878875879941 0.8129098145242889 -1.831748295130986 0.9060724280009461
12999 -0.14453623464141113 0.03732631208034597 0.21944213889286726 -0.37905685940842954 0.697407150971812 -0.6262340585559785 0.11661940548774839 0.12478653337563977 -0.41242360141507434 0.3435571382857497
8576 -0.1844622819536011 0.3168966481359852 -0.3297534184035815 0.26873986911056047 -0.36414481780482094 0.33336529093930084 -0.18698259769950334 0.032816523721944504 -0.04868298352070051 0.004494312122751304
10550 -0.1844622819536011 0.3168966481359852 -0.3297534184035815 0.26873986911056047 -0.36414481780482094 0.33336529093930084 -0.18698259769950334 0.032816523721944504 -0.04868298352070051 0.004494312122751304
14084 2.645267679081289 -5.606122216998891 -1.866589488702906 5.0467655735199175 -0.2031282570218859 -3.7466451952302924 -2.5980374293433752 2.3111914339953223 -0.2097055378041296 -4.598085182122495
2420 0.3324641197043881 -2.0343472518521 2.270930352151228 -0.8430360936092212 -1.205692920102867 1.853955858709297 0.4322443509782775 -1.0989272899660116 2.3876632905402553 0.00394909842514858
20333 -0.1844622819536011 0.3168966481359852 -0.3297534184035815 0.26873986911056047 -0.36414481780482094 0.33336529093930084 -0.18698259769950334 0.032816523721944504 -0.04868298352070051 0.004494312122751304
20334 -0.1844622819536011 0.3168966481359852 -0.3297534184035815 0.26873986911056047 -0.36414481780482094 0.33336529093930084 -0.18698259769950334 0.032816523721944504 -0.04868298352070051 0.004494312122751304
8125 0.7259612060790451 -3.1470349348791378 2.3438256080613566 0.4129387437163653 -2.818567093533962 1.0951966900585848 2.3457523410148955 -1.0130942101808935 -0.19124380196238955 2.7012250779618774
8861 -0.18404994172678785 0.3126330496196509 -0.3204646918992762 0.2561144056649932 -0.3360927691267458 0.2967112191670299 -0.15717438909427395 0.024877098981960118 -0.033449645345525705 -0.0009369453684539104
23698 -0.18404994172678785 0.3126330496196509 -0.3204646918992762 0.2561144056649932 -0.3360927691267458 0.2967112191670299 -0.15717438909427395 0.024877098981960118 -0.033449645345525705 -0.0009369453684539104
13000 -0.1844622819536011 0.3168966481359852 -0.3297534184035815 0.26873986911056047 -0.36414481780482094 0.33336529093930084 -0.18698259769950334 0.032816523721944504 -0.04868298352070051 0.004494312122751304
25394 -0.17886997385785894 0.26653501739391 -0.22338823344993705 0.12969197986658085 -0.07635423131379498 -0.018736416858724896 0.07265793252555336 -0.026660073120920162 0.05494691462313008 -0.02072860559052431
8862 -0.1647475460111546 0.15036046475229026 0.01629797627853997 -0.17399030819799594 0.5137671410887981 -0.694061812605394 0.5150558813211811 -0.10577796569269415 0.164799743694975 -0.012995126619539917
11458 -0.1597218683448091 0.06108073715594003 0.22757017185472378 -0.4887879376234658 1.318978102879706 -1.8658790153969815 1.601509918614276 -0.4435489606771065 0.8653173069897268 -0.32138113734950563
11459 -0.0659559293399971 -0.3971321214044011 0.9875109589061426 -1.1378377036358345 1.3315654333385851 -0.30839919372007285 -1.3540024871139216 0.940691494264536 -2.398097020325969 1.4919123797732299
11332 -0.1844622819536011 0.3168966481359852 -0.3297534184035815 0.26873986911056047 -0.36414481780482094 0.33336529093930084 -0.18698259769950334 0.032816523721944504 -0.04868298352070051 0.004494312122751304
11460 -0.17539079696371065 0.2230974807766352 -0.12540143530886927 -0.009020326691915857 0.2530002531128387 -0.47302428805066876 0.46879799161554886 -0.1418508205577079 0.28645045633312416 -0.11499335268374421
10597 -0.18404994172678785 0.3126330496196509 -0.3204646918992762 0.2561144056649932 -0.3360927691267458 0.2967112191670299 -0.15717438909427395 0.024877098981960118 -0.033449645345525705 -0.0009369453684539104
15980 0.05410482786328018 -0.9784242811194479 1.726548913649801 -1.5260528048753397 1.066237449646518 0.4518797117083548 -1.3356102371025638 0.3139493697884663 -0.009664243902054953 -1.0605819313449685
25395 -0.1844622819536011 0.3168966481359852 -0.3297534184035815 0.26873986911056047 -0.36414481780482094 0.33336529093930084 -0.18698259769950334 0.032816523721944504 -0.04868298352070051 0.004494312122751304
23700 -0.1844622819536011 0.3168966481359852 -0.3297534184035815 0.26873986911056047 -0.36414481780482094 0.33336529093930084 -0.18698259769950334 0.032816523721944504 -0.04868298352070051 0.004494312122751304
20335 -0.16722867747122602 0.13976727430751576 0.05566370726138482 -0.25433901525475383 0.7950426347200467 -1.1778615279552325 1.0381789353125148 -0.2921229190349773 0.5732786234817736 -0.21558336755714466
17796 0.2904179620192109 -1.8842375963130982 2.238924789097093 -0.9806024091229703 -0.9050703986051051 1.8908323734856194 0.02830584612315342 -0.9290268241515603 2.438855717376071 -0.46584602282882326
10208 0.12819052591729646 -1.2642843056695503 1.9093939930833592 -1.3451576554488063 0.21597118783665412 1.4555704692367866 -1.3212038241590651 -5.33339996465461e-06 1.092624671868836 -1.5840444708044572
8136 0.2685595736806275 -1.8059997264769387 2.2222481939540946 -1.0516205493537552 -0.7484450751451145 1.909617363866589 -0.1821880204560419 -0.839762241610468 2.4643529719087627 -0.7094686358106006
1706 -0.1844622819536011 0.3168966481359852 -0.3297534184035815 0.26873986911056047 -0.36414481780482094 0.33336529093930084 -0.18698259769950334 0.032816523721944504 -0.04868298352070051 0.004494312122751304
10171 -0.09642780679506129 -0.22814631791989187 0.6874499616744421 -0.8396675611540233 1.0775043328675185 -0.42612493051819617 -0.7757150908811284 0.6160819423167818 -1.60170487479982 1.0223218881953435
12708 -0.16811609790611182 0.1691994901976145 -0.017559384157181595 -0.1398125496629234 0.48316047277496244 -0.7053664382802973 0.5814619606267537 -0.14420538220408308 0.261003634546649 -0.07242050410375407
21175 0.07759035293005541 -1.0483637111901272 1.720703126373119 -1.3628571506109175 0.5365677406996946 1.1134081632067152 -1.5741344120685188 0.2651950718929859 0.27576813283073914 -1.2280904943867772
2011 0.43047141811084777 -2.3450355283333963 2.325106975150367 -0.4457420997203256 -1.834352880438776 1.683564598889248 1.2692286263313035 -1.3133035129784265 2.0337573219818155 1.2209783225676047
8863 -0.18033887968546905 0.2742606629726445 -0.23686615336053088 0.14248523465488958 -0.08362433102406631 -0.03317542678341324 0.11109948835279337 -0.04657772367789727 0.10365039823103683 -0.04981826278929115
11841 -0.07242169015752423 -0.3480855656546368 0.8666132310146732 -0.9732224413827819 1.067559644758555 -0.19091970211220408 -1.0247491110780245 0.6598927525119039 -1.5486354257550672 0.7661120136229794
10201 -0.026207541903566296 -0.5785240211950607 1.2089971797060164 -1.2259549734390724 1.0436994764070924 0.2605139809028683 -1.4952416837004667 0.7368751528844226 -1.4294626537288322 0.2654208762701784
4814 -0.09127355395989627 -0.2814412993740679 0.8035590429782554 -0.9974858542236115 1.428154941343461 -0.8843008276715889 -0.4031124833157579 0.51683913306698 -1.4112881476101478 0.9544311695552903
24761 -0.04804842503435977 -0.5359631450120315 1.2348566608139417 -1.4187637848641739 1.9041487610463386 -1.1729392410773514 -0.25501986301958096 0.4436154154099395 -1.0651005559774764 0.47506935160067
11463 -0.1844622819536011 0.3168966481359852 -0.3297534184035815 0.26873986911056047 -0.36414481780482094 0.33336529093930084 -0.18698259769950334 0.032816523721944504 -0.04868298352070051 0.004494312122751304
8131 -0.1844622819536011 0.3168966481359852 -0.3297534184035815 0.26873986911056047 -0.36414481780482094 0.33336529093930084 -0.18698259769950334 0.032816523721944504 -0.04868298352070051 0.004494312122751304
11462 -0.1844622819536011 0.3168966481359852 -0.3297534184035815 0.26873986911056047 -0.36414481780482094 0.33336529093930084 -0.18698259769950334 0.032816523721944504 -0.04868298352070051 0.004494312122751304
499 -0.16722867747122602 0.13976727430751576 0.05566370726138482 -0.25433901525475383 0.7950426347200467 -1.1778615279552325 1.0381789353125148 -0.2921229190349773 0.5732786234817736 -0.21558336755714466
11338 0.008610822127659618 -0.7506575450146035 1.4587625410949443 -1.4021671002344933 1.0104131036822557 0.5962160354257193 -1.8207493479596433 0.7709871906549837 -1.2844556221535957 -0.13603195706376348
6846 -0.1844622819536011 0.3168966481359852 -0.3297534184035815 0.26873986911056047 -0.36414481780482094 0.33336529093930084 -0.18698259769950334 0.032816523721944504 -0.04868298352070051 0.004494312122751304
11464 -0.1844622819536011 0.3168966481359852 -0.3297534184035815 0.26873986911056047 -0.36414481780482094 0.33336529093930084 -0.18698259769950334 0.032816523721944504 -0.04868298352070051 0.004494312122751304
11307 -0.18033887968546905 0.2742606629726445 -0.23686615336053088 0.14248523465488958 -0.08362433102406631 -0.03317542678341324 0.11109948835279337 -0.04657772367789727 0.10365039823103683 -0.04981826278929115
11465 -0.18033887968546905 0.2742606629726445 -0.23686615336053088 0.14248523465488958 -0.08362433102406631 -0.03317542678341324 0.11109948835279337 -0.04657772367789727 0.10365039823103683 -0.04981826278929115
24724 0.2619047164302679 -1.6588325906732566 1.7857148793060795 -0.7224072255578027 -0.2340206882982564 -0.02926063018678842 0.9274896052213556 -0.4143109599389093 -0.715417912694166 3.1276749207194756
11466 -0.1597218683448091 0.06108073715594003 0.22757017185472378 -0.4887879376234658 1.318978102879706 -1.8658790153969815 1.601509918614276 -0.4435489606771065 0.8653173069897268 -0.32138113734950563
1129 0.254457849395591 -1.8224188666611922 2.4969682023351853 -1.514749351231552 -0.1928447534498239 2.0453224544369104 -1.2260522606365756 -0.2312535035317451 1.638593000202158 -1.1868435018516044
11340 -0.1844622819536011 0.3168966481359852 -0.3297534184035815 0.26873986911056047 -0.36414481780482094 0.33336529093930084 -0.18698259769950334 0.032816523721944504 -0.04868298352070051 0.004494312122751304
11467 -0.18033887968546905 0.2742606629726445 -0.23686615336053088 0.14248523465488958 -0.08362433102406631 -0.03317542678341324 0.11109948835279337 -0.04657772367789727 0.10365039823103683 -0.04981826278929115
11778 -0.16699324727445952 0.1629198150491731 -0.006273597345274435 -0.15120513584128087 0.4933626955462407 -0.7015982297219961 0.5593266008582295 -0.1313962433669534 0.22893567092942435 -0.05261204494234938
1088 -0.04241404436060304 -0.49800962532306725 1.090567317689962 -1.1401660416687303 1.0551287846223527 0.10308683339528306 -1.3360416363241419 0.7146562652558064 -1.482298614449126 0.4458496704075263
2992 -0.18404994172678785 0.3126330496196509 -0.3204646918992762 0.2561144056649932 -0.3360927691267458 0.2967112191670299 -0.15717438909427395 0.024877098981960118 -0.033449645345525705 -0.0009369453684539104
8177 -0.1844622819536011 0.3168966481359852 -0.3297534184035815 0.26873986911056047 -0.36414481780482094 0.33336529093930084 -0.18698259769950334 0.032816523721944504 -0.04868298352070051 0.004494312122751304
11875 -0.1844622819536011 0.3168966481359852 -0.3297534184035815 0.26873986911056047 -0.36414481780482094 0.33336529093930084 -0.18698259769950334 0.032816523721944504 -0.04868298352070051 0.004494312122751304
21692 0.52253149467295 -2.2066351321714803 1.195619382703872 0.8987140733047865 -2.0872780485490043 -0.6393906425290494 2.9662042115184146 -0.5072712879440759 -2.6490914201054805 4.969189900174164
21152 0.04895057502811515 -0.9251292996652716 1.6104398323459879 -1.3682345118057506 0.7155868411705752 0.9100556088617473 -1.7082128446679348 0.41319217903826877 -0.20008097109172865 -0.9926912127049136
1131 1.745650579498953 -4.771684422469126 -0.04886660596724524 4.714608027820248 -3.6129839433365287 -3.2406324995579494 2.9468017938312023 1.6328994645541832 -4.507800951743044 -3.145931476347299
21176 -0.07242169015752423 -0.3480855656546368 0.8666132310146732 -0.9732224413827819 1.067559644758555 -0.19091970211220408 -1.0247491110780245 0.6598927525119039 -1.5486354257550672 0.7661120136229794
11468 -0.18033887968546905 0.2742606629726445 -0.23686615336053088 0.14248523465488958 -0.08362433102406631 -0.03317542678341324 0.11109948835279337 -0.04657772367789727 0.10365039823103683 -0.04981826278929115
11729 -0.17148464980106923 0.18803851564293872 -0.05141674459290292 -0.10563479112785121 0.45255380446112703 -0.7166710639552004 0.6478680399323259 -0.18263279871547186 0.35720752539832346 -0.13184588158796845
10184 -0.16699324727445952 0.1629198150491731 -0.006273597345274435 -0.15120513584128087 0.4933626955462407 -0.7015982297219961 0.5593266008582295 -0.1313962433669534 0.22893567092942435 -0.05261204494234938
148 2.042529322359286 -5.122313185180513 -0.5707058263563721 4.674305901838991 -2.0062214150627513 -3.832331775391881 0.22672143110511386 2.8761562169597634 -4.703940070955833 -3.7574647755812802
21693 -0.18404994172678785 0.3126330496196509 -0.3204646918992762 0.2561144056649932 -0.3360927691267458 0.2967112191670299 -0.15717438909427395 0.024877098981960118 -0.033449645345525705 -0.0009369453684539104
1016 -0.026929149638711982 -0.5751926015723943 1.205125488498971 -1.2245646944626516 1.0468278032953877 0.2542596530505639 -1.4931094128485067 0.739972874130423 -1.4412631867692238 0.27759944978794937
24853 -0.014883588317748182 -0.6408881141167504 1.3055992865390789 -1.3126265145201979 1.1925168775642878 0.1580023749811737 -1.660751873617821 0.8499542346018931 -1.8599723757287467 0.7602881762818909
14104 -0.1844622819536011 0.3168966481359852 -0.3297534184035815 0.26873986911056047 -0.36414481780482094 0.33336529093930084 -0.18698259769950334 0.032816523721944504 -0.04868298352070051 0.004494312122751304
13001 -0.1844622819536011 0.3168966481359852 -0.3297534184035815 0.26873986911056047 -0.36414481780482094 0.33336529093930084 -0.18698259769950334 0.032816523721944504 -0.04868298352070051 0.004494312122751304
14105 -0.1844622819536011 0.3168966481359852 -0.3297534184035815 0.26873986911056047 -0.36414481780482094 0.33336529093930084 -0.18698259769950334 0.032816523721944504 -0.04868298352070051 0.004494312122751304
15950 0.21844363663459335 -1.6178030715329774 2.0897327451207253 -1.112499921631916 -0.43015436387875877 1.5115707454552165 0.08007723680854745 -1.0083710376425048 3.4065889424049054 -2.6330216546676213
15984 -0.18404994172678785 0.3126330496196509 -0.3204646918992762 0.2561144056649932 -0.3360927691267458 0.2967112191670299 -0.15717438909427395 0.024877098981960118 -0.033449645345525705 -0.0009369453684539104
3233 -0.1844622819536011 0.3168966481359852 -0.3297534184035815 0.26873986911056047 -0.36414481780482094 0.33336529093930084 -0.18698259769950334 0.032816523721944504 -0.04868298352070051 0.004494312122751304
18574 0.29419554180983193 -1.9402762121781367 2.4428669616007843 -1.2327677776858608 -0.7295508705893192 2.20738089745027 -0.5355793190179978 -0.7671458123583474 2.5357892341212454 -1.0784555016224124
16332 0.13214587315153822 -1.210949335418346 1.6735745532834827 -0.9061529397389744 -0.808235976128327 2.5399624547765858 -1.4882489760261972 -0.377615016627358 2.5093909303912207 -3.0726580382227673
12646 -0.10218927478807015 -0.19936089846355318 0.6444507770327865 -0.807614389899121 1.0798910580136694 -0.4825741853356353 -0.7159469260338723 0.6055673478699525 -1.61444154257056 1.0838122580927105
12647 -0.016242570834096647 -0.6540284668003488 1.3509175357234673 -1.3930417930181331 1.3734945722944043 -0.15596639723516406 -1.1368542151481533 0.6169808686612798 -1.1603757062698685 0.11633966751164114
8972 0.12819052591729646 -1.2642843056695503 1.9093939930833592 -1.3451576554488063 0.21597118783665412 1.4555704692367866 -1.3212038241590651 -5.33339996465461e-06 1.092624671868836 -1.5840444708044572
18575 0.10345751887872821 -1.114798868598397 1.6136764549719789 -1.0061289828812032 -0.22612666697543643 1.562422382917172 -0.6676769464420622 -0.4972055220544175 2.5492133797552485 -2.804224805154503
18566 1.099829934906693 -4.068281469967273 2.172770242574816 1.4567293046303833 -3.23220368102915 -0.1454621396675436 2.5164457725613025 0.0016062938016243955 -3.8919388971622957 3.281336336051164
17191 -0.1586653027440122 0.05761869009353963 0.2317593652610124 -0.4889557289662071 1.298196153911902 -1.8147859337000216 1.5332601541818063 -0.41569188538014534 0.8013804852066475 -0.28686022265953515
11469 -0.1844622819536011 0.3168966481359852 -0.3297534184035815 0.26873986911056047 -0.36414481780482094 0.33336529093930084 -0.18698259769950334 0.032816523721944504 -0.04868298352070051 0.004494312122751304
21694 -0.1844622819536011 0.3168966481359852 -0.3297534184035815 0.26873986911056047 -0.36414481780482094 0.33336529093930084 -0.18698259769950334 0.032816523721944504 -0.04868298352070051 0.004494312122751304
21697 -0.1844622819536011 0.3168966481359852 -0.3297534184035815 0.26873986911056047 -0.36414481780482094 0.33336529093930084 -0.18698259769950334 0.032816523721944504 -0.04868298352070051 0.004494312122751304
21698 -0.1844622819536011 0.3168966481359852 -0.3297534184035815 0.26873986911056047 -0.36414481780482094 0.33336529093930084 -0.18698259769950334 0.032816523721944504 -0.04868298352070051 0.004494312122751304
21699 -0.1844622819536011 0.3168966481359852 -0.3297534184035815 0.26873986911056047 -0.36414481780482094 0.33336529093930084 -0.18698259769950334 0.032816523721944504 -0.04868298352070051 0.004494312122751304
21701 -0.1844622819536011 0.3168966481359852 -0.3297534184035815 0.26873986911056047 -0.36414481780482094 0.33336529093930084 -0.18698259769950334 0.032816523721944504 -0.04868298352070051 0.004494312122751304
21695 -0.18033887968546905 0.2742606629726445 -0.23686615336053088 0.14248523465488958 -0.08362433102406631 -0.03317542678341324 0.11109948835279337 -0.04657772367789727 0.10365039823103683 -0.04981826278929115
21702 -0.1844622819536011 0.3168966481359852 -0.3297534184035815 0.26873986911056047 -0.36414481780482094 0.33336529093930084 -0.18698259769950334 0.032816523721944504 -0.04868298352070051 0.004494312122751304
23702 -0.17148464980106923 0.18803851564293872 -0.05141674459290292 -0.10563479112785121 0.45255380446112703 -0.7166710639552004 0.6478680399323259 -0.18263279871547186 0.35720752539832346 -0.13184588158796845
3008 -0.17827717855140307 0.25294267039097396 -0.19042252083900532 0.07935791742705384 0.0566359123663108 -0.21644578564476952 0.26014053137894155 -0.08627484737781843 0.1798170891069064 -0.0769745502453128
215 0.3592842978160762 -2.1706662187457426 2.365384689599744 -0.8679341077123254 -0.9586384315283246 0.8819980094194013 2.1176065873131305 -1.8801686486989482 4.0983883113075015 -0.9300446958152289
8865 -0.1844622819536011 0.3168966481359852 -0.3297534184035815 0.26873986911056047 -0.36414481780482094 0.33336529093930084 -0.18698259769950334 0.032816523721944504 -0.04868298352070051 0.004494312122751304
15512 0.7543624404125125 -3.3049980148443177 2.487474932763402 0.38797372907777133 -2.9070451064197536 0.9905664953381073 2.6378550335764253 -1.0895890847873926 -0.8134128034847379 4.4229093412632965
25150 3.4522545585869246 -5.627758749451395 -3.4553238705130056 4.019343312304213 3.228878588589476 -2.313406724857453 -6.5989853871038715 0.7773269504203861 4.566815754046866 0.8929860988563145
3241 -0.1597218683448091 0.06108073715594003 0.22757017185472378 -0.4887879376234658 1.318978102879706 -1.8658790153969815 1.601509918614276 -0.4435489606771065 0.8653173069897268 -0.32138113734950563
3242 -0.10074890778981795 -0.20655725332763783 0.6552005731932005 -0.8156276827128468 1.0792943767271321 -0.468461871631277 -0.7308889672456858 0.6081959964816598 -1.611257375627875 1.0684396656183686
2568 -0.1844622819536011 0.3168966481359852 -0.3297534184035815 0.26873986911056047 -0.36414481780482094 0.33336529093930084 -0.18698259769950334 0.032816523721944504 -0.04868298352070051 0.004494312122751304
3243 -0.1393819818062461 -0.015968669373830357 0.33555122019668115 -0.5368751524780185 1.0480577594477558 -1.0844099557093705 0.48922201305311924 0.02554372412583722 -0.2220068742254012 0.2756664196456952
3244 -0.18404994172678785 0.3126330496196509 -0.3204646918992762 0.2561144056649932 -0.3360927691267458 0.2967112191670299 -0.15717438909427395 0.024877098981960118 -0.033449645345525705 -0.0009369453684539104
15986 0.6172940282835332 -2.916291797085876 2.3609336465541917 0.21149680894421624 -2.902491970010645 1.3655256699990244 2.716527540175717 -1.6766389316562815 1.3145350332766261 3.2965904912910937
25396 -0.1844622819536011 0.3168966481359852 -0.3297534184035815 0.26873986911056047 -0.36414481780482094 0.33336529093930084 -0.18698259769950334 0.032816523721944504 -0.04868298352070051 0.004494312122751304
15987 0.040384417125982064 -0.8323735996094705 1.2431093879539867 -0.8237412959423195 0.23053560511287088 0.3877735610037309 0.3309606634060287 -0.6420720175286697 2.3421182120006354 -1.927343796858599
15988 0.4423780465807103 -2.4793614222540254 2.627143272892357 -0.8943591610206795 -0.8012755190711837 0.399119306872058 2.0224597405583666 -1.4273592755823123 2.0320600038150793 1.5757609830644985
478 0.3155871607000242 -2.1229578881699323 2.8831242917097093 -1.7746679157002798 -0.02940223484881457 1.9494543409569085 -0.9393678121591352 -0.4396851023953227 2.100658283021051 -1.3149094976601268
3245 -0.1844622819536011 0.3168966481359852 -0.3297534184035815 0.26873986911056047 -0.36414481780482094 0.33336529093930084 -0.18698259769950334 0.032816523721944504 -0.04868298352070051 0.004494312122751304
3246 -0.1844622819536011 0.3168966481359852 -0.3297534184035815 0.26873986911056047 -0.36414481780482094 0.33336529093930084 -0.18698259769950334 0.032816523721944504 -0.04868298352070051 0.004494312122751304
8178 -0.10122903012256865 -0.20415846837294294 0.6516173078063959 -0.8129565851082714 1.0794932704893112 -0.47316597619939604 -0.7259082868417482 0.6073197802777576 -1.6123187646087698 1.0735638631098157
25169 -0.1844622819536011 0.3168966481359852 -0.3297534184035815 0.26873986911056047 -0.36414481780482094 0.33336529093930084 -0.18698259769950334 0.032816523721944504 -0.04868298352070051 0.004494312122751304
11153 -0.070124485169913 -0.3682208052044598 0.8794590474309845 -0.9700356604972022 1.1185739453536878 -0.4731128065224945 -0.326770182276546 0.25200520028919005 -0.3902187857059435 -0.16782910285553082
25170 -0.1844622819536011 0.3168966481359852 -0.3297534184035815 0.26873986911056047 -0.36414481780482094 0.33336529093930084 -0.18698259769950334 0.032816523721944504 -0.04868298352070051 0.004494312122751304
15990 -0.025004862344990143 -0.5840763872328387 1.2154499983844258 -1.2282721050664405 1.0384855982599348 0.270937860656708 -1.4987954684537308 0.7317122841410871 -1.4097950986615089 0.2451232537405578
