6809 10
86 5.889950737147917 5.03158930017892 -1.980193853986289 -9.047711028534343 -1.3179154322800222 -5.490187424510873 8.163586016850607 -0.5259486104199452 0.29732179842105194 -2.5696128507196634
2419 -0.3149153278454477 0.13027286819544664 0.1451188347695414 -0.11580114954722445 1.3635370413070875 -0.19575189791646158 0.020610471873267117 -0.33015257378096025 0.7120678026040739 0.07870013506188064
30 6.619805636981176 7.118959328926437 0.498559308461748 -5.200301336861828 -1.4211081361013822 -9.277785261972042 1.872226983423531 2.474654423792917 -0.28538744242376896 7.317385710176807
11311 -0.31162373778492036 0.12483019488277161 0.163428493666059 -0.1221393880111485 1.5007000245258153 -0.22344119325410539 0.0034154927201247814 -0.41050704985553926 0.835316559113875 0.10460100981644228
11301 2.499314403489276 -1.8603495924102165 -2.214801739248842 1.4002471835031418 0.8702167433856359 0.05041616740449092 -0.6011335479167982 1.9864650949740588 0.08576038162061383 1.8812104880330685
11441 -0.4285568985440849 0.3085044338279568 -0.3023495871600361 0.09690319731107062 -0.557892304698177 0.0733356705505014 -0.024866721580429966 0.3967301371852065 0.18514453958129987 -0.08523080955331509
11412 -0.34327209566544203 0.16954011244647252 0.04701844126920333 -0.060527192709183254 1.0096672597838081 -0.16801351504056966 0.016237978420970977 -0.5411150706840339 0.3861035605596022 0.12281537330606729
11443 -0.4078542592428768 0.26114690597310414 -0.19343297441126706 0.06516702987166066 -0.03263945342017224 -0.044644779394339154 0.04982790227708112 -0.763666742887497 -0.5663881206556124 0.1469739298475588
19 5.55223394369205 5.049044282223909 -2.1145027741302225 -9.07906206583505 -1.088654320226394 -4.556310283962265 7.610497742040122 0.758026319400075 -1.623296277352257 -3.6695802748900395
8851 -0.4285568985440849 0.3085044338279568 -0.3023495871600361 0.0969031973110707 -0.5578923046981712 0.07333567055048808 -0.02486672158044704 0.39673013718515876 0.1851445395812935 -0.08523080955331812
11432 -0.4078542592428768 0.26114690597310414 -0.19343297441126706 0.06516702987166066 -0.03263945342017227 -0.04464477939433893 0.049827902277079845 -0.7636667428874921 -0.5663881206557198 0.14697392984759694
60 5.631343929820825 5.661015419601685 -0.40081303761516657 -8.471381462887523 -1.2492945908917084 -7.59233684829331 7.792866365079851 0.977297373646847 -1.4371413285392476 0.9865409954320956
20319 2.574660347117904 -0.8849517494274112 -3.320427255399399 -0.8706274040003249 1.0200798083432068 4.052151422060758 -3.603828844362041 0.4855587255668571 0.29826732092531405 7.611796877728564
32 4.887086164568353 3.0864542532437595 -3.2360026745791597 -8.42127494360056 -1.6249268995939263 0.9702692208087859 4.494063906083582 -1.4263644334025543 -1.064027738232748 -7.549214765940034
12639 -0.056385952043081826 -0.21917533174979364 0.8236349200043835 -0.44740781990188777 1.9924968976097044 -0.051095498607259586 -0.07657364416335169 2.577319516598002 0.7483816069527313 -0.4703879993834769
43 4.754219387374548 2.9355082407214157 -2.895675974919341 -8.364716503617025 0.1686826050364411 0.9841741787631397 4.272747050014558 0.2658301764487299 -1.9076664938949275 -8.401331538327259
15822 -0.38753517766829937 0.2127691942649824 -0.08317804440459325 0.0349214087160568 0.5030145009503061 -0.16870556406573098 0.1321587563627287 -2.0324620914031795 -1.4155043356476937 0.40017811555031246
44 7.52803053961772 11.182638522148356 6.051993028313483 9.506633744739249 0.35918724984827277 1.3443259498822806 -8.862585573030291 -2.0657051497541157 0.7910951539640838 -5.795378279416971
15962 -0.31711214445975805 0.13243030667329111 0.1444413207305133 -0.11144120281666564 1.4322090990697067 -0.21807247398778262 0.0025692036648559922 -0.45133850086904465 0.7722267058149656 0.11313944302504986
25988 0.0018167409867409334 -0.3077440395232766 1.0038896304970508 -0.522086162315854 2.5048887485623066 -0.11249130654429033 -0.043224755790107545 1.832374428305682 0.4790366054858119 -0.3431601119824069
56 3.7138347783623114 0.6605593023929928 -3.7539291001183046 -5.5006887258497095 1.0006124902312556 5.972325645239238 -1.1422348226898937 -0.8401488930101134 -0.3718952520749402 -5.956014122332155
107 7.8420555723767995 11.131212619443108 6.1440968116732755 11.092837793767032 1.2087728667943436 7.829216195519851 -2.2183047837539407 -2.0959716750798103 -1.4825161208554336 -12.072082906104837
66 7.587630704659676 9.979169825744645 5.1123662515042705 7.189193402095954 -0.3921675387890039 -0.7746485840592653 -12.147263569741977 -1.3913802380388371 2.51228163290391 -0.7731691742840197
21680 -0.38753517766829937 0.2127691942649824 -0.08317804440459325 0.0349214087160568 0.5030145009503061 -0.16870556406573098 0.1321587563627287 -2.0324620914031795 -1.4155043356476937 0.40017811555031246
8843 -0.18985046180603396 -0.040952150615031026 0.5160737690875936 -0.3040408148638482 2.1526737554094075 -0.20657795900310744 -0.034648365032935086 1.031346201341671 1.303279149753429 -0.17428912409066039
8 7.949465609383206 11.116693562802231 6.067055857777014 9.736552449676122 0.38494627354224265 3.740049561441804 -6.048571048767312 -2.3024916776143782 -0.5918039442941302 -8.865507161729829
73 3.05297282155977 -1.4937266543238383 -3.715540691342406 0.3503336007863692 -0.23528151124496516 2.81109732355274 -2.673034290875166 0.8386275257947426 0.4259407716703736 5.75882012038239
23684 -0.27033464813850355 0.06857787565801002 0.29810841128991694 -0.2015509086880677 1.90419099503611 -0.2371066654691584 0.025824714212346042 0.010749183526222216 1.20745833293687 0.00811819904427223
33 7.518262788262942 10.311319967836319 4.298221203083319 5.322333118072256 -0.8830758416883868 -1.3310119203265733 -9.819923813403742 -2.5778340142859024 0.5735607982624071 -0.16651024407258816
12976 3.2502394027700707 -0.5719009129326985 -3.698388349219557 -2.8188113571617985 1.2002685523989167 6.124473995471177 -3.7410671282055246 -0.05134963070876105 0.33027466344410117 3.3461232730832067
4593 2.682099919319774 -1.4645065031927242 -2.8823731065267397 0.2442119501911493 0.726747485045018 2.409563703145899 -2.3918570920454 1.5618328776899049 -0.5142606123922603 5.626531022234894
67 3.3812487509048927 -0.6524606104299865 -3.620801675392282 -2.975786373395636 1.3821585197258035 6.281555420593289 -3.8457946542139236 1.1156002332597887 0.5481846557473895 3.333477532604825
22354 -0.4285568985440849 0.3085044338279568 -0.3023495871600361 0.0969031973110707 -0.5578923046981712 0.07333567055048809 -0.02486672158044692 0.3967301371851573 0.18514453958129293 -0.08523080955332493
21962 0.1610124147921103 -0.5298449006050666 1.2643845050665945 -0.5769909992607497 1.3230686702037182 0.08281249512544407 -0.07307705595511471 0.9789830771290733 -1.7886984358679667 -0.251609429479283
19183 -0.4285568985440849 0.3085044338279568 -0.3023495871600361 0.0969031973110707 -0.5578923046981712 0.07333567055048809 -0.02486672158044692 0.3967301371851573 0.18514453958129293 -0.08523080955332493
47 4.652138841109504 1.6748093587690107 -2.9743316594618157 -7.578092904201505 -0.04022798811667261 3.6239947938724186 2.022152807550789 -1.0831677866014873 0.029023647754764768 -8.902868918646401
17186 -0.4285568985440849 0.3085044338279568 -0.3023495871600361 0.0969031973110707 -0.5578923046981712 0.07333567055048809 -0.02486672158044692 0.3967301371851573 0.18514453958129293 -0.08523080955332493
15952 0.29357006200640545 -0.6878840903780593 1.5422950124199242 -0.7270358743194701 1.1655887944628898 0.2441492124727289 -0.2199475619716259 3.249137210333205 -1.0250670845250747 -0.6283449206113303
17183 -0.4078542592428768 0.26114690597310414 -0.19343297441126706 0.06516702987166066 -0.03263945342017228 -0.04464477939433893 0.049827902277079866 -0.7636667428874924 -0.5663881206557201 0.14697392984759572
42 7.627768632390834 9.747324219979333 3.6715441705933283 3.7858421665563164 -0.26276909370288826 -3.9938170470293977 -8.944504099497742 -0.7528827173224559 1.7618049342816196 2.6648424957843213
13617 2.3270141799808677 -2.027691285628266 -1.8069382035835353 2.017080316613547 0.22220123511753537 -1.2135669680209475 0.5086707238438126 0.5611302917031132 -0.9080712830591853 -0.7680192260548371
12640 -0.4217199450647871 0.29254856056746087 -0.2658209967007955 0.0865728992119016 -0.3810745037567582 0.03299546478111837 0.0013041914100823272 -0.008135234246231393 -0.08163027295687146 -0.004329322036052276
17178 2.4873486378512157 -1.200416862736899 -3.0786214839542447 0.10993701575175757 1.973274432714359 2.338828930821878 -2.434911534325556 3.35316811277103 -1.042688522062594 4.881074397301265
12634 -0.34908096107884107 0.16995123731297584 0.03927969222849895 -0.04550074215866704 0.9996631291855187 -0.1911832377846952 0.056297495983480605 -1.0973774431321204 -0.15850019743830915 0.2295230031047058
39 4.639316285987013 3.2499400667828304 -1.905391139471667 -7.664904263722752 1.3227457965866902 -1.9611366476909595 4.813922989747248 0.7660759156310807 1.1029533863319818 -1.7548119890475227
14086 -0.4285568985440849 0.3085044338279568 -0.3023495871600361 0.0969031973110707 -0.5578923046981712 0.07333567055048809 -0.02486672158044692 0.3967301371851573 0.18514453958129293 -0.08523080955332493
22355 -0.4285568985440849 0.3085044338279568 -0.3023495871600361 0.0969031973110707 -0.5578923046981712 0.07333567055048809 -0.02486672158044692 0.3967301371851573 0.18514453958129293 -0.08523080955332493
12978 2.994901738419985 -1.1614362928172544 -3.4862766645378187 -0.8861186813679732 0.6853174053755441 4.020164410374724 -3.037442803544374 1.0187817007289872 -0.20449119781435324 5.338359649757201
82 7.62311335110499 9.957305427339625 4.065357448166923 5.146979439750296 -0.4181731568898851 -2.216838836965005 -9.859858392907979 -0.7781982186096272 -0.2964282153046853 0.5133728050958618
1311 -0.3670447353620096 0.20325560896694106 -0.041453282451623504 -0.014258825896011905 0.6265258158658281 -0.12273675535198712 0.028504613657524214 -0.6236152939762489 0.035963985942498285 0.13187947860926763
7 5.415454476741046 3.9254969884060205 -3.056444982830544 -8.539046549578932 -0.9065876148303328 -2.3959012187810687 6.854206092832338 0.21108669920234965 -2.4430427585497982 -5.985776631581473
2991 -0.38753517766829937 0.2127691942649824 -0.08317804440459325 0.0349214087160568 0.5030145009503061 -0.16870556406573098 0.1321587563627287 -2.0324620914031795 -1.4155043356476937 0.40017811555031246
8174 -0.4285568985440849 0.3085044338279568 -0.3023495871600361 0.0969031973110707 -0.5578923046981712 0.07333567055048809 -0.02486672158044692 0.3967301371851573 0.18514453958129293 -0.08523080955332493
17 7.086289457140987 8.337843615119668 1.8523163857926215 -1.0142453186532474 -1.2517451093109304 -8.801097634100772 -3.380493852014853 1.8526109309457914 0.1464156127904705 9.300940471465207
2878 5.115416137278965 3.125437581260744 -2.6319776152136516 -7.382841225977569 -0.12984364305222648 -2.770108032462732 6.685286494843672 -1.027138407782746 0.8891882295106908 -6.477468910235199
5 2.7751779911055268 -1.9972482946800645 -2.8702035589895734 1.83234091780059 0.3046465310012226 -0.017578550730088884 -0.6908420530495127 1.8850505778152298 -0.4703360671735059 2.210950145404291
2567 -0.2911128773470276 0.07696257510128458 0.27301426504378024 -0.15313028230866266 2.0311534273500462 -0.3444618105621742 0.08192823169171957 -1.6251031641497014 0.034992121499430755 0.34730547236830117
6 7.117857810531142 8.615322997548367 2.511255344278127 -0.49602706077953956 -1.0233018217392758 -8.226639089449813 -4.403249993415504 1.16216386135267 1.4177509884751627 9.384274074404772
31 8.445945092507452 12.7855283354577 8.737530301272574 20.218830935478294 4.161538062319054 33.26623359521043 56.14526166423764 5.544346332832481 2.560824201204511 29.67094812096891
11686 6.156151520312412 5.106420581480249 -1.384252973491183 -8.682348412345247 -0.996593313902355 -6.249201146460793 7.185637294729716 1.7020822839731937 -1.8932778165291526 1.0931101686413514
17756 1.5738987863577905 -1.5867206951720594 -0.6928784730109373 1.358979739140687 -1.4641695363283176 -0.7170510405843947 0.6008666462905009 -0.5163619917986754 -0.5649169478432914 -0.8606802546534447
52 8.046809519416993 10.597717546117856 5.023924009149645 9.014171239163128 1.2047977994253365 0.9909354668776428 -8.856435243430267 -2.071024198919618 1.2453236186131242 -6.466129520576553
9856 2.6900354715907606 -1.6347311582518387 -2.461235397917208 0.33340668017734426 0.8649625369374444 2.0282774843548674 -2.1879405938803997 1.832533081301548 -0.3249440569238157 5.187780699851556
25 7.613678664206854 9.38380861280862 3.56011199031222 2.8128257883058425 0.10214888076866091 -5.238307833249325 -8.475426222896418 1.1858368552848624 0.134247263138982 5.073582052409929
11139 2.801357618241786 -0.9970508530429718 -2.6739263449840127 -1.7921026585980433 1.0978075620132703 4.687425440183854 -3.406785856391265 2.4566086104288694 -3.2085711641348356 4.253373608678521
29 5.146314571583201 3.993366477198931 -1.3275130963700992 -8.350396523321304 -1.8284025072626775 -3.6899978179690085 6.917226561959317 -0.7765003789166213 1.4425990068256265 -2.409377946408551
2642 4.340832700799439 0.870909020839283 -4.305297566594651 -6.1590770898196805 1.5559885368458226 5.800553196673696 -0.7202895644386558 -1.4512058510042534 0.9765382180020952 -6.272779839204843
18573 -0.4285568985440849 0.3085044338279568 -0.3023495871600361 0.0969031973110707 -0.5578923046981712 0.07333567055048809 -0.02486672158044692 0.3967301371851573 0.18514453958129293 -0.08523080955332493
55 7.615183292461817 10.680146930390283 5.418386408929625 6.913929155333219 0.2747954926374342 -0.26444664574081456 -10.073857300452994 -0.7870521918153038 0.3307022454530956 -2.089393522414192
14 7.155991015256161 8.541348896922306 2.4231573544241662 -0.5258903700108645 -0.7395174295533571 -8.381722682550505 -5.05476714205967 2.111516812938878 1.1023195354868487 10.6843470579003
4732 1.2748525039463068 -1.5954318953291518 1.1880756063129343 0.2156148208765766 -1.4989989379930493 -0.20856726392865016 0.38174388369352374 -0.9904868685359346 3.8672705119869044 -0.11535377730612202
4594 3.3381164700788815 -0.8463453337893145 -3.525295676807708 -2.3139632110030695 0.6216162093165082 5.285803320436612 -3.085101823232284 -1.7382029855547065 0.6152245567036574 2.1682092019293675
3039 1.0068880596102372 -1.4964770334527335 2.0882842420884287 -0.45045132956304307 -1.342102071360887 0.1657103165035832 0.08966058961203088 -2.1317584391051985 1.5336558044679043 0.5498846528546457
17774 -0.1826733912691752 -0.05132288922053207 0.5319289300632405 -0.3015485414190934 2.1271999501809447 -0.20828557881890938 -0.08046286747404144 1.1270807941930887 1.24740151424975 -0.17283144145563892
25156 -0.38753517766829937 0.2127691942649824 -0.08317804440459325 0.0349214087160568 0.5030145009503061 -0.16870556406573098 0.1321587563627287 -2.0324620914031795 -1.4155043356476937 0.40017811555031246
15570 0.7140384507464717 -1.18969692374998 2.03625639615219 -0.678266300254868 -1.4165596404469873 0.48447216060841386 -0.23510774657537822 0.029316312234707945 -1.8569371775310581 0.04541480645793151
28 5.349943305825949 3.622102005946037 -1.823271419818721 -8.640061429897857 -0.33915392429946634 -3.1449175250024304 7.285584207529919 0.8369148188349891 -0.7771134481369042 -6.020488531356321
41 7.826891421517729 11.444460060018995 6.576628182716475 11.140684196050143 2.7318802600588885 7.181151504974102 -2.203799920751483 -1.39410800625281 -0.857655714925538 -10.651327842231792
214 3.116971825057152 -0.8877186190369803 -3.3520354025440375 -2.0655722098612785 1.0715228668123031 5.2481047606531135 -3.5665044267915498 0.6476096889171578 0.14129486370406386 4.429393750803653
15518 0.8292003552354058 -1.3387506640558984 2.2692155779551477 -0.7995833823541411 -1.239369305167951 0.5126909982308753 -0.26440703860812353 1.060547128880027 -1.3581968200765597 -0.131239368039515
15951 -0.2971737183968841 0.09907648955302446 0.207649398769343 -0.1426549675996839 1.497268904049728 -0.20992940067101834 0.0757216021806327 -0.5754630836313681 0.2935139115933762 0.11398708984505758
62 6.883992426306146 8.307347987993428 2.0423123859205243 -2.2236752647158387 -1.2693491608947425 -7.931414945916109 -3.1368848852031586 1.693568340862044 0.22461332813965504 8.967275119782437
21019 0.8180774240471735 -1.3391137640730755 2.2902290140715764 -0.7728415575622724 -0.5799064904393867 0.3436107592000798 -0.13837170622871856 -0.422492659015287 -1.6957602136332581 0.1789018184258308
2962 -0.3836850892625088 0.2157547202800608 -0.08378020179391273 0.023410306096193795 0.47558138932234784 -0.139275765750687 0.08999363644745158 -1.4410055550633534 -0.8622967660935379 0.2861231422615042
15964 -0.4285568985440849 0.3085044338279568 -0.3023495871600361 0.0969031973110707 -0.5578923046981712 0.07333567055048809 -0.02486672158044692 0.3967301371851573 0.18514453958129293 -0.08523080955332493
15965 -0.4078542592428768 0.26114690597310414 -0.19343297441126706 0.06516702987166066 -0.03263945342017228 -0.04464477939433893 0.049827902277079866 -0.7636667428874924 -0.5663881206557201 0.14697392984759572
13117 2.8700531858190037 -1.3755264495814712 -3.1341423689502466 -0.26531871351751296 0.8341626451763386 3.2136928711641457 -2.9346086832861715 1.6659464741010825 -0.4790603768958029 6.0282106804323705
8142 -0.4036686670499673 0.25520933704939514 -0.1778453136974576 0.05702078825446348 0.0349672408655713 -0.05265421282589262 0.04764089831609985 -0.7493024917171087 -0.504608417414877 0.14542578100263898
15181 2.6521912720134413 -1.1923516729966464 -2.5607368851506243 -1.0210980173773956 2.0568843943481427 3.5865855635529336 -3.2225935608220717 1.517657203416777 -4.431168346656366 5.784826763618386
17753 2.5560532372343325 -1.6165042519434638 -2.62952154592133 0.8606476820514816 0.5835448350571203 1.30690804178271 -1.6000013218669682 1.5598662327345894 -0.5059816649285463 4.154255648910825
15954 1.731409217500518 -1.9496320339254753 0.6111734146468271 0.7545002854884557 -1.5926759466887253 -0.5903940085769147 0.5219260491457025 -0.4012853067570622 3.5970207180993437 -0.43638928325900184
13253 1.2711500337183885 -1.6091837360615708 1.3026979472642397 0.15213851401834608 -1.5193518217185562 -0.14955054056883899 0.33840359152979 -0.8238853824602304 3.7610173721840106 -0.1215680660653868
15967 -0.38753517766829937 0.2127691942649824 -0.08317804440459325 0.0349214087160568 0.5030145009503061 -0.16870556406573098 0.1321587563627287 -2.0324620914031795 -1.4155043356476937 0.40017811555031246
17188 -0.2242624449573262 0.006234375299097357 0.398772828207293 -0.24241464360378717 1.814684734422179 -0.19316658167800746 -0.015243603539953738 0.5310626545006416 0.9500559566673692 -0.07836290151116192
15 5.324303464533016 4.463949815487368 -1.9292447781239113 -8.630147737112749 -1.5845050064165773 -4.438537815074743 7.617445237538554 0.42892048323156295 -3.0214017324710936 -2.2237352852089387
17189 -0.4278732031961549 0.306908846501907 -0.29869672811411185 0.09587016750115379 -0.5402105246040302 0.06930164997355116 -0.02224963028139411 0.35624360004202066 0.15846705832747773 -0.07714066080159807
10158 3.548581590361749 -0.14861561911009105 -3.941758873926539 -4.006120403804757 1.0965480402743444 6.750485538828598 -3.235061378465966 -1.2001936966021003 0.851753694467207 0.353125031960074
15182 2.6560378657079315 -0.6688428491234608 -3.623371048886136 -1.418857770902367 0.771474603174002 4.54726689976932 -3.377410225799145 0.7842230025296691 -2.510506814700247 5.213886868737555
12979 -0.4285568985440849 0.3085044338279568 -0.3023495871600361 0.0969031973110707 -0.5578923046981712 0.07333567055048809 -0.02486672158044692 0.3967301371851573 0.18514453958129293 -0.08523080955332493
12980 -0.4278732031961549 0.306908846501907 -0.29869672811411185 0.09587016750115379 -0.5402105246040302 0.06930164997355116 -0.02224963028139411 0.35624360004202066 0.15846705832747773 -0.07714066080159807
18 5.508463817709694 4.037576110296393 -1.994016263752763 -9.157478118832191 -1.6528828103467006 -2.414604427311797 6.707565562668466 -0.8363740576728258 0.2993928862763231 -3.981414744040767
8569 -0.27179393604688284 0.0705656920928775 0.2941207358943943 -0.19969074813772494 1.8994179105189717 -0.23761096693918948 0.02702247784540779 -0.008027427557212053 1.2053145745644624 0.011439993251904128
20 5.2714654585847605 3.650398447849067 -2.5381986850143585 -8.773181618467374 -0.9140893455093122 -1.2959689722227274 5.866995455474707 -0.25201526895076437 -0.6062317269495462 -4.4748970636413885
2657 4.342332364346395 1.5422373087764365 -3.537585147426234 -7.227936532852682 0.38400185528217506 4.794695232887049 0.5564156263765744 -2.170807391754325 0.7791370493967702 -6.640268649847434
383 1.8586998466994096 -2.011829028756088 0.26798050699143805 1.0009814682549816 -1.2664095450169237 -0.8092477833089123 0.588883476409861 0.14195033182946 3.320324583978599 -0.73055732490946
4 7.612991014876288 9.876522058369078 4.72655892854893 4.380051041834825 -0.6710961039971514 -4.768740115428273 -9.588355713571108 -0.10115408607239992 0.325452730845257 5.097286190668621
2647 3.5425762845827546 -0.03111992432947139 -3.682372513226125 -4.463185836325968 1.0862271315704555 6.932217816879324 -3.1781484533345825 -1.151488914570692 1.1261522834910052 -0.29436614767906955
10 6.925074135688846 8.382297874946943 1.787496141887459 -0.6520609664730351 -1.0663427846172155 -8.222354292241594 -3.965033298445621 0.9894008417916565 1.5190061629244456 8.943581676773064
26 4.2311606444970975 0.931251651193769 -3.8483289087611277 -6.564096694614567 0.7330288198446805 6.25477005457677 -0.8614213707557699 -2.5705547463394316 2.762676798779426 -6.309787855144823
9957 1.7146344846270576 -1.8092654186477393 -0.08158177701290026 1.1022278888748 -0.923520464569127 -0.8374719489972466 0.6136738268205221 -0.15335490736980567 2.5591105117063577 -0.8104300986911955
97 3.91503823149286 0.5986912291197835 -3.7590978680308074 -5.8297562902785165 0.9526802718030214 6.695481279627007 -1.7492094623391987 -3.1991610106276682 1.8968930177314438 -4.121838473309449
11680 2.4723839972215567 -2.306298811586795 -1.4105063734702272 2.106124603040991 -0.1381007168483244 -1.5696685132416828 0.9420117449729668 -0.7580500188039715 -0.10743108783246526 -1.2125870613897258
59 7.125234052886167 8.410151826497284 2.459721421253654 0.2748722755117658 -1.5269861568638166 -6.82384754266117 -5.896740234422643 0.4625771282046411 0.8897694524211586 9.524264832058174
4268 -0.4131737532156653 0.27260371899184116 -0.22016025862674468 0.07366002658794032 -0.1600522525799917 -0.017429792430594022 0.03401783264824396 -0.5142169485354692 -0.41509878862957805 0.09679753736053899
12 4.007963410474096 0.6524417715787718 -3.977098199026698 -6.105635180010249 -0.01872862498242981 7.580954076055243 -2.2064851709133233 -2.4677404603280912 1.6492428679699243 -4.172938108462785
15520 0.14492349082795847 -0.4939070268104885 1.2897219114517884 -0.6529818203434556 2.0553503201206573 0.05175452913263008 -0.19080698426336729 3.094099559596365 0.1776661699334447 -0.6328150577357492
12981 3.8356437027506343 0.25626761530955233 -4.050327708481762 -5.0068443165497944 1.226619329263623 6.838840360125955 -2.4512371547536116 -2.571400613227035 1.2706529225495706 -2.222051876319174
21679 1.5683580109079167 -1.767355753422333 0.5118489983744561 0.7124202463977671 -0.7846791041879236 -0.6507351903854117 0.5338274853536044 -0.23019787754885673 3.7267960824919144 -0.5375979883242943
88 3.3722410021790017 -0.8947680249439547 -3.185011714485199 -2.72709118930967 0.7886194345570109 5.6406895352421165 -3.4884116413979718 0.09451233369232612 2.233974057106715 2.6779452343849424
26808 1.7250550911044817 -1.6166430577179864 -1.236097641380866 1.6880035781327778 0.5317858827636913 -1.2847486660446865 0.7814380774407022 0.5211910341735875 2.9017549060948538 -1.0655878634642304
26821 -0.4036686670499673 0.25520933704939514 -0.1778453136974576 0.05702078825446348 0.0349672408655713 -0.05265421282589262 0.04764089831609985 -0.7493024917171087 -0.504608417414877 0.14542578100263898
12982 0.5567720962123175 -1.0211300748138625 1.9578082766077063 -0.7927028221880792 -0.40895245364588306 0.47370924206562814 -0.24736358855981713 2.1406373079290963 -3.132981118942874 -0.45828416879743156
11293 0.6407218917238767 -1.1186578005468775 2.097659138298076 -0.8003187088301077 -0.48692797409604055 0.49943338479823823 -0.2778372471425546 1.918128750822405 -2.311594702414828 -0.35444391434805783
3040 -0.4278732031961549 0.306908846501907 -0.29869672811411185 0.09587016750115379 -0.5402105246040302 0.06930164997355116 -0.02224963028139411 0.35624360004202066 0.15846705832747773 -0.07714066080159807
17750 0.03911858129178772 -0.35633568498512497 1.0260696014854507 -0.49231022732036434 1.647226654405326 0.060662581946185776 -0.1382019233099659 2.1369605412181008 -0.5679555271327155 -0.4447997057783144
25984 -0.34189999399673277 0.16764008449884263 0.05176523450308998 -0.06320173900780596 1.0267899911478342 -0.1693556948571424 0.01644955068480021 -0.530907207930566 0.4018760238844368 0.12068076500388743
12983 -0.4278732031961549 0.306908846501907 -0.29869672811411185 0.09587016750115379 -0.5402105246040302 0.06930164997355116 -0.02224963028139411 0.35624360004202066 0.15846705832747773 -0.07714066080159807
342 -0.2671728576703486 0.0642709400491308 0.306748374646882 -0.20558125654714363 1.9145326781565772 -0.23601401228409172 0.02322955967404552 0.051431840873657146 1.2121031427437499 0.0009209782610705169
718 5.665166793526855 4.848211180333499 -1.2319197593966138 -8.26853201549428 -1.5909930949622897 -5.74394532463747 7.282956988378617 0.1332088188778275 -1.9032918819728941 -0.8305989424780685
15185 2.187385740176926 -1.9887815946019458 -1.5766863772368707 2.0423853464523476 0.5914928082894741 -1.57427316989437 0.8374480339279013 -0.5649994421207422 -0.6579137920000869 -1.1791559066971842
11726 0.6633184037501937 -1.1339763763322872 2.035915155495376 -0.7378514116390743 -0.7662425211334791 0.4530481455321855 -0.28378239871488814 1.195352513999483 -1.6034915858725762 -0.16458421632116413
11445 -0.4285568985440849 0.3085044338279568 -0.3023495871600361 0.0969031973110707 -0.5578923046981712 0.07333567055048809 -0.02486672158044692 0.3967301371851573 0.18514453958129293 -0.08523080955332493
15953 0.06426123988032656 -0.3840698952895684 1.0955490111667403 -0.5471768694353164 1.900999048859252 0.055777788994950846 -0.16113149884416117 2.840278486627909 0.17091095522827532 -0.5872855867984119
16 6.032110646946248 5.9982702197248825 -0.9570747655173779 -5.0367069534968465 -0.2722333782696319 -8.29637925994598 3.229770716924506 1.981731439943843 1.786940762949509 6.51129125164827
7700 -0.38753517766829937 0.2127691942649824 -0.08317804440459325 0.0349214087160568 0.5030145009503061 -0.16870556406573098 0.1321587563627287 -2.0324620914031795 -1.4155043356476937 0.40017811555031246
15186 2.7967744593039905 -1.8880103580855163 -2.148325750498983 0.5256746494582141 1.0329113316332978 1.498285660266868 -1.7650710814905963 0.9303244245404345 -1.7048607682827268 4.713071255930834
2670 -0.4285568985440849 0.3085044338279568 -0.3023495871600361 0.0969031973110707 -0.5578923046981712 0.07333567055048809 -0.02486672158044692 0.3967301371851573 0.18514453958129293 -0.08523080955332493
25383 -0.4217199450647871 0.29254856056746087 -0.2658209967007955 0.0865728992119016 -0.3810745037567582 0.03299546478111837 0.0013041914100823272 -0.008135234246231393 -0.08163027295687146 -0.004329322036052276
84 4.512040986425853 1.1538036630897783 -3.761138842079651 -7.466183827572465 0.12811372042756114 6.915313079508812 -1.0857813377664434 -1.4472667706496385 0.10542773409156563 -6.053864878079942
17782 -0.4285568985440849 0.3085044338279568 -0.3023495871600361 0.0969031973110707 -0.5578923046981712 0.07333567055048809 -0.02486672158044692 0.3967301371851573 0.18514453958129293 -0.08523080955332493
15187 2.203834886851288 -1.8633637449871168 -2.0812779259403382 2.139765065122114 -0.3630346023940758 -1.1862152659425136 0.4597184927771892 0.5972006154169811 -0.6572413937932873 -0.7579365518756839
3168 2.8323818968643177 -0.3352936210779216 -3.8245023128545115 -2.5683533952303854 1.0324512311205247 5.843989132938 -3.649252809911994 -0.5148540996170428 -3.5149454027241385 3.812877824301443
2 7.333314856675176 9.500020570740029 3.3001646377835936 3.941771468933161 -0.11749068207413324 -4.2264881854938965 -10.046281320799679 -0.3504508663907221 0.9722601368007433 6.3019196870762535
1121 -0.4285568985440849 0.3085044338279568 -0.3023495871600361 0.0969031973110707 -0.5578923046981712 0.07333567055048809 -0.02486672158044692 0.3967301371851573 0.18514453958129293 -0.08523080955332493
96 7.560359672675568 10.295716101879055 4.977186389361391 7.475387611785835 0.2711217247903653 0.8218292075176374 -8.930481614792573 -1.8940289029712947 0.06290300477919109 -4.305083506687359
8570 -0.4217199450647871 0.29254856056746087 -0.2658209967007955 0.0865728992119016 -0.3810745037567582 0.03299546478111837 0.0013041914100823272 -0.008135234246231393 -0.08163027295687146 -0.004329322036052276
35 7.660050291522326 10.930554864725531 5.997232670279916 11.866628878517867 1.6909785611575072 11.628356229080618 5.278965641168074 -1.0691046099165795 -2.1840415475547634 -15.658748894907337
3130 2.9475816076486354 -1.0076191313730654 -3.379012303299331 -1.3281878811960948 1.025846611769182 4.367658300982185 -3.2791897434099178 0.6785404647047517 0.3411197783121213 5.2762160790000845
3197 2.280913067564211 -1.9119710076376482 -1.9760196505957224 1.960950299962421 0.46641733786443823 -1.0852692696604407 0.2736713039550017 0.36458596320587133 -0.5185690901037707 -0.17565583877170624
15190 2.4420452181727983 -1.7256286957389493 -2.4751533833849186 1.3617224619176143 -0.18248678353154915 0.49133430850799725 -0.799431122802391 1.3319060121450614 -1.182692604428371 2.5334295053350644
15968 -0.33778368899060474 0.16194000065595313 0.06600561420474906 -0.07122537790367321 1.0781581852399091 -0.17338223430685412 0.017084267476257322 -0.5002836196704349 0.44919341385865325 0.11427694009746249
11155 -0.08198139768761563 -0.20716998485906488 0.8383143866542471 -0.43891641886631294 2.7548027022203088 -0.262186915013155 0.035872888614313266 0.6285955222477096 0.2491715023011986 -0.08999868129119527
18422 -0.2829702868349771 0.06657168218371948 0.29426121642963105 -0.16907992966674237 2.036679872164777 -0.32795734702922846 0.10088631304332019 -1.4596831651301745 0.04318055936263698 0.30361619509574017
54 4.120214939709165 0.6118012704912666 -3.92345425114091 -6.025726300038329 0.27701006099425585 6.763463092662874 -1.2714036488349065 -3.0440135676838485 1.4285028681768084 -6.885092250103488
3041 -0.4278732031961549 0.306908846501907 -0.29869672811411185 0.09587016750115379 -0.5402105246040302 0.06930164997355116 -0.02224963028139411 0.35624360004202066 0.15846705832747773 -0.07714066080159807
45 5.991193297647697 5.216535165740406 -1.9608456482239358 -8.838206117887918 -1.2781366722778962 -5.075044433208666 6.842013531377312 0.16454550190576334 0.11063834191749883 -0.8123408489125354
25386 -0.4036686670499673 0.25520933704939514 -0.1778453136974576 0.05702078825446348 0.0349672408655713 -0.05265421282589262 0.04764089831609985 -0.7493024917171087 -0.504608417414877 0.14542578100263898
15818 1.5209244332946394 -1.7866839933933967 0.8843883442274592 0.4805640284233917 -1.5106606975484718 -0.39995326035775275 0.3844947532889459 -0.2498681657645819 2.8373491446033032 -0.4516331048622275
21156 0.2787153157910104 -0.6421672641733764 1.3153155079917567 -0.5024438765482786 0.048995295975512 0.20524160033722236 -0.07635178847977375 -0.12655453454884885 -1.584538327887896 0.03406964109601626
63 4.948686488318484 2.4894524072272772 -3.0014481512139315 -7.8574789237934155 -0.03173585407610117 0.6974224086280678 4.11945675154135 0.35409056325095 -2.4045576284242562 -7.1436944286990265
16326 -0.4036686670499673 0.25520933704939514 -0.1778453136974576 0.05702078825446348 0.0349672408655713 -0.05265421282589262 0.04764089831609985 -0.7493024917171087 -0.504608417414877 0.14542578100263898
8504 -0.3570359543853518 0.17047928564970208 0.02750860880127909 -0.024826976837806998 0.9663479923495815 -0.21831323401520336 0.1163735440771557 -1.851340120083249 -0.938038204543848 0.37168881667636955
25157 -0.4285568985440849 0.3085044338279568 -0.3023495871600361 0.0969031973110707 -0.5578923046981712 0.07333567055048809 -0.02486672158044692 0.3967301371851573 0.18514453958129293 -0.08523080955332493
9858 2.527738760704668 -1.8791036028209809 -2.1896359740102516 1.345819369682062 0.6003275090677779 0.175292254558725 -0.6937000649070797 1.4733524414988517 -0.27027850124910735 2.239381719077514
9880 1.2967644913326493 -1.583466449020301 0.9567872082371348 0.37797455824550635 -1.3591880873177637 -0.32555372481016126 0.4673407749924819 -1.311492608516527 3.4761825237891784 -0.08000275868416491
10160 -0.16863619886501205 -0.07140832481670911 0.6015556734217035 -0.34873343978133253 2.570853029061455 -0.26051800324390306 -0.04872758171288668 1.0694791150359872 1.7000680659247989 -0.17334694658788463
3177 2.478288272809819 -1.3444519415835245 -3.049458206005137 0.6214199597281233 1.101287336527679 1.8527663413529227 -1.9995284039687904 0.30074298394316673 -1.4549799576373315 5.444056537300188
11291 -0.3722767256031464 0.2106775701215772 -0.0609378583438856 -0.004076023874515364 0.5420174480086488 -0.11272496356254517 0.031238368608749394 -0.6415706079392288 -0.04126064310855515 0.13381466466546355
9860 1.5834809220497026 -1.818511835753168 0.6845898593994675 0.6273079036583037 0.376143244781597 -0.8407884224101612 0.5750890180943872 -1.0105335913475957 3.377893881509295 -0.40398737443608945
14249 -0.3873433988049841 0.21327928619161704 -0.08384720303354577 0.03417613557415358 0.4978139494040656 -0.1656653967024481 0.12834064124866748 -1.9782628571816592 -1.3667125582702122 0.389678392399414
40 6.656570427114245 6.973075332067703 0.22404930539089127 -5.969858041061882 -1.8434109420303373 -9.73305002008065 3.3576826746106887 1.4036448940296316 -1.0310446864885257 6.820669586790001
9862 1.2449506338939402 -1.5546023499250439 1.128014053756594 0.24002530006902237 -1.4058996036229905 -0.2509336487676888 0.38447772343214304 -1.0699684074714382 4.075277176124692 -0.05378725475069678
1 7.81227935811871 11.518290082944116 6.637579343692883 10.783051031828444 1.0100793350571178 7.0360555916148515 -4.7804674093615445 -1.1361131055170852 -1.578776631709963 -10.748113018119867
673 2.4225245927307903 -1.5125062807031777 -2.568794730711473 0.8076656511553717 0.4591175877855179 1.2894800334151661 -1.4619381046416335 0.7229734943574918 0.5651745129898176 4.3920620871269795
25158 -0.4285568985440849 0.3085044338279568 -0.3023495871600361 0.0969031973110707 -0.5578923046981712 0.07333567055048809 -0.02486672158044692 0.3967301371851573 0.18514453958129293 -0.08523080955332493
25155 -0.23737133298191992 0.023030510777785635 0.4089629631824515 -0.2628511048937315 2.2752338186713854 -0.26355584057095294 0.026639178809389957 0.27974282413854024 1.5424825939861502 -0.04631818987324022
9931 1.0540131160681179 -1.505544318659126 1.8960383022905805 -0.3155612591351749 -1.7147776151944376 0.1483950984041362 0.10390865873372279 -1.574053641360013 2.6697019939524393 0.42416393700667915
14251 0.21629712274189977 -0.5886814256848334 1.3908890674011045 -0.6458366389128178 1.3292060053399293 0.19103397249279294 -0.24335898026237263 2.9795845495092985 -0.6992663721487192 -0.5893241165211585
6843 -0.40014518583233666 0.24238957818222626 -0.1508897684799785 0.053883405571138944 0.1748614588994448 -0.09346814991974046 0.08297894430743745 -1.2726213074108057 -0.9122125769765939 0.24841041901317823
11156 -0.0060097193086034555 -0.2874761184132034 0.8883251916214355 -0.44121512957265135 1.427477412234599 0.06173971103583094 -0.1561188298698551 2.3944555920782786 -0.15599262747247375 -0.4708835496744213
9932 0.9557243784431069 -1.4057939590368433 1.8745065480750094 -0.3600465812249292 -2.2184721347856384 0.3086870993270894 -0.005569534105779257 -1.140661579517681 2.0674991873792057 0.3589360486646029
15511 0.5100294942431054 -0.954974378485062 1.8796382354949035 -0.7769674712874397 0.09215754756134972 0.4090947711554212 -0.28608315200331996 2.307501143062612 -1.8843709711099266 -0.48516585480292734
12986 -0.3501079627933721 0.19111815035736313 0.0005941697795583391 -0.052876887070550924 0.7739598582202127 -0.10335781342579344 -0.03685719934548902 0.24833330761163822 0.9845610079370422 -0.0329026119149918
15194 2.187385740176926 -1.9887815946019458 -1.5766863772368707 2.0423853464523476 0.5914928082894741 -1.57427316989437 0.8374480339279013 -0.5649994421207422 -0.6579137920000869 -1.1791559066971842
12394 -0.03485712024816051 -0.24907337919610603 0.8654985751542602 -0.44895178315454626 1.9217533557384263 -0.03687440217609553 -0.12605207016798928 2.3608989786606713 0.5216921625491487 -0.4202929853035921
8853 -0.28875537663976386 0.09316306242227392 0.24254171423083296 -0.16671515965486403 1.7860788805928942 -0.2458108568635745 0.006941697117115359 -0.24037600396591707 1.0981909478595726 0.06902420478078909
11859 -0.2771817053328743 0.08703852263017392 0.25486003135062507 -0.19060202976480997 1.6694194166466603 -0.18075635496372072 -0.01225637750749004 0.6002981386403882 1.5780252773285588 -0.10893448615533302
25388 -0.4217199450647871 0.29254856056746087 -0.2658209967007955 0.0865728992119016 -0.3810745037567582 0.03299546478111837 0.0013041914100823272 -0.008135234246231393 -0.08163027295687146 -0.004329322036052276
7625 2.765821836021828 -1.4385807192983497 -2.9207713679009824 -0.04735542930877726 0.7116150673942537 2.8834558835530317 -2.711775172243952 1.661871129961676 -0.7001292903738133 6.01071604380259
25159 -0.3827407060854201 0.22552149243084985 -0.09990701012840955 0.01628958016847761 0.37300071229428944 -0.09270137998366101 0.036705878511199566 -0.6774812358651885 -0.19570990121066245 0.1376850367778554
12998 2.711532221665058 -1.2786625541671195 -2.8609115758237085 -0.4838206022306978 1.8859786399223795 3.1392291017051415 -2.9302886565382265 2.461250928600443 -1.5579719542120172 5.636795945411755
25160 -0.34327209566544203 0.16954011244647252 0.04701844126920333 -0.06052719270918326 1.0096672597838083 -0.1680135150405719 0.01623797842098122 -0.5411150706839437 0.38610356055969736 0.1228153733060292
15195 3.0216052793017587 -1.2581601953979744 -3.1153984093890177 -1.0458461161536523 1.327183804286009 3.948549848658678 -3.113351222075985 0.5133386092295874 -0.3247343196303714 5.557590612942401
25389 -0.38753517766829937 0.2127691942649824 -0.08317804440459325 0.0349214087160568 0.5030145009503061 -0.16870556406573098 0.1321587563627287 -2.0324620914031795 -1.4155043356476937 0.40017811555031246
15825 -0.040742975916857785 -0.24145982564504215 0.8719702024075414 -0.4600798037617122 2.1474264173495317 -0.07625278891182086 -0.11498748778633752 2.378361236115503 0.8085099046797547 -0.40803389080038327
26036 -0.4078542592428768 0.26114690597310414 -0.19343297441126706 0.06516702987166066 -0.03263945342017228 -0.04464477939433893 0.049827902277079866 -0.7636667428874924 -0.5663881206557201 0.14697392984759572
11860 -0.057881101450911694 -0.21876037277274352 0.8459895418501453 -0.45756931047939453 2.3552743973301027 -0.12012636928420553 -0.07309656064534853 2.003723793550076 1.0708441016487573 -0.3484922736295671
11682 2.4773160986219227 -2.026670361639154 -2.0501776174173667 1.921692797755797 0.22359608548891313 -0.8050066138526024 0.1035399424463538 1.6752440515386222 -0.4903295191859859 0.01612986517628693
2926 -0.04941575592174063 -0.22812882675812438 0.8045207427848052 -0.4174755955159441 1.6234069922000185 -0.004627087463736522 -0.12081987368719091 2.394914013925807 0.2189103722489703 -0.41341087814341015
11690 0.2819844006221353 -0.6720647697084785 1.5422030881409028 -0.7109954168452186 1.3455289361599454 0.22861914300511202 -0.25490453972670846 3.4507618194274494 -0.7826846508399269 -0.6306623743932699
11861 -0.22208621964402847 -0.018549024682649577 0.5064994942195686 -0.2873826174938735 2.807901594458556 -0.39172023972536196 0.11341396370921801 -1.0636973410988453 0.699878978252696 0.22033976781670125
339 3.3671110248061336 0.026360533827543005 -4.137072645634392 -3.8988383264915334 -0.5470808447394453 7.010853465322848 -3.3450712085070387 -1.361786595913032 0.40172495148872234 0.560992689767949
17749 -0.3827407060854201 0.22552149243084985 -0.09990701012840955 0.01628958016847761 0.37300071229428944 -0.09270137998366101 0.036705878511199566 -0.6774812358651885 -0.19570990121066245 0.1376850367778554
14074 2.206359678660096 0.35988410314344765 -3.0062315747902577 -2.702954255394623 2.1156661859647046 3.4806661053733166 -0.9198939623030249 -3.6239848132545704 1.565154349028686 -2.1713187090823953
2538 1.2573709487067182 -1.6390727017590943 1.5726921796126159 -0.0010787579941875186 -1.8364759568868956 -0.07757456029307769 0.23365941243332325 -1.1811221439110933 3.849348440985506 0.17554485894974012
17763 1.4515142879497136 -1.4810763227432617 -0.5367412327071015 1.1822256788142376 0.7038001351606291 -1.1093767963047096 0.5403700416631665 0.7303540761106915 2.2792104922743626 -1.0117637931885533
17752 4.083998161691964 0.2169502213708127 -3.874908774823445 -5.589193671654671 1.1552706635161125 7.494238374643321 -2.6498982550714123 -2.1407652845164775 2.445186336333678 -2.642628029196618
17787 -0.05930255309449493 -0.22801454155147874 0.9182854798724848 -0.49076749389291635 3.13744094949163 -0.27504592328064537 -0.05725110456485272 1.4156806275252762 1.4446066082677915 -0.22356841435695493
17764 -0.3030108700304008 0.10702775529249377 0.19169869718725396 -0.1352143253983131 1.4781765659811719 -0.21194660655114136 0.0805126567128799 -0.6505695279650933 0.28493887810374946 0.12727426667558353
12988 -0.3827407060854201 0.22552149243084985 -0.09990701012840955 0.01628958016847761 0.37300071229428944 -0.09270137998366101 0.036705878511199566 -0.6774812358651885 -0.19570990121066245 0.1376850367778554
11761 -0.1307238184945418 -0.11880742841385553 0.6140190925271498 -0.34877731257560596 1.7075663164817878 -0.08458745555507967 -0.03279463359836609 1.7775008977856708 0.5904081457107684 -0.32658108768868804
21020 2.3785425073297857 -1.7215888514471946 -2.5629923971846154 1.6255781916801717 0.7462933143179307 -0.1937942707285969 -0.5042406546761357 1.9948407389250609 -1.2306112116857466 1.530875695193652
15972 -0.14195656234558793 -0.11317453010204924 0.6265670305563056 -0.3218056208034029 2.054478825043287 -0.1861620215205039 -0.0689307748907621 0.5567926084179841 0.3907403765078399 -0.044164185124641264
11691 2.6855313811366996 -1.41525967189239 -2.8697034167060047 0.045723657934255854 0.742057228553098 2.6476687499775124 -2.621437759316665 1.5577727172536024 -0.663648211392899 5.862632947888514
11862 -0.21727336312613274 -0.0023688759125459116 0.405052027801144 -0.2399030717506393 1.6312214178894027 -0.15250644819282236 -0.03997736726532256 0.8737369156754622 0.7770591367425227 -0.14076420147296997
23679 2.1572332291567236 -2.0171536227540368 -1.3224937515859032 1.9451310395631398 0.11161361310533444 -1.4517104547730972 0.8046664686171435 0.4060216045158367 1.625348646025687 -1.425628553415587
6844 -0.4217199450647871 0.29254856056746087 -0.2658209967007955 0.0865728992119016 -0.3810745037567582 0.03299546478111837 0.0013041914100823272 -0.008135234246231393 -0.08163027295687146 -0.004329322036052276
11863 -0.22208621964402847 -0.018549024682649577 0.5064994942195686 -0.2873826174938735 2.807901594458556 -0.39172023972536196 0.11341396370921801 -1.0636973410988453 0.699878978252696 0.22033976781670125
10394 -0.02609189887615057 -0.26086011851122115 0.9012477856672283 -0.46622362692503916 2.0736960711858434 -0.0533953967530303 -0.13641222258896385 2.41866640855951 0.6578165669945751 -0.4035622445896868
25993 1.616446514854028 -1.8339330545494401 0.6399640116422577 0.6770907822336675 -0.9944352955629107 -0.6261129948821269 0.5149950757974305 -0.5175653986611145 3.9149497237426814 -0.4605881965228227
11296 -0.1957852877236288 -0.03296779272922684 0.5017445989349532 -0.2965751526358506 2.1474386766487865 -0.21123526135540954 -0.03514089534152643 0.9693738139969718 1.316078074852752 -0.16154739475015414
7619 1.811831792986065 -0.8890166111108116 -2.299546892951734 0.18472719900932819 1.2355616058721655 1.4291112118080012 -1.462553999248644 -0.10135625061450393 2.003852538197397 3.300269251071743
8139 -0.27179393604688284 0.0705656920928775 0.2941207358943943 -0.19969074813772494 1.8994179105189717 -0.23761096693918948 0.02702247784540779 -0.008027427557212053 1.2053145745644624 0.011439993251904128
7628 0.42197813494991615 -0.8452598484467754 1.704093859699513 -0.6322194800215931 0.2643900646114826 0.21504151923305756 -0.1856619314721418 0.35936071573718564 -2.6046835454875685 -0.02821913739216619
11689 1.3187538493636592 -1.6383325930592534 1.1473251131757989 0.26641308424913973 -1.339884277950132 -0.3531771039810647 0.33258269159840353 -1.4607829887334678 3.797264911747197 0.041947182661355144
4821 1.4524052135258685 -1.701408762372401 0.8033431616940903 0.5154151052791306 -1.2777050482531247 -0.4477163754506625 0.4115491705740264 -0.38243517064004334 3.5796475263653065 -0.3675154826925638
8839 -0.02366659366617185 -0.2762662314440264 0.8158386539475605 -0.354397914782821 1.2046405994989269 -0.0832166586608253 -0.018743927152260816 -0.4903883871106546 -1.4095337945367918 0.1184534310185136
61 6.124409640861753 6.27194810734438 -0.6153667179669248 -6.537694748697245 -0.46569070559171105 -8.996631490082892 5.319409142800566 2.6148499337883453 -0.19780756739067595 2.626020318201957
11376 -0.2643782810305611 0.0531417255810508 0.3051089413655211 -0.18185431059857904 1.7166397861652984 -0.23090912066193933 0.018301185370508427 -0.2928364076172069 0.4345537130748058 0.08383075019499908
11372 0.11634249597906851 -0.4541196895763364 1.1889094889834868 -0.592070374614442 1.6782131969761327 0.07754253351382492 -0.19588009391714328 2.8297988278114174 -0.14209493258638722 -0.56268636033627
696 -0.34327209566544203 0.16954011244647252 0.04701844126920333 -0.06052719270918326 1.0096672597838083 -0.1680135150405719 0.01623797842098122 -0.5411150706839437 0.38610356055969736 0.1228153733060292
87 4.2048914380634725 0.4630204925097969 -4.593550600169465 -5.623849246427157 1.584003362258623 7.269914356811461 -2.2758645954476644 -3.097718143232095 1.9293498226366546 -3.6883368133271754
24834 0.2371593930375981 -0.6188826051326309 1.5493581491654407 -0.7317067285139868 2.4472619770820097 0.059974554788614735 -0.2591649226974684 3.5878336849889885 0.513027292235864 -0.6258713910964241
4251 -0.4285568985440849 0.3085044338279568 -0.3023495871600361 0.0969031973110707 -0.5578923046981712 0.07333567055048809 -0.02486672158044692 0.3967301371851573 0.18514453958129293 -0.08523080955332493
456 0.5195812983842525 -0.9659983581889587 1.8070422493405254 -0.6905894305003862 -1.029300016853744 0.5239714346520712 -0.22823835906734885 1.4179364626414315 -3.638663551437289 -0.3076007976322008
21170 -0.4036686670499673 0.25520933704939514 -0.1778453136974576 0.05702078825446348 0.0349672408655713 -0.05265421282589262 0.04764089831609985 -0.7493024917171087 -0.504608417414877 0.14542578100263898
6702 0.09086444298889927 -0.41340179570245533 0.942492724985752 -0.3448084454323906 0.2113805367752644 0.07930678758286673 -0.01449697223413136 -0.9970126371245112 -2.12277312150703 0.2059326077972899
727 -0.4285568985440849 0.3085044338279568 -0.3023495871600361 0.0969031973110707 -0.5578923046981712 0.07333567055048809 -0.02486672158044692 0.3967301371851573 0.18514453958129293 -0.08523080955332493
10157 0.09573150800910471 -0.42662680291316246 1.1439887227125012 -0.5815788535104999 1.7309695198712032 0.05926146791804273 -0.17554140702838855 2.756240200820769 -0.055301695031454934 -0.5723970483718585
1113 -0.33891509554917537 0.1646418389405025 0.04986331037105563 -0.06500642081480978 0.8996632273455706 -0.13662489450854431 0.03095001288380139 -0.35743794116496574 0.2788813615894116 0.0766631953461414
1077 -0.2952291823531559 0.08266265894417411 0.2587738853421211 -0.14510664341279517 1.9797852332579697 -0.3404352711124623 0.0812935149002625 -1.6557267524098322 -0.012325268474787026 0.3537092972747263
11692 0.008997087638404547 -0.3095594736842194 0.9628681545477675 -0.5026953116247868 1.941577067904657 -0.010897753297066777 -0.10871546428908523 2.39373103852693 0.4245762024658972 -0.5025881764445773
10209 -0.33778368899060474 0.16194000065595313 0.06600561420474906 -0.07122537790367321 1.0781581852399091 -0.17338223430685412 0.017084267476257322 -0.5002836196704349 0.44919341385865325 0.11427694009746249
7650 -0.2416353192737123 0.029484152438952325 0.376532694068522 -0.23813406617814104 1.9980616572065062 -0.2271887365585521 0.0022686960954637187 0.38002253483370735 1.2496189142608576 -0.0572104203724813
1704 -0.33778368899060474 0.16194000065595313 0.06600561420474906 -0.07122537790367321 1.0781581852399091 -0.17338223430685412 0.017084267476257322 -0.5002836196704349 0.44919341385865325 0.11427694009746249
8857 -0.388180517243566 0.21446679997635892 -0.08696473517630787 0.03580538389759297 0.4842926105469165 -0.16406351001613736 0.1287780420408637 -1.9811357074157363 -1.3790684989183821 0.38998802216840533
14252 0.7837378100565117 -1.2770616125808831 2.1802829461184485 -0.7556262023762231 -1.0897769215340285 0.4791371324084535 -0.23710395925627634 0.9555473108858372 -1.067243953121939 -0.09873794514819356
6845 -0.4278732031961549 0.306908846501907 -0.29869672811411185 0.09587016750115379 -0.5402105246040302 0.06930164997355116 -0.02224963028139411 0.35624360004202066 0.15846705832747773 -0.07714066080159807
11864 -0.2344070034990722 0.02186521198410732 0.3571029016338885 -0.2209818106233767 1.5141712384241697 -0.13566168727289526 -0.014586427966860105 0.8411644162896965 0.7355601356053334 -0.14836076280165453
8858 -0.4217199450647871 0.29254856056746087 -0.2658209967007955 0.0865728992119016 -0.3810745037567582 0.03299546478111837 0.0013041914100823272 -0.008135234246231393 -0.08163027295687146 -0.004329322036052276
9929 1.0540713494718903 -1.463834488198508 1.6748651345586303 -0.17630468791821977 -1.7485160229072971 0.07250283267722084 0.11667658083580806 -1.5198776595821497 3.5220020830049394 0.3995445487996813
20329 -0.4285568985440849 0.3085044338279568 -0.3023495871600361 0.0969031973110707 -0.5578923046981712 0.07333567055048809 -0.02486672158044692 0.3967301371851573 0.18514453958129293 -0.08523080955332493
10203 -0.035668123113590425 -0.24835222969434026 0.8827780688457896 -0.46428781058893576 2.1355277729429116 -0.06986543218636654 -0.11721592847261633 2.4007116860646027 0.7776961773449507 -0.41670917883225
11727 -0.23094502171380857 0.017207669884054973 0.36546158422292885 -0.2253367802563753 1.5172250343678653 -0.13294492756738568 -0.01429911862018189 0.8773149755741035 0.7280940959640627 -0.15579343825028308
20316 1.378816996523821 -1.65414297081337 0.9451854757504218 0.3923091862006286 -1.3994385495223016 -0.36042631815643905 0.408207207859312 -0.7350730900745546 3.733340151856939 -0.26369979958697287
11381 -0.4217199450647871 0.29254856056746087 -0.2658209967007955 0.0865728992119016 -0.3810745037567582 0.03299546478111837 0.0013041914100823272 -0.008135234246231393 -0.08163027295687146 -0.004329322036052276
1742 2.7324863801513746 -1.405056962723961 -2.9518763410688367 -0.01803530863934221 0.8343578356929239 2.7656100055248323 -2.635508044407837 1.3245790640119794 -0.5857385918572678 5.863808303227473
1096 1.286640685588764 -1.7767593825060015 2.1883609277722957 -0.35395104397201865 -2.544115930773773 0.28108483502915005 0.07805652556955937 -1.5007068585033898 3.1522354656183866 0.40224053010914873
4657 -0.28875537663976386 0.09316306242227392 0.24254171423083296 -0.16671515965486403 1.7860788805928942 -0.2458108568635745 0.006941697117115359 -0.24037600396591707 1.0981909478595726 0.06902420478078909
4796 -0.38753517766829937 0.2127691942649824 -0.08317804440459325 0.0349214087160568 0.5030145009503061 -0.16870556406573098 0.1321587563627287 -2.0324620914031795 -1.4155043356476937 0.40017811555031246
4797 -0.4285568985440849 0.3085044338279568 -0.3023495871600361 0.0969031973110707 -0.5578923046981712 0.07333567055048809 -0.02486672158044692 0.3967301371851573 0.18514453958129293 -0.08523080955332493
11812 0.14481307754205971 -0.49171015575743604 1.2411467081664642 -0.596615203587829 1.5311255555848786 0.10363751801524505 -0.2085363088935579 2.749038167088939 -0.2808381826305286 -0.510113768306428
21684 1.6657536206843713 -0.5720346429096901 -2.284509167549062 -0.5607319567814315 -0.029439230710975532 2.9951031290058365 -2.6870326740452937 2.2383473004208243 -2.9576757847609554 5.068701179251594
20332 -0.1957852877236288 -0.03296779272922684 0.5017445989349532 -0.2965751526358506 2.1474386766487865 -0.21123526135540954 -0.03514089534152643 0.9693738139969718 1.316078074852752 -0.16154739475015414
10230 -0.4036686670499673 0.25520933704939514 -0.1778453136974576 0.05702078825446348 0.0349672408655713 -0.05265421282589262 0.04764089831609985 -0.7493024917171087 -0.504608417414877 0.14542578100263898
8859 -0.3951224752008453 0.2352644954737754 -0.13218457562340688 0.0441079156305021 0.25598949204233723 -0.10307947003760472 0.08035453955426133 -1.2553842060063443 -0.8380769330875817 0.2465526403992298
8512 0.5780330302486298 -1.0387773643992975 1.986380982503494 -0.799121556591207 -0.463437319612974 0.5137339070944806 -0.25144013623894323 2.6381931212396834 -2.466008003625397 -0.5269059446450917
8502 -0.2659567844133659 0.06261442635340805 0.31007143747648375 -0.20713139033909583 1.918510248587527 -0.23559376105906596 0.022231423313160525 0.06707901677651704 1.2138896080540889 -0.0018471835786224944
8113 -0.3608035174339862 0.1748677101802883 0.01622266557083649 -0.017106995682518545 0.9326908116378817 -0.21932376460317915 0.11857813671652805 -1.9384322454410396 -1.0228093306737862 0.3896127651434404
9899 0.8753641611679546 -1.3928476460220112 2.270026128507728 -0.7051321005245217 -0.7668487248011306 0.3006341929686478 -0.0660385310699061 -0.9193499169889835 -0.7816952875564026 0.29066681914700615
8510 -0.09136349654054134 -0.17536469234574373 0.7880631463966503 -0.4454401179044605 2.636876390712499 -0.19967322998111353 -0.04379007330231294 1.8731064118816163 1.5307125659816359 -0.3378716662671651
11292 0.7487289116509555 -1.246856997857682 2.2120353298803517 -0.7933060609019474 -0.9630450774944981 0.5322794998342326 -0.2730210347178748 1.3727436378782767 -1.929671973286238 -0.2058803043588817
1098 -0.1957852877236288 -0.03296779272922684 0.5017445989349532 -0.2965751526358506 2.1474386766487865 -0.21123526135540954 -0.03514089534152643 0.9693738139969718 1.316078074852752 -0.16154739475015414
11429 -0.4285568985440849 0.3085044338279568 -0.3023495871600361 0.0969031973110707 -0.5578923046981712 0.07333567055048809 -0.02486672158044692 0.3967301371851573 0.18514453958129293 -0.08523080955332493
21682 -0.020065617591181008 -0.27945625774503413 0.9905682116850151 -0.5399533925503435 2.919626536648043 -0.19417701354608438 -0.01428961987540233 2.196179316271309 1.122009873205055 -0.406090052521772
11448 0.034053782718020904 -0.34304368071041424 1.0312164728438318 -0.5221292097494604 1.9718243131843673 0.017757808486296097 -0.14786697094964474 2.707240094073748 0.35432599888781563 -0.5356469675611099
11342 -0.1957852877236288 -0.03296779272922684 0.5017445989349532 -0.2965751526358506 2.1474386766487865 -0.21123526135540954 -0.03514089534152643 0.9693738139969718 1.316078074852752 -0.16154739475015414
11356 -0.34327209566544203 0.16954011244647252 0.04701844126920333 -0.06052719270918326 1.0096672597838083 -0.1680135150405719 0.01623797842098122 -0.5411150706839437 0.38610356055969736 0.1228153733060292
11450 -0.38753517766829937 0.2127691942649824 -0.08317804440459325 0.0349214087160568 0.5030145009503061 -0.16870556406573098 0.1321587563627287 -2.0324620914031795 -1.4155043356476937 0.40017811555031246
14244 0.031651072124390334 -0.340434507175277 1.008725821622564 -0.520667560159717 1.8723824081051095 0.020209698151068777 -0.11249955414944647 2.456390615591313 0.2721486281145054 -0.5447100531751066
11300 0.06440332314823939 -0.3841072087288158 1.089938638907556 -0.5508701632484028 1.8719606886475253 0.03974121082814911 -0.1655528825850727 2.7742131307605793 0.1663943219041632 -0.5565985634610734
1255 2.8882973507877585 -1.607979782106962 -2.788145005797568 0.05834990210342804 0.4597746983211196 2.790532534546829 -2.7046362910413766 1.7921554501841788 -0.3768239271225367 6.40064380302721
14254 -0.1957852877236288 -0.03296779272922684 0.5017445989349532 -0.2965751526358506 2.1474386766487865 -0.21123526135540954 -0.03514089534152643 0.9693738139969718 1.316078074852752 -0.16154739475015414
11451 -0.4217199450647871 0.29254856056746087 -0.2658209967007955 0.0865728992119016 -0.3810745037567582 0.03299546478111837 0.0013041914100823272 -0.008135234246231393 -0.08163027295687146 -0.004329322036052276
21685 -0.14991751962430483 -0.1034502085353282 0.6455309712024385 -0.361490731273564 2.5265389241622427 -0.24952345739371967 0.02016224444085745 0.5058257221088914 1.0001560888248853 -0.08731957121007566
19639 1.0204234494675324 -1.4906218668369413 2.0569158057103483 -0.4568164230463161 -1.5782012442281166 0.25197982777611566 -0.00024771010820992117 -0.5811068145430803 2.7575412113614126 0.2439898281896217
11433 -0.4285568985440849 0.3085044338279568 -0.3023495871600361 0.0969031973110707 -0.5578923046981712 0.07333567055048809 -0.02486672158044692 0.3967301371851573 0.18514453958129293 -0.08523080955332493
11360 -0.4036686670499673 0.25520933704939514 -0.1778453136974576 0.05702078825446348 0.0349672408655713 -0.05265421282589262 0.04764089831609985 -0.7493024917171087 -0.504608417414877 0.14542578100263898
8528 0.662704532265667 -1.1459003506676586 2.06263425121265 -0.7243104961911239 -1.2589805078113856 0.5672507146067974 -0.3364962048071557 0.8255900409596711 -3.0912692062344878 -0.15414613065354235
15946 3.6189572630631797 -0.2173118416538878 -4.02501116176762 -3.8929092013519075 1.00959981870932 6.789243889522664 -3.42982991153505 -1.2728422448973626 0.7770465851297007 0.7566938058781869
11453 -0.4217199450647871 0.29254856056746087 -0.2658209967007955 0.0865728992119016 -0.3810745037567582 0.03299546478111837 0.0013041914100823272 -0.008135234246231393 -0.08163027295687146 -0.004329322036052276
21686 -0.4217199450647871 0.29254856056746087 -0.2658209967007955 0.0865728992119016 -0.3810745037567582 0.03299546478111837 0.0013041914100823272 -0.008135234246231393 -0.08163027295687146 -0.004329322036052276
21687 -0.388180517243566 0.21446679997635892 -0.08696473517630787 0.03580538389759297 0.4842926105469165 -0.16406351001613736 0.1287780420408637 -1.9811357074157363 -1.3790684989183821 0.38998802216840533
99 1.7615346857772636 -1.8941933352341422 0.014198233674470326 1.1240185550339674 -1.0075365461699726 -0.9099547345627135 0.701310073888027 -1.5243954844806222 2.7097197422685104 -0.51248557274651
11428 -0.4078542592428768 0.26114690597310414 -0.19343297441126706 0.06516702987166066 -0.03263945342017228 -0.04464477939433893 0.049827902277079866 -0.7636667428874924 -0.5663881206557201 0.14697392984759572
21688 0.9741837779462632 -1.4594041124611379 2.2106510607540093 -0.6184193297497796 -0.5013273202512798 0.20789743361872234 -0.05438411532528567 0.3217068734951751 2.341756206735303 0.0670644251904847
21689 0.23691416866770806 -0.6059737846498645 1.2442537690130584 -0.4801275973652204 -0.5815038021537602 0.3346348814794467 -0.13893299396810407 0.9323741097410121 -2.9784664294797443 -0.23400953791159473
19141 -0.306369135996326 0.11032802661983566 0.19077957284357366 -0.12871402217134273 1.5845592924837613 -0.24617715512807614 0.05332411311140226 -0.8362342880700516 0.37859928693159733 0.17982699445835962
20322 0.3931285468029266 -0.7402542760139935 1.1324966695552252 -0.23810025995303571 -1.1606435056612447 0.21943311678155533 -0.056634388394002574 -0.8723354310258632 -0.18155256135931724 0.23035977417606274
3239 2.35118835333265 -1.9305848488033857 -1.9347218174090546 1.772055454176394 0.7911879698545001 -0.8282162906697652 0.08510859869338522 1.4226978185690686 0.2301597711913468 0.05760792380788297
11316 0.8699540486075545 -1.383411547851388 2.333250409181855 -0.7977566202873619 -0.9750307604502947 0.46193513557377053 -0.23048685675265265 0.8310710736301732 -0.46708107842571156 -0.0537140597353551
11320 -0.10213836706309606 -0.1583913439894777 0.7129106182331169 -0.40449702713024116 2.0642898865656467 -0.11254953506696709 -0.028386878102136706 1.990164705147692 0.9190011316428308 -0.3710520939833056
15529 -0.13823436744044526 -0.1128211672097785 0.6846322441617512 -0.387486784580139 2.670292289835181 -0.25001172261826055 -0.07368099073500789 1.4606585126074783 1.744729698683265 -0.242550992580208
15975 0.008943405151157088 -0.3153171505102479 0.9865117509938238 -0.500066652121555 1.9954773328025512 -0.01722437777242105 -0.09105576851493365 2.443306065085386 -0.024271416024348576 -0.45315159260667787
25393 0.47624005986466866 -0.8753743737631662 1.6075814663978845 -0.5906262762758617 0.354143458630197 0.12691751277764896 -0.12448253287451393 0.5902589653906801 1.190939725221509 0.04069670956405329
22194 -0.4217199450647871 0.29254856056746087 -0.2658209967007955 0.0865728992119016 -0.3810745037567582 0.03299546478111837 0.0013041914100823272 -0.008135234246231393 -0.08163027295687146 -0.004329322036052276
13044 2.8170800532588647 -1.2577183430855674 -3.0987460523613057 -0.5392740904220056 0.8419248144362705 3.446487465846274 -2.9942168604146424 1.2570744840979213 -0.47580817094196537 5.8319696676715385
15961 0.8611316122384362 -1.0804007596319436 0.47234445581003354 0.42448760510015676 0.3938445462035519 -0.6272769567534171 0.36032913295860075 -2.1735069187191733 3.1745182343306473 0.22516230225468606
15196 3.233164115370372 -0.6228911063044246 -3.4802201248303812 -2.875156950639546 2.0400444074991966 5.9137607838848965 -3.6383254751464724 -0.11889394804084907 1.310031218831356 3.4809640311008905
15976 0.10418828058724822 -0.4467522091943348 1.226180583402248 -0.5997702143903076 2.21823915356662 0.016567954419907712 -0.15394177990668304 2.7275365904484423 -0.12395823984673024 -0.5560386313264001
11422 -0.057027009965188676 -0.2196028547065356 0.8352308909421445 -0.4586789050802364 2.216374547372345 -0.09720340297502164 -0.06050890456033321 2.3366487086201886 0.9490658219058089 -0.4250704097316728
19168 -0.4036686670499673 0.25520933704939514 -0.1778453136974576 0.05702078825446348 0.0349672408655713 -0.05265421282589262 0.04764089831609985 -0.7493024917171087 -0.504608417414877 0.14542578100263898
15531 1.954043048553485 -1.935521713766706 -0.6827992395449176 1.5618316139146557 -0.8378069003936888 -1.142952001209802 0.7881431382141545 -0.4142660959703471 2.952842763403501 -1.00597156234539
12989 -0.4285568985440849 0.3085044338279568 -0.3023495871600361 0.0969031973110707 -0.5578923046981712 0.07333567055048809 -0.02486672158044692 0.3967301371851573 0.18514453958129293 -0.08523080955332493
12990 -0.4285568985440849 0.3085044338279568 -0.3023495871600361 0.0969031973110707 -0.5578923046981712 0.07333567055048809 -0.02486672158044692 0.3967301371851573 0.18514453958129293 -0.08523080955332493
12991 -0.4183014683251385 0.28457062393721316 -0.24755670147117528 0.08140775016231713 -0.2926656032860518 0.012825361896433378 0.014389647905346907 -0.21056791996192653 -0.2150176792259533 0.03612142172258427
19145 -0.2771344588145603 0.07943741555302201 0.26088018640125954 -0.18546180953035768 1.632970222956819 -0.18746622297119317 0.04741571643870053 0.14328243801988977 0.9555754131981419 -0.03161077584615054
10574 -0.40014518583233666 0.24238957818222626 -0.1508897684799785 0.053883405571138944 0.1748614588994448 -0.09346814991974046 0.08297894430743745 -1.2726213074108057 -0.9122125769765939 0.24841041901317823
19146 -0.040501316259559356 -0.24178803536167537 0.8724848627141243 -0.46028018503919893 2.14685981523493 -0.07594862906775146 -0.1150936040094936 2.3794255432559375 0.8070425843304779 -0.4084469997542819
19181 -0.2170485334097526 -0.006128029255926528 0.49043514106167224 -0.30632447279984304 2.6786833198887283 -0.31563200539828706 0.01776145858551181 0.294412949619715 1.920030705751796 -0.04270694332369382
12992 -0.4217199450647871 0.29254856056746087 -0.2658209967007955 0.0865728992119016 -0.3810745037567582 0.03299546478111837 0.0013041914100823272 -0.008135234246231393 -0.08163027295687146 -0.004329322036052276
10589 -0.4285568985440849 0.3085044338279568 -0.3023495871600361 0.0969031973110707 -0.5578923046981712 0.07333567055048809 -0.02486672158044692 0.3967301371851573 0.18514453958129293 -0.08523080955332493
10573 -0.40014518583233666 0.24238957818222626 -0.1508897684799785 0.053883405571138944 0.1748614588994448 -0.09346814991974046 0.08297894430743745 -1.2726213074108057 -0.9122125769765939 0.24841041901317823
10592 -0.38753517766829937 0.2127691942649824 -0.08317804440459325 0.0349214087160568 0.5030145009503061 -0.16870556406573098 0.1321587563627287 -2.0324620914031795 -1.4155043356476937 0.40017811555031246
12993 -0.4285568985440849 0.3085044338279568 -0.3023495871600361 0.0969031973110707 -0.5578923046981712 0.07333567055048809 -0.02486672158044692 0.3967301371851573 0.18514453958129293 -0.08523080955332493
12994 -0.4183014683251385 0.28457062393721316 -0.24755670147117528 0.08140775016231713 -0.2926656032860518 0.012825361896433378 0.014389647905346907 -0.21056791996192653 -0.2150176792259533 0.03612142172258427
10571 -0.18985046180603396 -0.040952150615031026 0.5160737690875936 -0.3040408148638482 2.1526737554094075 -0.20657795900310744 -0.034648365032935086 1.031346201341671 1.303279149753429 -0.17428912409066039
21021 1.210926578063676 -1.6358209271458637 1.8256606120024956 -0.1989428489502116 -0.903528437998538 -0.09828428757017861 0.19211413320046894 -0.8621739417177848 3.7881913385605315 0.22698388460143099
22345 -0.4078542592428768 0.26114690597310414 -0.19343297441126706 0.06516702987166066 -0.03263945342017228 -0.04464477939433893 0.049827902277079866 -0.7636667428874924 -0.5663881206557201 0.14697392984759572
15197 2.2248021718089537 -1.8983687391837203 -1.9985304579379393 2.1016130054974274 0.002055814528074318 -1.241049697150279 0.48758788482713794 0.17933382316860932 -0.8607186913917376 -0.6583496570297049
7878 0.14092956848590932 -0.5041191957035774 1.2032716376181765 -0.5193645672922913 1.0792338583049514 0.10051362617932663 -0.1700039999155628 0.8225914065100701 -2.1734089297502086 -0.15527622790350581
12641 -0.41777826930102474 0.28382842782174933 -0.24560824388194902 0.08038946996016756 -0.28421476650033384 0.011824182717489145 0.014116272410224423 -0.2087723885656276 -0.20729521632084819 0.03592790311696456
14085 -0.03195512441043741 -0.26173287693729513 0.9181456007881752 -0.4731930576631604 2.3678820664116964 -0.12637388627946344 -0.082379962771332 1.8733438289666993 0.47357406865776935 -0.30732014035769045
17761 1.1138848473191736 -1.5147881301570616 1.5652198072259693 -0.0792496738356583 -2.1820380490070943 0.11149683588277293 0.19502191644191103 -0.9035409339323847 3.7866888131181913 0.2734534907774116
11868 0.37302574678997824 -0.7819065866251002 1.6574980767916656 -0.716244318355598 0.6599715943629973 0.2800539681708583 -0.2357009278499548 2.649132755253657 -1.395514316422404 -0.5287247345377022
11696 0.399427214482821 -0.8144078675457214 1.700806993527427 -0.7297357177618374 0.5496972298275379 0.29759293037003487 -0.23906783527102868 2.5924872823613825 -1.5064657738233105 -0.5150180897761917
4610 -0.10613473762670966 -0.1552170664412397 0.7577467411696103 -0.4296208001672803 2.6306494144362427 -0.20462833142142564 -0.05314180893969645 1.8934076868781002 1.623204913863455 -0.34105471529637743
19167 -0.3741945142362982 0.20557665085523041 -0.05424627205435902 0.003376707544516151 0.5940229634710551 -0.14312663719537297 0.06941951974936098 -1.1835629501544258 -0.5291784168833681 0.2388118961744464
12642 -0.4183014683251385 0.28457062393721316 -0.24755670147117528 0.08140775016231713 -0.2926656032860518 0.012825361896433378 0.014389647905346907 -0.21056791996192653 -0.2150176792259533 0.03612142172258427
14075 1.0695817068021958 -1.5950775432377704 2.3918644214709426 -0.6650903460250266 -1.6473293275602372 0.4149358565788199 -0.11359795267422762 -0.24975711485364027 1.342114251873582 0.23884674933857403
12643 -0.41777826930102474 0.28382842782174933 -0.24560824388194902 0.08038946996016756 -0.28421476650033384 0.011824182717489145 0.014116272410224423 -0.2087723885656276 -0.20729521632084819 0.03592790311696456
3167 2.3745601368364033 -1.8318521826732548 -2.1296986035732437 1.5852974547278365 1.1592766981560403 -0.44155265671498595 -0.21820950536119252 1.2225468626315792 0.562423170472426 1.1479372505493222
7102 1.355161667638565 -1.6745991804284246 1.1807862755763998 0.24732566401445927 -1.586109364595648 -0.22133285396678315 0.3546921163714655 -0.7767327819150394 3.667553052269808 -0.13223863616419612
10560 -0.05974058966177904 -0.21119938903825317 0.7051169680915104 -0.35772677053462065 0.7652927260105384 0.12534241229342663 -0.11408177966205572 2.3688728217473907 -0.7007749489806826 -0.4466171310823819
15977 -0.33778368899060474 0.16194000065595313 0.06600561420474906 -0.07122537790367321 1.0781581852399091 -0.17338223430685412 0.017084267476257322 -0.5002836196704349 0.44919341385865325 0.11427694009746249
462 0.10124027039612439 -0.43398950004184467 1.2002897186573438 -0.6053289771790984 2.079201165710914 0.0567757242630114 -0.17367819761922582 3.434154865628592 0.295952690456077 -0.675269334795445
726 -0.1473387698345975 -0.09891289447244543 0.6332255157431645 -0.3582824663183089 2.299106043048837 -0.1932442163731346 -0.07233500476850817 1.5858380126235416 1.3769377057136898 -0.2714588757142984
4271 -0.4217199450647871 0.29254856056746087 -0.2658209967007955 0.0865728992119016 -0.3810745037567582 0.03299546478111837 0.0013041914100823272 -0.008135234246231393 -0.08163027295687146 -0.004329322036052276
12644 -0.4217199450647871 0.29254856056746087 -0.2658209967007955 0.0865728992119016 -0.3810745037567582 0.03299546478111837 0.0013041914100823272 -0.008135234246231393 -0.08163027295687146 -0.004329322036052276
584 -0.11259246672507586 -0.14488201504124193 0.702300188512307 -0.3987376311046063 2.2101302115489614 -0.14492192353824068 -0.03561344321919724 1.8217541780333557 1.123112332293877 -0.33328098600235523
17773 1.5096117150023947 -1.6440699703159805 0.1272378636907553 0.8373513884067721 -0.3666099167761502 -0.6439463065032069 0.5301429853599215 0.9005556649634712 0.7015272410771849 -0.9348984548727393
454 -0.23979683320768164 0.025504620580226296 0.40749431693779414 -0.2580454004465783 2.3410520878734267 -0.28565272000627673 0.008562648557035186 0.15685558659141913 1.6000127533093607 -0.011523113859602273
728 -0.39511069866294135 0.2549964911182306 -0.16730412856195417 0.03470663817686285 0.04286499652324186 -0.016172293023389534 -0.012569170455834644 0.0984739907526349 0.3165834991440299 -0.017613111151128444
21690 -0.38044171431784235 0.2144928933149498 -0.07793521045321776 0.015530606561701325 0.4872369316099817 -0.12967482596387556 0.07376698648398754 -1.1985867478866212 -0.6266141532477528 0.23922429890624144
17789 -0.07448719584186213 -0.1968697546920282 0.7931237082932362 -0.43754084935618326 2.222202728145852 -0.12334627491162714 -0.07177957972018761 2.256124805823153 1.0135472095842373 -0.4048259063369071
11359 0.6713161865124034 -1.1600524860492987 2.1568548702171526 -0.8292914442121063 -0.5875969504436648 0.5215940726428484 -0.2956657870976232 1.9856418926438124 -2.501041957438666 -0.3755644747310875
17790 -0.31162373778492036 0.12483019488277161 0.16342849366605916 -0.1221393880111558 1.5007000245258073 -0.22344119325406459 0.003415492720132024 -0.4105070498555347 0.8353165591139218 0.10460100981648285
16337 0.09929629441796303 -0.4136719870293977 1.0793328429407838 -0.5023351007935354 1.0197667214846118 0.1687750230127457 -0.27936314995073663 3.0150606114829315 0.10919929483126452 -0.5616406782769949
7630 -0.1338628020551999 -0.12100592859403486 0.607648276045927 -0.3357728642206197 1.6416780583701842 -0.08657433335456186 0.031066392989108325 1.1000324176099763 -0.0438475220400909 -0.2054758749171323
9935 0.8753641611679546 -1.3928476460220112 2.270026128507728 -0.7051321005245217 -0.7668487248011306 0.3006341929686478 -0.0660385310699061 -0.9193499169889835 -0.7816952875564026 0.29066681914700615
25165 -0.38753517766829937 0.2127691942649824 -0.08317804440459325 0.0349214087160568 0.5030145009503061 -0.16870556406573098 0.1321587563627287 -2.0324620914031795 -1.4155043356476937 0.40017811555031246
15199 2.3970460912424354 -1.6288216708134682 -2.5311185162974743 1.2193938886351388 1.4862476447469677 0.39827473547175424 -0.982775820846409 0.587773601347854 -0.7509654363816864 3.138107744041477
17793 -0.30203801142481473 0.1057025443359155 0.1943571474509354 -0.13645443243187488 1.481358622325931 -0.21161040557112085 0.07971414762417196 -0.6380517872428062 0.2863680503520206 0.12505973720382924
15978 -0.4285568985440849 0.3085044338279568 -0.3023495871600361 0.0969031973110707 -0.5578923046981712 0.07333567055048809 -0.02486672158044692 0.3967301371851573 0.18514453958129293 -0.08523080955332493
23685 -0.31502129250881866 0.11249134072501317 0.1666709167358866 -0.10098141883950562 1.4122710095045057 -0.248143032627955 0.11455247899254237 -1.4925679065349413 -0.540421967859102 0.3001916644212276
15958 0.3890273502577758 -0.781373166080447 1.5790161901055773 -0.6674388523449344 0.12708590303523956 0.31133235427354344 -0.2267473626496951 1.9621890502995545 -0.5770700332030251 -0.35867663030739005
8175 -0.4278732031961549 0.306908846501907 -0.29869672811411185 0.09587016750115379 -0.5402105246040302 0.06930164997355116 -0.02224963028139411 0.35624360004202066 0.15846705832747773 -0.07714066080159807
21151 1.0294647981596472 -1.5404267142346386 2.3192150603460258 -0.6429030634246464 -1.2262272946162818 0.34202685242846753 -0.09721836018236492 0.042267061143685586 1.794424665185222 0.15113899811952475
11869 -0.22208621964402847 -0.018549024682649577 0.5064994942195686 -0.2873826174938735 2.807901594458556 -0.39172023972536196 0.11341396370921801 -1.0636973410988453 0.699878978252696 0.22033976781670125
10595 0.24748482496385021 -0.6309651974042124 1.4569785010083671 -0.6716150262449512 1.2545090521204691 0.22985524913058777 -0.25654335220114843 3.1123261542135685 -0.8881227861855221 -0.6406162673145335
4272 -0.4278732031961549 0.306908846501907 -0.29869672811411185 0.09587016750115379 -0.5402105246040302 0.06930164997355116 -0.02224963028139411 0.35624360004202066 0.15846705832747773 -0.07714066080159807
15826 0.10451973476053598 -0.41974190953301344 0.9704562124642289 -0.4435560698802436 -0.35589548943288724 0.40605990485835164 -0.26305863809152513 3.1754779840141025 -1.512879028631832 -0.6410798037059067
4213 0.8505340477190239 -1.3398158594394567 2.1585365732230626 -0.677988343234549 -1.3094504935160218 0.4303483704742143 -0.14999073204691635 0.37470023464942814 -0.010551336453156843 0.029182728738732032
4273 -0.4278732031961549 0.306908846501907 -0.29869672811411185 0.09587016750115379 -0.5402105246040302 0.06930164997355116 -0.02224963028139411 0.35624360004202066 0.15846705832747773 -0.07714066080159807
4242 -0.4285568985440849 0.3085044338279568 -0.3023495871600361 0.0969031973110707 -0.5578923046981712 0.07333567055048809 -0.02486672158044692 0.3967301371851573 0.18514453958129293 -0.08523080955332493
8860 -0.3951224752008453 0.2352644954737754 -0.13218457562340688 0.0441079156305021 0.25598949204233723 -0.10307947003760472 0.08035453955426133 -1.2553842060063443 -0.8380769330875817 0.2465526403992298
2569 -0.31491532784544807 0.1302728681954554 0.14511883476952306 -0.11580114954738151 1.3635370413069963 -0.1957518979163639 0.020610471873240683 -0.3301525737808172 0.7120678026043037 0.07870013506176886
2570 -0.4285568985440849 0.3085044338279568 -0.3023495871600361 0.0969031973110707 -0.5578923046981712 0.07333567055048809 -0.02486672158044692 0.3967301371851573 0.18514453958129293 -0.08523080955332493
11456 -0.38753517766829937 0.2127691942649824 -0.08317804440459325 0.0349214087160568 0.5030145009503061 -0.16870556406573098 0.1321587563627287 -2.0324620914031795 -1.4155043356476937 0.40017811555031246
15200 2.158501361410278 -1.9170778174025873 -1.7469895393309582 2.0909507507999123 -0.20068239558315235 -1.39244169226608 0.7161522620834282 1.2615874873856898 0.5322542893873701 -1.5361803406681522
11457 -0.4285568985440849 0.3085044338279568 -0.3023495871600361 0.0969031973110707 -0.5578923046981712 0.07333567055048809 -0.02486672158044692 0.3967301371851573 0.18514453958129293 -0.08523080955332493
7621 0.371375595411408 -0.7673006837557244 1.5936464311108833 -0.6868864142054003 -0.039720544555674274 0.4999315310687669 -0.3124103500970466 4.229215132225331 -1.3326269759708547 -0.8410529524739792
15530 1.7723363398203502 -1.8661351686585352 -0.09612582888477078 1.160788110080413 -1.0770641796391707 -0.8742205353632315 0.6595383974314638 -0.4252205823861184 3.2292623517317613 -0.7312416482629993
10580 -0.4036686670499673 0.25520933704939514 -0.1778453136974576 0.05702078825446348 0.0349672408655713 -0.05265421282589262 0.04764089831609985 -0.7493024917171087 -0.504608417414877 0.14542578100263898
15979 -0.2639327938235777 0.05974785006962833 0.3002832450987173 -0.19236898036313319 1.7593575779122785 -0.22055917760277471 -0.010842433133864236 0.09617738962094932 1.0047450562664328 0.007908310404347241
12999 -0.3827407060854201 0.22552149243084985 -0.09990701012840955 0.01628958016847761 0.37300071229428944 -0.09270137998366101 0.036705878511199566 -0.6774812358651885 -0.19570990121066245 0.1376850367778554
8576 -0.4285568985440849 0.3085044338279568 -0.3023495871600361 0.0969031973110707 -0.5578923046981712 0.07333567055048809 -0.02486672158044692 0.3967301371851573 0.18514453958129293 -0.08523080955332493
10550 -0.4285568985440849 0.3085044338279568 -0.3023495871600361 0.0969031973110707 -0.5578923046981712 0.07333567055048809 -0.02486672158044692 0.3967301371851573 0.18514453958129293 -0.08523080955332493
14084 2.397163841012618 -2.1536477545870585 -1.7857173235925619 2.261600248992048 -0.13796171351667827 -1.555309035611208 0.8444204693451451 0.9095242943949688 0.7502054748697 -1.589146869142808
2420 0.11150342014412615 -0.4478240118329312 1.1811518665781022 -0.5949158342148844 1.7164911293082319 0.07432911580495424 -0.1928795019660594 2.876673425241012 -0.12440661170500451 -0.5882923335167187
20333 -0.4285568985440849 0.3085044338279568 -0.3023495871600361 0.0969031973110707 -0.5578923046981712 0.07333567055048809 -0.02486672158044692 0.3967301371851573 0.18514453958129293 -0.08523080955332493
20334 -0.4285568985440849 0.3085044338279568 -0.3023495871600361 0.0969031973110707 -0.5578923046981712 0.07333567055048809 -0.02486672158044692 0.3967301371851573 0.18514453958129293 -0.08523080955332493
8125 0.5493121949006203 -1.0070576385690195 2.0055321293255846 -0.84028943412646 0.39574373540239993 0.37821459284223496 -0.24775688064337598 2.5494418086880253 -1.6879250380777862 -0.5144217800226272
8861 -0.4278732031961549 0.306908846501907 -0.29869672811411185 0.09587016750115379 -0.5402105246040302 0.06930164997355116 -0.02224963028139411 0.35624360004202066 0.15846705832747773 -0.07714066080159807
23698 -0.4278732031961549 0.306908846501907 -0.29869672811411185 0.09587016750115379 -0.5402105246040302 0.06930164997355116 -0.02224963028139411 0.35624360004202066 0.15846705832747773 -0.07714066080159807
13000 -0.4285568985440849 0.3085044338279568 -0.3023495871600361 0.0969031973110707 -0.5578923046981712 0.07333567055048809 -0.02486672158044692 0.3967301371851573 0.18514453958129293 -0.08523080955332493
25394 -0.4204259116342512 0.29086930827567514 -0.26127853021244335 0.08397997209836189 -0.36183260578028315 0.0312006682243087 -0.00011553280102396628 0.0070138879491872565 -0.05333800650912188 -0.006893711319718769
8862 -0.4015758709535127 0.2522405525875406 -0.1700514833405529 0.05294766744586491 0.06877058800844328 -0.056658929541669456 0.046547396335609816 -0.7421203661319172 -0.47371856579445554 0.14465170658016072
11458 -0.38753517766829937 0.2127691942649824 -0.08317804440459325 0.0349214087160568 0.5030145009503061 -0.16870556406573098 0.1321587563627287 -2.0324620914031795 -1.4155043356476937 0.40017811555031246
11459 -0.3093369016704048 0.1216634816367219 0.17133981572253637 -0.12659696517552652 1.5292379101325166 -0.22567815961501592 0.003768113159830424 -0.39349394526657433 0.8616039979884874 0.10104332931291361
11332 -0.4285568985440849 0.3085044338279568 -0.3023495871600361 0.0969031973110707 -0.5578923046981712 0.07333567055048809 -0.02486672158044692 0.3967301371851573 0.18514453958129293 -0.08523080955332493
11460 -0.4135156008896302 0.27340151265486606 -0.22198668814970687 0.07417654149289904 -0.16889314262706231 -0.015412782142125825 0.03270928699871754 -0.4939736799639 -0.40176004800266873 0.09275246298467554
10597 -0.4278732031961549 0.306908846501907 -0.29869672811411185 0.09587016750115379 -0.5402105246040302 0.06930164997355116 -0.02224963028139411 0.35624360004202066 0.15846705832747773 -0.07714066080159807
15980 -0.18624995822157425 -0.0542433606191472 0.5497935320344439 -0.3107323022978114 2.3693334409523232 -0.260884301508405 -0.0023451657185995156 0.47362083093185103 0.9804764049968248 -0.06254415691031415
25395 -0.4285568985440849 0.3085044338279568 -0.3023495871600361 0.0969031973110707 -0.5578923046981712 0.07333567055048809 -0.02486672158044692 0.3967301371851573 0.18514453958129293 -0.08523080955332493
23700 -0.4285568985440849 0.3085044338279568 -0.3023495871600361 0.0969031973110707 -0.5578923046981712 0.07333567055048809 -0.02486672158044692 0.3967301371851573 0.18514453958129293 -0.08523080955332493
20335 -0.40014518583233666 0.24238957818222626 -0.1508897684799785 0.053883405571138944 0.1748614588994448 -0.09346814991974046 0.08297894430743745 -1.2726213074108057 -0.9122125769765939 0.24841041901317823
17796 0.06440332314823939 -0.3841072087288158 1.089938638907556 -0.5508701632484028 1.8719606886475253 0.03974121082814911 -0.1655528825850727 2.7742131307605793 0.1663943219041632 -0.5565985634610734
10208 -0.11259246672507586 -0.14488201504124193 0.702300188512307 -0.3987376311046063 2.2101302115489614 -0.14492192353824068 -0.03561344321919724 1.8217541780333557 1.123112332293877 -0.33328098600235523
8136 0.03992788731741797 -0.350991460326879 1.0425820533722945 -0.5276919749428042 1.952495869725622 0.022012660552461146 -0.15129005062101794 2.7202026173034555 0.31795212592323746 -0.5397021151546512
1706 -0.4285568985440849 0.3085044338279568 -0.3023495871600361 0.0969031973110707 -0.5578923046981712 0.07333567055048809 -0.02486672158044692 0.3967301371851573 0.18514453958129293 -0.08523080955332493
10171 -0.33778368899060474 0.16194000065595313 0.06600561420474906 -0.07122537790367321 1.0781581852399091 -0.17338223430685412 0.017084267476257322 -0.5002836196704349 0.44919341385865325 0.11427694009746249
12708 -0.3879726963265569 0.2329434535854863 -0.11939158602067176 0.026472382189974317 0.28849234443711025 -0.08268958819421911 0.039439633462424586 -0.6954365498281698 -0.2729345302617159 0.13962022283405162
21175 -0.16512202048272218 -0.07422030847254811 0.5757786447235953 -0.3351477408138389 2.1744865835786595 -0.18717253253518076 -0.03259615541380474 1.2895644819445886 1.2499502951729278 -0.2273796630094373
2011 0.7558845661196205 -1.2546669447625034 2.2138452779618767 -0.7955884863266619 -0.9730526188563455 0.5275549693632715 -0.268374031292163 1.3899950207865044 -1.8169490826294756 -0.20616805219359652
8863 -0.4217199450647871 0.29254856056746087 -0.2658209967007955 0.0865728992119016 -0.3810745037567582 0.03299546478111837 0.0013041914100823272 -0.008135234246231393 -0.08163027295687146 -0.004329322036052276
11841 -0.15731976175517548 -0.08302096850205387 0.5495904293619939 -0.3135787380322929 1.6766214838772888 -0.10473843458128299 -0.04016552221116262 1.4883493410028337 0.6382767615579672 -0.26466750780436576
10201 -0.2708210774412965 0.06924048113629913 0.2967791861580762 -0.20093085517128678 1.9025999668637303 -0.23727476595916863 0.02622396875669987 0.004490313165078504 1.2067437468127344 0.009225463780149315
4814 -0.32923749714148265 0.1419951590803335 0.11166635227879963 -0.08413825052763445 1.2991804364166746 -0.22380749151856658 0.04979790871441892 -1.0063653339596697 0.11572489818594846 0.21540379949405336
24761 -0.2829702868349771 0.06657168218371948 0.29426121642963105 -0.16907992966674237 2.036679872164777 -0.32795734702922846 0.10088631304332019 -1.4596831651301745 0.04318055936263698 0.30361619509574017
11463 -0.4285568985440849 0.3085044338279568 -0.3023495871600361 0.0969031973110707 -0.5578923046981712 0.07333567055048809 -0.02486672158044692 0.3967301371851573 0.18514453958129293 -0.08523080955332493
8131 -0.4285568985440849 0.3085044338279568 -0.3023495871600361 0.0969031973110707 -0.5578923046981712 0.07333567055048809 -0.02486672158044692 0.3967301371851573 0.18514453958129293 -0.08523080955332493
11462 -0.4285568985440849 0.3085044338279568 -0.3023495871600361 0.0969031973110707 -0.5578923046981712 0.07333567055048809 -0.02486672158044692 0.3967301371851573 0.18514453958129293 -0.08523080955332493
499 -0.40014518583233666 0.24238957818222626 -0.1508897684799785 0.053883405571138944 0.1748614588994448 -0.09346814991974046 0.08297894430743745 -1.2726213074108057 -0.9122125769765939 0.24841041901317823
11338 -0.23737133298191992 0.023030510777785635 0.4089629631824515 -0.2628511048937315 2.2752338186713854 -0.26355584057095294 0.026639178809389957 0.27974282413854024 1.5424825939861502 -0.04631818987324022
6846 -0.4285568985440849 0.3085044338279568 -0.3023495871600361 0.0969031973110707 -0.5578923046981712 0.07333567055048809 -0.02486672158044692 0.3967301371851573 0.18514453958129293 -0.08523080955332493
11464 -0.4285568985440849 0.3085044338279568 -0.3023495871600361 0.0969031973110707 -0.5578923046981712 0.07333567055048809 -0.02486672158044692 0.3967301371851573 0.18514453958129293 -0.08523080955332493
11307 -0.4217199450647871 0.29254856056746087 -0.2658209967007955 0.0865728992119016 -0.3810745037567582 0.03299546478111837 0.0013041914100823272 -0.008135234246231393 -0.08163027295687146 -0.004329322036052276
11465 -0.4217199450647871 0.29254856056746087 -0.2658209967007955 0.0865728992119016 -0.3810745037567582 0.03299546478111837 0.0013041914100823272 -0.008135234246231393 -0.08163027295687146 -0.004329322036052276
24724 0.05005088839964024 -0.369415898129767 0.9882820133094982 -0.4617998052816188 1.3144175211058184 0.019091193610641426 -0.10273257654140108 0.6748559712213287 -0.838859915961608 -0.1633157238595535
11466 -0.38753517766829937 0.2127691942649824 -0.08317804440459325 0.0349214087160568 0.5030145009503061 -0.16870556406573098 0.1321587563627287 -2.0324620914031795 -1.4155043356476937 0.40017811555031246
1129 0.016569186600264414 -0.3204830384567533 1.0445388367204362 -0.5500778525841694 2.596667689732396 -0.10175080493005416 -0.12619711674170614 2.7919749638244817 1.126504661360122 -0.484486103683732
11340 -0.4285568985440849 0.3085044338279568 -0.3023495871600361 0.0969031973110707 -0.5578923046981712 0.07333567055048809 -0.02486672158044692 0.3967301371851573 0.18514453958129293 -0.08523080955332493
11467 -0.4217199450647871 0.29254856056746087 -0.2658209967007955 0.0865728992119016 -0.3810745037567582 0.03299546478111837 0.0013041914100823272 -0.008135234246231393 -0.08163027295687146 -0.004329322036052276
11778 -0.2344070034990722 0.02186521198410732 0.3571029016338885 -0.2209818106233767 1.5141712384241697 -0.13566168727289526 -0.014586427966860105 0.8411644162896965 0.7355601356053334 -0.14836076280165453
1088 -0.28632987641400237 0.09068895261983322 0.2440103604754902 -0.1715208641020166 1.7202606113908534 -0.22371397742825128 0.02501822736947005 -0.11748876641879463 1.040660788536366 0.03422912876715144
2992 -0.4278732031961549 0.306908846501907 -0.29869672811411185 0.09587016750115379 -0.5402105246040302 0.06930164997355116 -0.02224963028139411 0.35624360004202066 0.15846705832747773 -0.07714066080159807
8177 -0.4285568985440849 0.3085044338279568 -0.3023495871600361 0.0969031973110707 -0.5578923046981712 0.07333567055048809 -0.02486672158044692 0.3967301371851573 0.18514453958129293 -0.08523080955332493
11875 -0.22208621964402847 -0.018549024682649577 0.5064994942195686 -0.2873826174938735 2.807901594458556 -0.39172023972536196 0.11341396370921801 -1.0636973410988453 0.699878978252696 0.22033976781670125
21692 0.34538735441123936 -0.7272656119401022 1.4140901431385695 -0.5623254268687959 -0.7380443826152872 0.3382883962073566 -0.1556265865629588 0.5134081679084039 -2.4601903078314593 -0.1586681429729759
21152 -0.19479615007069634 -0.03429851904352755 0.5041327939603935 -0.29781942967385017 2.148311189775557 -0.21045904429669274 -0.03505880695676107 0.9797025452210885 1.31394492066953 -0.1636710163069053
1131 1.5843805719356836 -1.8727357305520045 0.9956177934333399 0.5027287470190964 -2.7126740174954445 -0.2945817163194086 0.4465590868780357 -1.2583969384460827 3.9087769458415464 -0.07979500170778298
21176 -0.31491532784544807 0.1302728681954554 0.14511883476952306 -0.11580114954738151 1.3635370413069963 -0.1957518979163639 0.020610471873240683 -0.3301525737808172 0.7120678026043037 0.07870013506176886
11468 -0.4217199450647871 0.29254856056746087 -0.2658209967007955 0.0865728992119016 -0.3810745037567582 0.03299546478111837 0.0013041914100823272 -0.008135234246231393 -0.08163027295687146 -0.004329322036052276
11729 -0.20487066752082114 -0.018383244883948956 0.43808980172667616 -0.25864641301393343 1.6128470502119696 -0.1258345965736303 -0.039611664325650886 1.223306174040085 0.7820882782741169 -0.21570663993182074
10184 -0.4036686670499673 0.25520933704939514 -0.1778453136974576 0.05702078825446348 0.0349672408655713 -0.05265421282589262 0.04764089831609985 -0.7493024917171087 -0.504608417414877 0.14542578100263898
148 6.383555482611791 6.307182328286412 0.01906721249065357 -5.464138180187564 -1.7266866797570661 -8.779177803272603 3.1555057008837726 0.9859539943058095 -0.14427717421255604 6.332881293949496
21693 -0.4278732031961549 0.306908846501907 -0.29869672811411185 0.09587016750115379 -0.5402105246040302 0.06930164997355116 -0.02224963028139411 0.35624360004202066 0.15846705832747773 -0.07714066080159807
1016 -0.27155072139548636 0.07023438935373301 0.2947853484603146 -0.20000077489611545 1.9002134246051618 -0.23752691669418433 0.026822850573230972 -0.004897992376639494 1.2056718676265306 0.010886360883965366
24853 -0.2589252542438256 0.05254189834071671 0.3236404544567615 -0.20435411016257768 1.878383669964941 -0.23474533464769406 -0.018099867014930354 0.14655011745833224 1.136280720899393 0.0007095789143580662
14104 -0.4285568985440849 0.3085044338279568 -0.3023495871600361 0.0969031973110707 -0.5578923046981712 0.07333567055048809 -0.02486672158044692 0.3967301371851573 0.18514453958129293 -0.08523080955332493
13001 -0.4285568985440849 0.3085044338279568 -0.3023495871600361 0.0969031973110707 -0.5578923046981712 0.07333567055048809 -0.02486672158044692 0.3967301371851573 0.18514453958129293 -0.08523080955332493
14105 -0.4285568985440849 0.3085044338279568 -0.3023495871600361 0.0969031973110707 -0.5578923046981712 0.07333567055048809 -0.02486672158044692 0.3967301371851573 0.18514453958129293 -0.08523080955332493
15950 -0.009932904098783996 -0.29068188036759274 0.9397038096225154 -0.4908288745689006 2.060773429544176 -0.05984960125354946 -0.049397751424636746 2.0891022286711123 0.1501051743552999 -0.4124939166545432
15984 -0.4278732031961549 0.306908846501907 -0.29869672811411185 0.09587016750115379 -0.5402105246040302 0.06930164997355116 -0.02224963028139411 0.35624360004202066 0.15846705832747773 -0.07714066080159807
3233 2.23480759814594 -1.9910165147195473 -1.7258447728993898 2.093581046227026 0.6796209568260491 -1.564397926163095 0.7470468769690043 -0.44658417645898885 -0.9167941435290929 -0.9985618427330414
18574 0.06361825158269943 -0.3839522262221139 1.1320022619712098 -0.5787760518363197 2.325326476025101 -0.009495129014563938 -0.14402972873197745 2.9220643219740556 0.676856672659115 -0.5807938317879838
16332 -0.11128950233351814 -0.13252858057107614 0.6551212647276073 -0.3919823053986252 1.6922799647809306 -0.014334061358584876 -0.07961514912477417 3.019956866601223 1.437809002451396 -0.5808762005288561
12646 -0.3423573612196356 0.16827342714805246 0.05018297009179458 -0.06231022357493164 1.0210824140264927 -0.16890830158495224 0.016379026596860632 -0.5343098288483584 0.39661853610952247 0.1213923011046014
12647 -0.23308912742459018 0.009539310863332616 0.4221934321425729 -0.25104693880210227 2.2190839083832734 -0.27761399377026436 0.0349823373336253 -0.12605917945552741 0.9161503985881536 0.04391643902410944
8972 -0.11259246672507586 -0.14488201504124193 0.702300188512307 -0.3987376311046063 2.2101302115489614 -0.14492192353824068 -0.03561344321919724 1.8217541780333557 1.123112332293877 -0.33328098600235523
18575 -0.13553281038289625 -0.11170386460332583 0.6153366017686464 -0.35902175648890766 1.8100623768080757 -0.08700098969124445 -0.001658962956233781 1.8382382573585851 0.7760130363556946 -0.35575859277665706
18566 0.9643554190558933 -1.5063726704925509 2.537625892490615 -0.8803053795193791 -0.8077121896878192 0.45643710635755175 -0.2601064048001523 0.8380219213120625 -0.27424350055622215 -0.06357189066692082
17191 -0.3869248395856932 0.21268552929924625 -0.08228843696216509 0.033361511412433924 0.5045746188326399 -0.1664663400456036 0.1281219408525696 -1.9768264320646214 -1.3605345879461281 0.38952357751491845
11469 -0.4285568985440849 0.3085044338279568 -0.3023495871600361 0.0969031973110707 -0.5578923046981712 0.07333567055048809 -0.02486672158044692 0.3967301371851573 0.18514453958129293 -0.08523080955332493
21694 -0.4285568985440849 0.3085044338279568 -0.3023495871600361 0.0969031973110707 -0.5578923046981712 0.07333567055048809 -0.02486672158044692 0.3967301371851573 0.18514453958129293 -0.08523080955332493
21697 -0.4285568985440849 0.3085044338279568 -0.3023495871600361 0.0969031973110707 -0.5578923046981712 0.07333567055048809 -0.02486672158044692 0.3967301371851573 0.18514453958129293 -0.08523080955332493
21698 -0.4285568985440849 0.3085044338279568 -0.3023495871600361 0.0969031973110707 -0.5578923046981712 0.07333567055048809 -0.02486672158044692 0.3967301371851573 0.18514453958129293 -0.08523080955332493
21699 -0.4285568985440849 0.3085044338279568 -0.3023495871600361 0.0969031973110707 -0.5578923046981712 0.07333567055048809 -0.02486672158044692 0.3967301371851573 0.18514453958129293 -0.08523080955332493
21701 -0.4285568985440849 0.3085044338279568 -0.3023495871600361 0.0969031973110707 -0.5578923046981712 0.07333567055048809 -0.02486672158044692 0.3967301371851573 0.18514453958129293 -0.08523080955332493
21695 -0.4217199450647871 0.29254856056746087 -0.2658209967007955 0.0865728992119016 -0.3810745037567582 0.03299546478111837 0.0013041914100823272 -0.008135234246231393 -0.08163027295687146 -0.004329322036052276
21702 -0.4285568985440849 0.3085044338279568 -0.3023495871600361 0.0969031973110707 -0.5578923046981712 0.07333567055048809 -0.02486672158044692 0.3967301371851573 0.18514453958129293 -0.08523080955332493
23702 -0.4078542592428768 0.26114690597310414 -0.19343297441126706 0.06516702987166066 -0.03263945342017228 -0.04464477939433893 0.049827902277079866 -0.7636667428874924 -0.5663881206557201 0.14697392984759572
3008 -0.4183014683251385 0.28457062393721316 -0.24755670147117528 0.08140775016231713 -0.2926656032860518 0.012825361896433378 0.014389647905346907 -0.21056791996192653 -0.2150176792259533 0.03612142172258427
215 2.7413581270129543 -1.6315670948696714 -2.6236425276508455 0.3113060854109426 0.6729010874756816 2.1602656309444015 -2.18221321106646 0.5712036444812358 -2.020008706754702 5.676911204464482
8865 -0.4285568985440849 0.3085044338279568 -0.3023495871600361 0.0969031973110707 -0.5578923046981712 0.07333567055048809 -0.02486672158044692 0.3967301371851573 0.18514453958129293 -0.08523080955332493
15512 2.36147032992122 -2.137629499457921 -1.5165100694638876 1.9922483227893664 0.08824247313677201 -1.391612070773601 0.621076883624102 0.9355440725336075 -0.35320398189985386 -1.2579259209469678
25150 2.796930974700364 -1.6549854084673616 -2.6302002215335536 0.29324370705452385 0.999341326476606 2.1876336783299375 -2.28682952931596 1.931433355139483 -0.4110115638332145 5.400290198002532
3241 2.243785055287272 -1.9860631138188307 -1.7509432522958386 2.074840100036178 0.6917563034643902 -1.507723076287403 0.6934171422102572 -0.4202726396841096 -0.9387775596577398 -0.8836602216493232
3242 2.246206924509406 -1.854916360288848 -2.1191032681310826 2.0247771826938634 -0.17714675259822685 -0.9847850535015176 0.2546264374729656 0.7808911076802116 -0.5712237196863361 -0.2671067678873185
2568 -0.4285568985440849 0.3085044338279568 -0.3023495871600361 0.0969031973110707 -0.5578923046981712 0.07333567055048809 -0.02486672158044692 0.3967301371851573 0.18514453958129293 -0.08523080955332493
3243 2.2244080855947623 -1.8804457355876538 -2.054408201508623 2.094557575807015 -0.2290204844697123 -1.1459021126272722 0.4633844426068945 0.3022196497649605 -1.0892959469886077 -0.5708905837780607
3244 2.2055375503459898 -1.9183895182305306 -1.8944065098653786 2.1369438966414775 -0.11403658963725315 -1.3734211918883155 0.620339479385165 1.3796952511114164 0.28002861020453873 -1.34346826638015
15986 0.4321472305464624 -0.8687855335118023 1.7948305517170051 -0.7944732095401601 0.5311852401734884 0.36443728451791896 -0.2640738778997866 3.0790874919254145 -1.8927345719987863 -0.6165523436324247
25396 -0.4285568985440849 0.3085044338279568 -0.3023495871600361 0.0969031973110707 -0.5578923046981712 0.07333567055048809 -0.02486672158044692 0.3967301371851573 0.18514453958129293 -0.08523080955332493
15987 -0.19219026790554097 -0.04162527169800038 0.4379031091551296 -0.24535571893452038 1.250873380361337 -0.08144754978778646 0.016669091967015832 0.8175387544685576 -0.27524761435108225 -0.14476553299468725
15988 0.24268539618240845 -0.6429224541607013 1.498081367188173 -0.6741028560988929 1.7284486829137853 0.07210671508735624 -0.19432853657741733 1.82265361264565 -1.6655247690837833 -0.3344150906009463
478 0.08269998875664562 -0.41939696160398304 1.2508503372904465 -0.6427561930611881 3.106421257240908 -0.1436389603653445 -0.10180966678605062 2.626273913749262 0.9455506897063128 -0.47740332504956823
3245 2.23480759814594 -1.9910165147195473 -1.7258447728993898 2.093581046227026 0.6796209568260491 -1.564397926163095 0.7470468769690043 -0.44658417645898885 -0.9167941435290929 -0.9985618427330414
3246 2.23480759814594 -1.9910165147195473 -1.7258447728993898 2.093581046227026 0.6796209568260491 -1.564397926163095 0.7470468769690043 -0.44658417645898885 -0.9167941435290929 -0.9985618427330414
8178 -0.3423573612196356 0.16827342714805246 0.05018297009179458 -0.06231022357493164 1.0210824140264927 -0.16890830158495224 0.016379026596860632 -0.5343098288483584 0.39661853610952247 0.1213923011046014
25169 -0.4285568985440849 0.3085044338279568 -0.3023495871600361 0.0969031973110707 -0.5578923046981712 0.07333567055048809 -0.02486672158044692 0.3967301371851573 0.18514453958129293 -0.08523080955332493
11153 0.07450071585370727 -0.40372129066032414 1.0623083578426078 -0.5200157736313604 1.2704885053341497 0.0947964506171697 -0.1468357660467603 2.1538899933509112 -1.0675472220922628 -0.45223021662353813
